################################################################################
# Neural network connection values (weights and biases).
################################################################################
# Col  Name       Description
################################################################################
# 1    connection Neural network connection value.
# 2    t          Connection type (a = weight, b = bias).
# 3    index      Index enumerating weights.
# 4    l_s        Starting point layer (end point layer for biases).
# 5    n_s        Starting point neuron in starting layer (end point neuron for biases).
# 6    l_e        End point layer.
# 7    n_e        End point neuron in end layer.
################################################################################
#                      1 2         3     4     5     6     7
#             connection t     index   l_s   n_s   l_e   n_e
############################################################
 -2.5251517522163534E+00 a         1     0     1     1     1
  9.1544369731470032E-01 a         2     0     1     1     2
 -7.1250103084168914E-01 a         3     0     1     1     3
  1.8263259907133382E+00 a         4     0     1     1     4
 -3.1935884423345140E+00 a         5     0     1     1     5
  3.1077702459667971E+00 a         6     0     1     1     6
  9.0534738471120804E+00 a         7     0     1     1     7
 -3.8285298972668858E+00 a         8     0     1     1     8
 -2.2190208804607474E+00 a         9     0     1     1     9
 -1.8867733322229616E+00 a        10     0     1     1    10
  1.1445778034554825E+00 a        11     0     1     1    11
 -2.7697682530446938E-01 a        12     0     1     1    12
  2.0261113442448417E+00 a        13     0     1     1    13
  9.9361811744293826E-01 a        14     0     1     1    14
  7.4053650628905370E+00 a        15     0     1     1    15
  1.5574912600305526E+01 a        16     0     1     1    16
 -3.1773921108052279E+00 a        17     0     1     1    17
 -4.4048358166812100E+00 a        18     0     1     1    18
  9.1689160115253174E-02 a        19     0     1     1    19
  4.2117469428820115E-01 a        20     0     1     1    20
  2.8776570967711444E-02 a        21     0     1     1    21
  8.1428164555515821E+00 a        22     0     1     1    22
  1.0500014176187387E+00 a        23     0     1     1    23
  1.1925313089332921E+01 a        24     0     1     1    24
  2.5170691850227795E+00 a        25     0     2     1     1
  1.3570366541449442E+01 a        26     0     2     1     2
 -6.8235317743777042E+00 a        27     0     2     1     3
 -2.0728633578023223E+00 a        28     0     2     1     4
  1.0909635350669991E+00 a        29     0     2     1     5
  6.8988947643719216E+00 a        30     0     2     1     6
  3.9399452230765442E+00 a        31     0     2     1     7
 -4.5769116878009042E+00 a        32     0     2     1     8
 -1.3026142896543890E+01 a        33     0     2     1     9
  8.2717269387298611E+00 a        34     0     2     1    10
 -4.9142673108295232E-02 a        35     0     2     1    11
 -6.6496066115303942E-01 a        36     0     2     1    12
 -1.4435787384239914E+01 a        37     0     2     1    13
 -4.6245783481537162E+00 a        38     0     2     1    14
  1.3073724174823139E+01 a        39     0     2     1    15
  1.2785577939151493E+01 a        40     0     2     1    16
  7.3165630573445872E+00 a        41     0     2     1    17
  5.3281492768760925E+00 a        42     0     2     1    18
  8.9690016651018318E+00 a        43     0     2     1    19
  1.2567982159042412E+00 a        44     0     2     1    20
  4.8287656072569707E+00 a        45     0     2     1    21
  3.6349534373698176E+00 a        46     0     2     1    22
 -6.3327794257371108E+00 a        47     0     2     1    23
 -1.1652268237177054E+01 a        48     0     2     1    24
 -7.2523798298517606E-01 a        49     0     3     1     1
  2.6245254616797329E+00 a        50     0     3     1     2
  1.3387311197820788E-02 a        51     0     3     1     3
  1.4871943806593824E+00 a        52     0     3     1     4
  1.6600892247127823E+00 a        53     0     3     1     5
 -4.0549667279479762E-01 a        54     0     3     1     6
 -2.9755488329394728E+00 a        55     0     3     1     7
 -7.9205847533076168E-01 a        56     0     3     1     8
  6.6262440899068720E+00 a        57     0     3     1     9
  3.7241772967733144E+00 a        58     0     3     1    10
 -2.3719602346117208E+00 a        59     0     3     1    11
 -6.6981670030192912E+00 a        60     0     3     1    12
  1.2703088665625064E+00 a        61     0     3     1    13
 -1.1945183962372874E+00 a        62     0     3     1    14
 -2.3817875192197211E+00 a        63     0     3     1    15
 -9.9543913147437273E+00 a        64     0     3     1    16
 -5.7916806721826053E-01 a        65     0     3     1    17
  3.3369446884046203E+00 a        66     0     3     1    18
 -2.4581651581811506E+00 a        67     0     3     1    19
 -1.6077993874444403E+00 a        68     0     3     1    20
  1.2077231675806501E+00 a        69     0     3     1    21
 -6.6195289781573132E+00 a        70     0     3     1    22
 -2.6265570733979249E-01 a        71     0     3     1    23
 -3.3398279704128964E+00 a        72     0     3     1    24
  2.7249422846984417E+00 a        73     0     4     1     1
 -3.8438866230302771E+00 a        74     0     4     1     2
  4.2820030336899517E+00 a        75     0     4     1     3
  6.4131477646280688E+00 a        76     0     4     1     4
 -1.4768806982566340E+00 a        77     0     4     1     5
 -5.3160375881801158E+00 a        78     0     4     1     6
 -4.2897989743310792E+00 a        79     0     4     1     7
  4.0629774392792708E+00 a        80     0     4     1     8
  2.8306788295446723E+00 a        81     0     4     1     9
 -8.0544982168772830E+00 a        82     0     4     1    10
  1.4133255725041334E+00 a        83     0     4     1    11
  7.7204364053265433E+00 a        84     0     4     1    12
  1.3471337888333991E+01 a        85     0     4     1    13
  4.8629790801773645E+00 a        86     0     4     1    14
  1.1736221872763002E-01 a        87     0     4     1    15
 -1.4317942165854937E+01 a        88     0     4     1    16
 -4.2140577544985582E+00 a        89     0     4     1    17
  1.6186382503086365E+00 a        90     0     4     1    18
 -1.0943315489618846E+00 a        91     0     4     1    19
 -2.3397571210557710E-01 a        92     0     4     1    20
 -3.8877265027260872E+00 a        93     0     4     1    21
  3.7025788310149998E+00 a        94     0     4     1    22
 -1.4453375483869599E+00 a        95     0     4     1    23
  1.4902092550203626E+01 a        96     0     4     1    24
  7.0333010840000276E-01 a        97     0     5     1     1
 -3.8388707921750278E+00 a        98     0     5     1     2
 -2.7857911423989283E+00 a        99     0     5     1     3
  6.3884678059857325E-01 a       100     0     5     1     4
  3.2875500988259326E-01 a       101     0     5     1     5
 -5.0285280645414399E-01 a       102     0     5     1     6
 -1.0388726114267143E+01 a       103     0     5     1     7
  6.2382108635672440E+00 a       104     0     5     1     8
  3.8674725755477857E+00 a       105     0     5     1     9
  8.3049661676161068E-02 a       106     0     5     1    10
  1.0666177181964895E+00 a       107     0     5     1    11
  1.1557601297682349E-01 a       108     0     5     1    12
 -2.8712888391726916E+00 a       109     0     5     1    13
 -1.5949704695496483E+00 a       110     0     5     1    14
 -3.6678963217677896E+00 a       111     0     5     1    15
 -1.2294145796889730E+01 a       112     0     5     1    16
  2.3362646474600027E-01 a       113     0     5     1    17
  2.2237412962313994E+00 a       114     0     5     1    18
 -5.0882696199471420E+00 a       115     0     5     1    19
 -1.4976060579301149E+00 a       116     0     5     1    20
  1.6004627534848995E-01 a       117     0     5     1    21
 -7.0158570543733711E+00 a       118     0     5     1    22
 -3.1509295698131718E+00 a       119     0     5     1    23
 -1.0501163961627539E+01 a       120     0     5     1    24
  1.3664847815248555E+00 a       121     0     6     1     1
 -1.9546477443561028E+00 a       122     0     6     1     2
  1.9149730512126675E+00 a       123     0     6     1     3
 -3.4536599339556568E+00 a       124     0     6     1     4
  5.5357829812016632E+00 a       125     0     6     1     5
 -1.1970522604411959E+01 a       126     0     6     1     6
  1.0562819082328193E-01 a       127     0     6     1     7
  8.8038054035301485E+00 a       128     0     6     1     8
  8.3453047378215501E+00 a       129     0     6     1     9
 -1.3355053198277371E+00 a       130     0     6     1    10
  2.2354756038548014E+00 a       131     0     6     1    11
 -1.2719872125111030E+01 a       132     0     6     1    12
  1.1398904380354102E+01 a       133     0     6     1    13
 -1.2298520423016281E+00 a       134     0     6     1    14
 -1.6513636354574693E+01 a       135     0     6     1    15
 -5.7573698592750944E+00 a       136     0     6     1    16
 -1.9103126130815364E+00 a       137     0     6     1    17
 -2.2129848129307215E+00 a       138     0     6     1    18
 -2.9523898074692370E+00 a       139     0     6     1    19
  2.9359359930083753E+00 a       140     0     6     1    20
  7.1659558055136765E+00 a       141     0     6     1    21
 -3.2605424982522018E+00 a       142     0     6     1    22
  5.7944138985213698E+00 a       143     0     6     1    23
  1.0119024936514135E+01 a       144     0     6     1    24
  4.8902181707280716E+00 a       145     0     7     1     1
 -9.9039048937650058E+00 a       146     0     7     1     2
  5.0461181595141600E+00 a       147     0     7     1     3
 -9.4476882412366088E+00 a       148     0     7     1     4
 -5.9983341615594119E+00 a       149     0     7     1     5
 -5.9343124489500081E+00 a       150     0     7     1     6
  2.7722751378040766E+00 a       151     0     7     1     7
 -1.3287840658972272E+00 a       152     0     7     1     8
 -9.1441547231562268E+00 a       153     0     7     1     9
 -3.7139212675118256E+00 a       154     0     7     1    10
  1.1088221627218198E+01 a       155     0     7     1    11
  5.7987923796873631E+00 a       156     0     7     1    12
 -2.9473296333196832E+00 a       157     0     7     1    13
  8.3029756435065423E+00 a       158     0     7     1    14
 -4.2162359033272763E+00 a       159     0     7     1    15
  8.9995303660025190E+00 a       160     0     7     1    16
  3.6770331141992183E+00 a       161     0     7     1    17
 -2.7853299205992244E+00 a       162     0     7     1    18
  5.1753812698246930E+00 a       163     0     7     1    19
 -6.7747871789241587E-01 a       164     0     7     1    20
 -2.5617373777184245E+00 a       165     0     7     1    21
  2.2580358079720320E+00 a       166     0     7     1    22
  3.2270686183692874E+00 a       167     0     7     1    23
  5.2545166558328731E+00 a       168     0     7     1    24
 -3.1136357820174059E+00 a       169     0     8     1     1
 -1.6778428240748009E+00 a       170     0     8     1     2
  4.7582350102862758E+00 a       171     0     8     1     3
  5.0724250617590290E+00 a       172     0     8     1     4
 -7.7720772737792254E+00 a       173     0     8     1     5
  1.3926913044877644E+01 a       174     0     8     1     6
 -1.6880887511907821E+00 a       175     0     8     1     7
 -1.0316797585532164E+01 a       176     0     8     1     8
 -3.0841082425693482E+00 a       177     0     8     1     9
  6.7028386487659199E+00 a       178     0     8     1    10
  8.6285044478644413E-01 a       179     0     8     1    11
  1.4178189628043942E+01 a       180     0     8     1    12
 -1.0520147691043526E+01 a       181     0     8     1    13
  1.3321263247472777E+00 a       182     0     8     1    14
  1.7529853351183274E+01 a       183     0     8     1    15
  2.1291637072703708E+01 a       184     0     8     1    16
  5.2912413762607278E+00 a       185     0     8     1    17
 -3.4834872254296996E+00 a       186     0     8     1    18
 -2.8082854147233038E+00 a       187     0     8     1    19
  1.5092793239322810E+00 a       188     0     8     1    20
  5.2412785092796401E+00 a       189     0     8     1    21
 -2.6776893985769146E+00 a       190     0     8     1    22
  1.2325247716797190E+01 a       191     0     8     1    23
 -1.6296474483899946E+01 a       192     0     8     1    24
 -2.3661330266687997E+00 a       193     0     9     1     1
  6.3682516584233033E+00 a       194     0     9     1     2
 -7.3622380076752758E-01 a       195     0     9     1     3
  9.1415256685763904E+00 a       196     0     9     1     4
  6.7817520693966502E+00 a       197     0     9     1     5
  5.3062145815378532E+00 a       198     0     9     1     6
  2.0980289260916316E+00 a       199     0     9     1     7
 -6.2690009300241760E+00 a       200     0     9     1     8
  4.5085803643638185E+00 a       201     0     9     1     9
 -3.9649261984772681E+00 a       202     0     9     1    10
 -8.1854529871468706E+00 a       203     0     9     1    11
 -2.6029522075123785E+00 a       204     0     9     1    12
  1.8222973269866798E+00 a       205     0     9     1    13
 -6.0780086140361895E+00 a       206     0     9     1    14
  8.1749872451558592E-01 a       207     0     9     1    15
  3.5182361651325094E+00 a       208     0     9     1    16
 -3.9035995566251853E+00 a       209     0     9     1    17
  1.6537535190691421E+00 a       210     0     9     1    18
  1.1551592195098808E+00 a       211     0     9     1    19
  1.6285878176725750E+00 a       212     0     9     1    20
 -6.1760679263745430E+00 a       213     0     9     1    21
 -1.5331674210553670E+00 a       214     0     9     1    22
  5.7031881433431595E+00 a       215     0     9     1    23
 -3.2293108783166025E+00 a       216     0     9     1    24
  1.0315416063522340E+00 a       217     0    10     1     1
 -1.3935314319756020E+00 a       218     0    10     1     2
 -6.7673157802214128E+00 a       219     0    10     1     3
 -8.6830899186300736E-01 a       220     0    10     1     4
  3.7065516286603266E+00 a       221     0    10     1     5
 -5.3342757967660717E+00 a       222     0    10     1     6
  1.0813042135853366E+00 a       223     0    10     1     7
  1.8665137760253538E+00 a       224     0    10     1     8
  3.5393418286161862E+00 a       225     0    10     1     9
 -5.2978847888217135E+00 a       226     0    10     1    10
 -3.4460223125821110E-01 a       227     0    10     1    11
 -1.0232676394939938E+01 a       228     0    10     1    12
  4.9391528510727789E-01 a       229     0    10     1    13
  2.2041375329300448E+00 a       230     0    10     1    14
 -1.2034276572228460E+01 a       231     0    10     1    15
 -1.8933019307640027E+01 a       232     0    10     1    16
 -6.3254433150589984E+00 a       233     0    10     1    17
  1.8911469860827752E+00 a       234     0    10     1    18
 -1.5730435703678403E+00 a       235     0    10     1    19
 -6.6250985801896709E+00 a       236     0    10     1    20
 -1.3948860564955643E+01 a       237     0    10     1    21
 -1.6708755613947286E+00 a       238     0    10     1    22
 -1.2584241422804000E+01 a       239     0    10     1    23
  9.9442330981355447E+00 a       240     0    10     1    24
  1.1771437713553854E+00 a       241     0    11     1     1
  3.3138364980347470E+00 a       242     0    11     1     2
 -9.8520612648622841E-01 a       243     0    11     1     3
 -3.7356852948264883E+00 a       244     0    11     1     4
 -2.2514871765344604E+00 a       245     0    11     1     5
  1.5140313138075487E+00 a       246     0    11     1     6
 -3.4245114461731236E+00 a       247     0    11     1     7
  4.3523308499575570E+00 a       248     0    11     1     8
  5.2678938858635416E-01 a       249     0    11     1     9
  1.6725591231345323E-02 a       250     0    11     1    10
 -5.0773739852340884E-02 a       251     0    11     1    11
  4.4460302163800360E+00 a       252     0    11     1    12
 -4.4479756790796197E+00 a       253     0    11     1    13
  3.9265125468349784E+00 a       254     0    11     1    14
  2.1925930345512050E+00 a       255     0    11     1    15
 -2.2915605306579295E-01 a       256     0    11     1    16
 -1.8450214659975549E-02 a       257     0    11     1    17
 -8.6465527087041250E-01 a       258     0    11     1    18
 -2.8091297767197538E+00 a       259     0    11     1    19
  1.1233037088952289E+00 a       260     0    11     1    20
  3.9210679109077060E+00 a       261     0    11     1    21
  3.0894503897639756E+00 a       262     0    11     1    22
 -1.3628977295066294E+00 a       263     0    11     1    23
  2.3707340077812593E+00 a       264     0    11     1    24
 -7.5662924742696691E-01 a       265     0    12     1     1
  3.0150730764570799E+00 a       266     0    12     1     2
  4.4964373720761444E+00 a       267     0    12     1     3
  8.7314277344279034E-01 a       268     0    12     1     4
 -1.2437713184418069E+00 a       269     0    12     1     5
  1.1337411045425525E+00 a       270     0    12     1     6
 -7.6183612781501597E-01 a       271     0    12     1     7
  2.7479632934866758E+00 a       272     0    12     1     8
 -2.1853769414287330E+00 a       273     0    12     1     9
  8.2000764544598903E-01 a       274     0    12     1    10
 -1.6389598803690362E+00 a       275     0    12     1    11
  4.9890815901401755E+00 a       276     0    12     1    12
 -5.4881190735101493E-01 a       277     0    12     1    13
  1.1588086980822905E+00 a       278     0    12     1    14
  3.5152880453953319E+00 a       279     0    12     1    15
  7.0290086930227815E+00 a       280     0    12     1    16
  3.9602833601925607E+00 a       281     0    12     1    17
 -3.6810077618433157E-01 a       282     0    12     1    18
  3.6295289227735701E+00 a       283     0    12     1    19
  2.6665816087702812E+00 a       284     0    12     1    20
  6.1243631472190296E+00 a       285     0    12     1    21
  2.3501281873202817E+00 a       286     0    12     1    22
  2.4009996588660325E+00 a       287     0    12     1    23
 -1.7859560907568586E+00 a       288     0    12     1    24
  5.5229544636913275E-01 a       289     0    13     1     1
  1.3380504502767877E+01 a       290     0    13     1     2
 -4.0408206252029490E+00 a       291     0    13     1     3
  6.6196396861589326E+00 a       292     0    13     1     4
  3.5528416739494295E+00 a       293     0    13     1     5
  1.9063365582377981E-01 a       294     0    13     1     6
 -5.5153993481637853E+00 a       295     0    13     1     7
 -8.4358883771881956E+00 a       296     0    13     1     8
  7.6511438050636986E+00 a       297     0    13     1     9
 -1.3309671827606684E+00 a       298     0    13     1    10
  4.9743585511549820E-01 a       299     0    13     1    11
  7.9919400122428925E+00 a       300     0    13     1    12
 -5.8491859098576651E+00 a       301     0    13     1    13
 -2.9343493520534564E-01 a       302     0    13     1    14
  4.6206815739036058E+00 a       303     0    13     1    15
 -8.9965283033488657E+00 a       304     0    13     1    16
  4.6216754358371723E+00 a       305     0    13     1    17
 -2.2718019779862035E+00 a       306     0    13     1    18
  1.8762357244635881E+00 a       307     0    13     1    19
 -5.1384254595458891E+00 a       308     0    13     1    20
  1.1352430946931031E+01 a       309     0    13     1    21
 -1.9160864429668965E+01 a       310     0    13     1    22
  6.3528455893140823E+00 a       311     0    13     1    23
 -6.2211633853792740E+00 a       312     0    13     1    24
 -6.4592842688675516E+00 a       313     0    14     1     1
 -1.0031460378584840E+00 a       314     0    14     1     2
  6.8969856764676585E-01 a       315     0    14     1     3
  8.2638700335227870E+00 a       316     0    14     1     4
 -1.3095776113723623E+01 a       317     0    14     1     5
  1.2434303954985742E+01 a       318     0    14     1     6
  2.2007771797968267E+00 a       319     0    14     1     7
 -1.2705275352171338E+01 a       320     0    14     1     8
 -3.4623083622692565E+00 a       321     0    14     1     9
 -8.4737214552231244E+00 a       322     0    14     1    10
  1.3099848935368001E+01 a       323     0    14     1    11
  7.9920324908745399E-01 a       324     0    14     1    12
  3.2329687180680486E+00 a       325     0    14     1    13
 -4.7235684952609684E+00 a       326     0    14     1    14
  8.1789938254705756E+00 a       327     0    14     1    15
  3.7797185283279675E+00 a       328     0    14     1    16
  6.6702233700741296E+00 a       329     0    14     1    17
  6.1455562803626327E+00 a       330     0    14     1    18
 -7.5898638174257183E-01 a       331     0    14     1    19
 -3.8666536384789998E+00 a       332     0    14     1    20
 -8.8931000218042247E+00 a       333     0    14     1    21
 -9.6515625482035485E+00 a       334     0    14     1    22
 -6.8679417625221397E+00 a       335     0    14     1    23
  3.0498649278316408E+00 a       336     0    14     1    24
 -1.5258769310449138E+00 a       337     0    15     1     1
  1.1849893321846450E+01 a       338     0    15     1     2
  4.1755250848858561E+00 a       339     0    15     1     3
  3.5218758879761995E-02 a       340     0    15     1     4
  4.3667365982536275E+00 a       341     0    15     1     5
 -6.6763383771339848E+00 a       342     0    15     1     6
 -1.6144061331794592E+00 a       343     0    15     1     7
  7.2566407995324678E+00 a       344     0    15     1     8
  3.6493540015343231E+00 a       345     0    15     1     9
  7.6722127732659402E+00 a       346     0    15     1    10
  3.0917315382766426E+00 a       347     0    15     1    11
 -9.8512376244782107E-01 a       348     0    15     1    12
  4.3530080494599650E+00 a       349     0    15     1    13
 -9.4564397386409371E-01 a       350     0    15     1    14
 -6.5875557401171726E-03 a       351     0    15     1    15
  7.3168709384219106E+00 a       352     0    15     1    16
  2.9197937571421519E+00 a       353     0    15     1    17
  1.4555809513765682E+01 a       354     0    15     1    18
 -7.7143534647112428E+00 a       355     0    15     1    19
 -6.3602260663778876E-01 a       356     0    15     1    20
 -7.2226237849212467E+00 a       357     0    15     1    21
  1.2772808469011723E+00 a       358     0    15     1    22
 -3.5504027991010427E+00 a       359     0    15     1    23
 -6.9064438521804581E+00 a       360     0    15     1    24
  1.2284286631469085E+01 a       361     0    16     1     1
 -2.3153590432455355E+00 a       362     0    16     1     2
  1.7360844376204492E+00 a       363     0    16     1     3
 -6.4579782583930605E+00 a       364     0    16     1     4
  1.4719680593990322E-01 a       365     0    16     1     5
 -9.8985383006904613E+00 a       366     0    16     1     6
  7.1702265551714550E+00 a       367     0    16     1     7
  4.7477317869989228E+00 a       368     0    16     1     8
 -1.2089401690680404E+01 a       369     0    16     1     9
 -2.3146120268818646E+00 a       370     0    16     1    10
 -7.5507616079020536E+00 a       371     0    16     1    11
 -2.0472211768804391E+00 a       372     0    16     1    12
 -3.8774030235939541E+00 a       373     0    16     1    13
 -1.0625568079233215E+01 a       374     0    16     1    14
 -3.0457928853938769E+00 a       375     0    16     1    15
 -1.2251941891876792E+00 a       376     0    16     1    16
  2.2582082731727411E+00 a       377     0    16     1    17
  4.2103763699830346E+00 a       378     0    16     1    18
  2.0683805441779852E+00 a       379     0    16     1    19
 -2.4361330421019884E+00 a       380     0    16     1    20
 -7.2308615638836671E-02 a       381     0    16     1    21
  8.6138224390781541E+00 a       382     0    16     1    22
 -6.2233427282930265E+00 a       383     0    16     1    23
  6.4344577413536523E+00 a       384     0    16     1    24
  2.6125501102388760E+00 a       385     0    17     1     1
 -9.5713439820976323E+00 a       386     0    17     1     2
  7.1081349207976672E+00 a       387     0    17     1     3
  2.0193123068112393E+00 a       388     0    17     1     4
 -7.1765467732697301E+00 a       389     0    17     1     5
 -1.8025547544292790E+00 a       390     0    17     1     6
 -2.0561448983218789E+00 a       391     0    17     1     7
 -4.5401185524304111E-01 a       392     0    17     1     8
  7.5792769132410394E+00 a       393     0    17     1     9
  1.0868552017349097E+01 a       394     0    17     1    10
 -1.1453201214604398E+00 a       395     0    17     1    11
  5.5688031635524746E+00 a       396     0    17     1    12
 -4.2071287483671871E-01 a       397     0    17     1    13
 -3.3810004954829512E-02 a       398     0    17     1    14
 -2.0969111229805879E+01 a       399     0    17     1    15
 -1.1563504174333826E+01 a       400     0    17     1    16
 -8.6357494209246983E+00 a       401     0    17     1    17
 -7.1624941516285103E+00 a       402     0    17     1    18
  6.7727443216406176E+00 a       403     0    17     1    19
  1.0980495814405144E+01 a       404     0    17     1    20
 -3.2291410952334867E+00 a       405     0    17     1    21
 -1.5320310484823538E+00 a       406     0    17     1    22
  1.2863435136778788E+01 a       407     0    17     1    23
 -7.4922760795982235E+00 a       408     0    17     1    24
  5.8929581776253501E+00 a       409     0    18     1     1
  1.7651925583851507E+00 a       410     0    18     1     2
 -3.1537330819449211E-01 a       411     0    18     1     3
  4.0232656038139236E+00 a       412     0    18     1     4
  2.1290445318584803E+00 a       413     0    18     1     5
  9.2404086284263069E+00 a       414     0    18     1     6
 -3.3121548660761087E+00 a       415     0    18     1     7
 -2.8164943715431203E+00 a       416     0    18     1     8
 -2.7863577111626894E+00 a       417     0    18     1     9
 -5.0892987588323537E+00 a       418     0    18     1    10
 -2.4446485416212838E+00 a       419     0    18     1    11
  7.8389644414526609E+00 a       420     0    18     1    12
 -5.6240350092313554E+00 a       421     0    18     1    13
 -5.9498347003900891E+00 a       422     0    18     1    14
  1.0199545421058389E+01 a       423     0    18     1    15
 -5.4136171723312208E+00 a       424     0    18     1    16
  1.2990437347997123E+01 a       425     0    18     1    17
  7.8659242551355151E+00 a       426     0    18     1    18
  1.1162884825987719E+01 a       427     0    18     1    19
  1.9855221337574582E+00 a       428     0    18     1    20
 -8.2196734527010875E+00 a       429     0    18     1    21
  2.0894004045653323E+00 a       430     0    18     1    22
  6.5025828873989298E+00 a       431     0    18     1    23
 -1.0430997997355760E+00 a       432     0    18     1    24
  8.5075746092237459E-01 a       433     0    19     1     1
 -5.2927154707546880E+00 a       434     0    19     1     2
  3.7834227766502004E+00 a       435     0    19     1     3
 -6.5191944145936418E+00 a       436     0    19     1     4
  3.2977582509757335E+00 a       437     0    19     1     5
 -9.5409560563424396E+00 a       438     0    19     1     6
 -3.3418883693226960E+00 a       439     0    19     1     7
 -1.4834400175625977E+00 a       440     0    19     1     8
 -3.6117415055398370E+00 a       441     0    19     1     9
  7.2250018749919782E+00 a       442     0    19     1    10
  9.4079606667225846E-01 a       443     0    19     1    11
  1.1384565981222577E+01 a       444     0    19     1    12
 -3.9282281085822488E+00 a       445     0    19     1    13
 -4.5027512000992305E+00 a       446     0    19     1    14
 -2.2094569711785262E+01 a       447     0    19     1    15
 -8.9508322533428348E+00 a       448     0    19     1    16
  3.2923377551122188E+00 a       449     0    19     1    17
 -1.5266747450965591E+01 a       450     0    19     1    18
 -1.2713355628781734E+01 a       451     0    19     1    19
  3.9264689982810217E+00 a       452     0    19     1    20
  3.7989013209841027E+00 a       453     0    19     1    21
 -3.7846957362451557E+00 a       454     0    19     1    22
  9.1973826686330113E+00 a       455     0    19     1    23
 -7.4646423456819067E+00 a       456     0    19     1    24
 -1.3471048633803082E+00 a       457     0    20     1     1
 -5.0886870621235047E+00 a       458     0    20     1     2
  1.3412957088239777E+01 a       459     0    20     1     3
 -4.5819948929974812E+00 a       460     0    20     1     4
  3.6329593551581603E+00 a       461     0    20     1     5
 -3.0064474678723498E+00 a       462     0    20     1     6
 -2.9666120901038124E+00 a       463     0    20     1     7
  5.6194015600117018E+00 a       464     0    20     1     8
  7.2918235526921205E+00 a       465     0    20     1     9
 -4.2969329246615047E+00 a       466     0    20     1    10
  9.2067327165419108E+00 a       467     0    20     1    11
 -2.1837151142820175E+00 a       468     0    20     1    12
 -1.7482099267554782E-01 a       469     0    20     1    13
 -3.5617108897405592E+00 a       470     0    20     1    14
 -3.9209806786244181E+00 a       471     0    20     1    15
 -1.7359437647861422E+00 a       472     0    20     1    16
 -8.1269648828303828E-02 a       473     0    20     1    17
 -9.0162372671381821E+00 a       474     0    20     1    18
  2.9106118269861589E+00 a       475     0    20     1    19
 -7.6010426703271685E+00 a       476     0    20     1    20
 -3.9880638566433100E+00 a       477     0    20     1    21
  2.8037521880648399E+00 a       478     0    20     1    22
 -3.1086567634158637E+00 a       479     0    20     1    23
  4.0749045021075320E-01 a       480     0    20     1    24
 -5.9292708600292912E+00 a       481     0    21     1     1
 -4.3094681125285845E+00 a       482     0    21     1     2
 -2.8902308004407971E+00 a       483     0    21     1     3
 -7.5626427731635326E-01 a       484     0    21     1     4
  6.6109659485309722E+00 a       485     0    21     1     5
  5.9821586166835834E+00 a       486     0    21     1     6
  6.9264664820936979E+00 a       487     0    21     1     7
 -3.7964903229449600E+00 a       488     0    21     1     8
 -4.9301221224051439E-01 a       489     0    21     1     9
  3.3006795093441688E+00 a       490     0    21     1    10
 -5.9443841065318122E+00 a       491     0    21     1    11
 -4.0099062050232476E-01 a       492     0    21     1    12
 -9.4860231209739840E+00 a       493     0    21     1    13
  4.1687216914613705E+00 a       494     0    21     1    14
 -4.9439400174238431E-02 a       495     0    21     1    15
 -4.2897216323594356E-01 a       496     0    21     1    16
  8.5914407205730257E+00 a       497     0    21     1    17
  8.0344418504655764E+00 a       498     0    21     1    18
 -3.8481717926810233E-01 a       499     0    21     1    19
 -4.5230584131697132E-01 a       500     0    21     1    20
  1.8777330954348748E+00 a       501     0    21     1    21
 -2.6821639416240668E+00 a       502     0    21     1    22
  2.4670603736049528E+00 a       503     0    21     1    23
 -1.6552904721187942E+00 a       504     0    21     1    24
  7.1453499593429557E+00 a       505     0    22     1     1
 -3.5730021913733183E+00 a       506     0    22     1     2
 -9.8953780785806984E+00 a       507     0    22     1     3
  1.7456870661552010E-01 a       508     0    22     1     4
 -1.7848185480190193E+00 a       509     0    22     1     5
 -1.4396818018685467E+01 a       510     0    22     1     6
  4.1774963457450092E+00 a       511     0    22     1     7
  5.8469395636547326E+00 a       512     0    22     1     8
  6.5577774877845814E+00 a       513     0    22     1     9
  2.0553344346669138E+00 a       514     0    22     1    10
 -6.4678477902826366E+00 a       515     0    22     1    11
  5.7224206507645086E+00 a       516     0    22     1    12
  1.1446889505785180E+01 a       517     0    22     1    13
  6.1111395474630665E+00 a       518     0    22     1    14
  4.0820946694866000E+00 a       519     0    22     1    15
  3.1909168200773599E+00 a       520     0    22     1    16
  3.2392933791991325E+01 a       521     0    22     1    17
 -7.8170939499595367E+00 a       522     0    22     1    18
  6.5958740177777564E+00 a       523     0    22     1    19
  1.1227707037774429E+01 a       524     0    22     1    20
  1.9353640844700988E+00 a       525     0    22     1    21
  5.9471520659200490E+00 a       526     0    22     1    22
  1.7972595493161367E-02 a       527     0    22     1    23
 -5.9129114808327587E+00 a       528     0    22     1    24
  3.9818207307182747E+00 a       529     0    23     1     1
  1.0223184115005012E+01 a       530     0    23     1     2
 -2.9810325678923216E-01 a       531     0    23     1     3
  1.6834234651349220E+00 a       532     0    23     1     4
  6.6633409018938163E+00 a       533     0    23     1     5
 -5.6781111069639305E+00 a       534     0    23     1     6
 -7.7182957943990038E-01 a       535     0    23     1     7
  1.5519044364535651E+01 a       536     0    23     1     8
  9.5084239964783279E+00 a       537     0    23     1     9
  2.3526707117055934E-01 a       538     0    23     1    10
  2.5009081604877910E+00 a       539     0    23     1    11
 -1.6994427361269770E+00 a       540     0    23     1    12
 -8.6125526329247160E-01 a       541     0    23     1    13
  1.7960264797450562E+00 a       542     0    23     1    14
 -4.7267349468897144E-02 a       543     0    23     1    15
 -5.2225973737095863E+00 a       544     0    23     1    16
  3.6771033280612841E+00 a       545     0    23     1    17
 -3.6662446012920280E+00 a       546     0    23     1    18
 -1.0537401375178208E+01 a       547     0    23     1    19
  4.7159859483880862E+00 a       548     0    23     1    20
 -5.0494134925576066E+00 a       549     0    23     1    21
  1.2222463656041530E+01 a       550     0    23     1    22
  4.4446632721858785E+00 a       551     0    23     1    23
  9.3246197799975974E+00 a       552     0    23     1    24
 -1.0563707838134925E-01 a       553     0    24     1     1
  4.4337832429297031E+00 a       554     0    24     1     2
 -5.9797737006087175E+00 a       555     0    24     1     3
 -4.6522110969649981E+00 a       556     0    24     1     4
  7.1762550551854014E+00 a       557     0    24     1     5
 -6.8096109057971193E+00 a       558     0    24     1     6
 -4.5373441281364304E+00 a       559     0    24     1     7
 -8.4373001697294256E+00 a       560     0    24     1     8
 -2.2899729930585788E-01 a       561     0    24     1     9
  1.1770155759678267E+00 a       562     0    24     1    10
 -1.4120500047143081E-01 a       563     0    24     1    11
 -1.0104388618890638E+00 a       564     0    24     1    12
  4.5747154244764472E+00 a       565     0    24     1    13
  1.6352597393745603E+00 a       566     0    24     1    14
 -1.6607549663855643E+00 a       567     0    24     1    15
 -9.3262624526894786E+00 a       568     0    24     1    16
 -5.1153653284368517E-01 a       569     0    24     1    17
 -5.9549473007415110E-01 a       570     0    24     1    18
 -1.5343279949477304E+00 a       571     0    24     1    19
 -8.5198354341232179E+00 a       572     0    24     1    20
  4.0025680285463565E+00 a       573     0    24     1    21
 -8.1076769308565524E+00 a       574     0    24     1    22
 -7.4978071805487216E+00 a       575     0    24     1    23
  7.5755188636847555E+00 a       576     0    24     1    24
 -6.3342435893562465E-01 a       577     0    25     1     1
  9.1328584178956684E-01 a       578     0    25     1     2
 -9.2550262132754846E-01 a       579     0    25     1     3
  3.8395030717655515E-01 a       580     0    25     1     4
 -3.4608125973994457E+00 a       581     0    25     1     5
  1.5680952125564536E+00 a       582     0    25     1     6
  1.8210610989226559E+00 a       583     0    25     1     7
 -9.8560533141246265E-01 a       584     0    25     1     8
  3.2326726149760954E+00 a       585     0    25     1     9
  2.9324963701677746E+00 a       586     0    25     1    10
  5.1800103521710419E+00 a       587     0    25     1    11
  2.8355603651941004E+00 a       588     0    25     1    12
 -3.2549395154662224E+00 a       589     0    25     1    13
  1.4793981101545537E+00 a       590     0    25     1    14
 -5.0618155335922288E-01 a       591     0    25     1    15
  3.4099125642262846E+00 a       592     0    25     1    16
  8.0369895898543344E+00 a       593     0    25     1    17
  9.6090154153904894E+00 a       594     0    25     1    18
  1.1890017081779325E+00 a       595     0    25     1    19
  1.1200214162267823E+01 a       596     0    25     1    20
  3.5033818927352117E-01 a       597     0    25     1    21
 -5.1526753952269750E+00 a       598     0    25     1    22
 -3.2742273415946781E+00 a       599     0    25     1    23
 -1.3134664702506655E+00 a       600     0    25     1    24
  8.6093452299290218E-01 a       601     0    26     1     1
 -8.9590358102675349E+00 a       602     0    26     1     2
  2.7086767354767534E+00 a       603     0    26     1     3
  5.3088668930887080E+00 a       604     0    26     1     4
  3.4263043059794183E+00 a       605     0    26     1     5
 -2.8131085630389387E+00 a       606     0    26     1     6
 -3.9936768979042880E+00 a       607     0    26     1     7
 -1.0971049563670885E+00 a       608     0    26     1     8
 -7.2777007697619114E+00 a       609     0    26     1     9
 -6.4493518136909056E-01 a       610     0    26     1    10
 -1.9359136092193039E+00 a       611     0    26     1    11
  9.3715856354176308E-01 a       612     0    26     1    12
  8.8394589303051454E+00 a       613     0    26     1    13
  3.2260466062339148E+00 a       614     0    26     1    14
 -7.5289588329228874E+00 a       615     0    26     1    15
  4.5777580314641471E+00 a       616     0    26     1    16
  5.8901085126212021E+00 a       617     0    26     1    17
  6.6055209038744040E+00 a       618     0    26     1    18
 -9.3657062064756169E-01 a       619     0    26     1    19
 -6.3874260448323721E+00 a       620     0    26     1    20
  1.4252854088097644E+01 a       621     0    26     1    21
  5.4392205497431663E+00 a       622     0    26     1    22
  1.4403369797225478E+00 a       623     0    26     1    23
  6.8097658523375024E+00 a       624     0    26     1    24
 -1.2705148255726850E+00 a       625     0    27     1     1
  3.0775640569507767E+00 a       626     0    27     1     2
  6.9909598752267454E-01 a       627     0    27     1     3
  7.1358176060534628E+00 a       628     0    27     1     4
  2.9790881418013768E+00 a       629     0    27     1     5
 -7.0375793555297328E+00 a       630     0    27     1     6
  3.1304752493337560E+00 a       631     0    27     1     7
 -3.5348861572230059E+00 a       632     0    27     1     8
  2.4499287224354385E+00 a       633     0    27     1     9
 -3.3394246967940657E+00 a       634     0    27     1    10
 -5.1888867433140966E+00 a       635     0    27     1    11
 -3.4759163840430518E+00 a       636     0    27     1    12
  5.1048960812851583E+00 a       637     0    27     1    13
 -5.4789446155062538E-01 a       638     0    27     1    14
  9.7164142809471805E+00 a       639     0    27     1    15
  4.2157590905747400E+00 a       640     0    27     1    16
  3.2412736918649325E+00 a       641     0    27     1    17
 -1.1927717536207219E+01 a       642     0    27     1    18
 -3.2889197357067714E+00 a       643     0    27     1    19
 -2.0342555540453957E+00 a       644     0    27     1    20
  8.1260008094486587E+00 a       645     0    27     1    21
  5.3127743804504779E-01 a       646     0    27     1    22
  7.3694378256102748E+00 a       647     0    27     1    23
 -5.1541278539100093E+00 a       648     0    27     1    24
 -2.8908787292845650E+00 a       649     0    28     1     1
 -6.7246908780574541E+00 a       650     0    28     1     2
  8.8119853181820300E+00 a       651     0    28     1     3
  2.6699639230667658E+00 a       652     0    28     1     4
  1.1326285892718799E+01 a       653     0    28     1     5
  5.4748706708409873E+00 a       654     0    28     1     6
  8.3545488546201536E+00 a       655     0    28     1     7
  8.1539375542708274E+00 a       656     0    28     1     8
 -1.2034261738514399E+01 a       657     0    28     1     9
 -1.0128030264269526E+01 a       658     0    28     1    10
 -5.3623062724777293E-01 a       659     0    28     1    11
  1.1402296015626282E+01 a       660     0    28     1    12
  1.7507784112241666E+01 a       661     0    28     1    13
  6.1243500055799915E-01 a       662     0    28     1    14
  8.7609920447314380E+00 a       663     0    28     1    15
 -6.4933391347802560E+00 a       664     0    28     1    16
  1.0262084089049046E+00 a       665     0    28     1    17
  1.5631367599936528E+00 a       666     0    28     1    18
  1.3085664001249453E+01 a       667     0    28     1    19
  8.8228620211824484E+00 a       668     0    28     1    20
 -4.2414657999825929E+00 a       669     0    28     1    21
  1.6887207957612544E+00 a       670     0    28     1    22
  5.4220664145983200E-01 a       671     0    28     1    23
 -1.7183151379324710E+00 a       672     0    28     1    24
  2.8522855011394603E+00 a       673     0    29     1     1
 -2.3693985244308213E+00 a       674     0    29     1     2
  1.8527305160825667E+00 a       675     0    29     1     3
  1.2531722313508449E+00 a       676     0    29     1     4
 -1.0892705947075520E+01 a       677     0    29     1     5
 -2.1166532041231556E+00 a       678     0    29     1     6
 -7.0227528033834352E-01 a       679     0    29     1     7
 -2.5984171478795268E+00 a       680     0    29     1     8
  1.4997078214194042E+00 a       681     0    29     1     9
  1.7296826285276976E+00 a       682     0    29     1    10
 -1.1423688473003093E+00 a       683     0    29     1    11
  4.7271228438099167E-01 a       684     0    29     1    12
  5.7681669387991032E+00 a       685     0    29     1    13
  2.9557489661315004E+00 a       686     0    29     1    14
  2.6548553964649946E+00 a       687     0    29     1    15
 -3.0262163695430004E+00 a       688     0    29     1    16
 -5.1382838848398080E+00 a       689     0    29     1    17
 -2.8515114718511070E+00 a       690     0    29     1    18
 -2.6943587978173911E+00 a       691     0    29     1    19
  6.8536842424447135E+00 a       692     0    29     1    20
 -4.6742468171685614E+00 a       693     0    29     1    21
  4.9958317704589330E+00 a       694     0    29     1    22
 -3.9935036548730474E+00 a       695     0    29     1    23
 -7.0747421695551918E+00 a       696     0    29     1    24
  7.9934790647146570E-01 a       697     0    30     1     1
 -7.4306149628149154E-01 a       698     0    30     1     2
 -7.9774698879738870E-01 a       699     0    30     1     3
 -2.0542675925143477E+00 a       700     0    30     1     4
  1.0869600722986654E+01 a       701     0    30     1     5
 -3.0487789160657393E+00 a       702     0    30     1     6
 -6.5386145357354841E-01 a       703     0    30     1     7
 -3.0355342148398532E+00 a       704     0    30     1     8
 -8.9476841309960609E+00 a       705     0    30     1     9
  4.5285301683656973E+00 a       706     0    30     1    10
 -7.6163407617926522E+00 a       707     0    30     1    11
  7.9269963436185060E+00 a       708     0    30     1    12
  6.8034502472667435E-01 a       709     0    30     1    13
  5.2841946932062109E+00 a       710     0    30     1    14
  2.6593337518163516E+00 a       711     0    30     1    15
 -6.7643886994086593E+00 a       712     0    30     1    16
  2.2507965133061876E+00 a       713     0    30     1    17
 -1.2609820299947683E+00 a       714     0    30     1    18
 -2.1034141810305007E+00 a       715     0    30     1    19
  4.5465116243863886E+00 a       716     0    30     1    20
  3.7162477817018269E+00 a       717     0    30     1    21
 -3.0586137707398970E+00 a       718     0    30     1    22
  3.4397637364352871E+00 a       719     0    30     1    23
 -1.8431825978664025E+00 a       720     0    30     1    24
  1.1507972613252115E+00 a       721     0    31     1     1
  8.4155893732503557E+00 a       722     0    31     1     2
 -5.6643590268185919E+00 a       723     0    31     1     3
  1.2679816892414413E+01 a       724     0    31     1     4
 -2.1134403389541561E+00 a       725     0    31     1     5
  1.0149394420722807E+01 a       726     0    31     1     6
 -7.3286832765318985E+00 a       727     0    31     1     7
 -2.0441228100888815E+00 a       728     0    31     1     8
  4.4023252735114697E+00 a       729     0    31     1     9
 -4.5215542271846489E+00 a       730     0    31     1    10
 -3.4574989147677018E+00 a       731     0    31     1    11
 -2.0574484059623290E+00 a       732     0    31     1    12
  5.3476919502042355E+00 a       733     0    31     1    13
  4.1836675425019170E+00 a       734     0    31     1    14
  8.2313917905126903E+00 a       735     0    31     1    15
 -3.8569653184055053E+00 a       736     0    31     1    16
 -2.7687994578020714E+00 a       737     0    31     1    17
  1.2223518050327240E+00 a       738     0    31     1    18
  4.8115266796531140E+00 a       739     0    31     1    19
  1.8461100673482667E+00 a       740     0    31     1    20
 -6.8590648991809811E-01 a       741     0    31     1    21
 -2.1161945042865202E+00 a       742     0    31     1    22
  1.0026791158388775E+00 a       743     0    31     1    23
 -2.4479781670628520E+00 a       744     0    31     1    24
 -6.5172169772348143E+00 a       745     0    32     1     1
  5.0150516928784379E+00 a       746     0    32     1     2
 -1.0806137136396121E+01 a       747     0    32     1     3
 -3.5188606549437500E+00 a       748     0    32     1     4
  5.3990714609941302E+00 a       749     0    32     1     5
  1.2939764943598777E+00 a       750     0    32     1     6
  5.8525035220260657E-01 a       751     0    32     1     7
  6.1716039389585893E+00 a       752     0    32     1     8
 -6.6793772082781180E+00 a       753     0    32     1     9
 -5.8195934667241245E+00 a       754     0    32     1    10
 -4.4087985351152001E+00 a       755     0    32     1    11
 -1.0805224406057711E+01 a       756     0    32     1    12
  3.4888271057683429E-01 a       757     0    32     1    13
  4.9209705722174908E+00 a       758     0    32     1    14
  3.1398986419678210E-01 a       759     0    32     1    15
  5.9421664609458835E+00 a       760     0    32     1    16
 -2.0399617574654796E+00 a       761     0    32     1    17
  8.4056207490846422E+00 a       762     0    32     1    18
 -5.5331592685131872E+00 a       763     0    32     1    19
 -1.1442754986513568E+00 a       764     0    32     1    20
  1.2923794878535677E+01 a       765     0    32     1    21
 -1.6730805211307753E+00 a       766     0    32     1    22
 -1.8541407783904060E+00 a       767     0    32     1    23
  4.9327516411951535E+00 a       768     0    32     1    24
  4.4296979793463981E-01 a       769     0    33     1     1
  3.4391889726377323E+00 a       770     0    33     1     2
 -4.1808245195536013E+00 a       771     0    33     1     3
  4.6835271866361934E+00 a       772     0    33     1     4
 -1.9483284292154390E+00 a       773     0    33     1     5
 -3.1278417907817757E+00 a       774     0    33     1     6
 -4.2938304574070090E+00 a       775     0    33     1     7
  3.5405620509160620E+00 a       776     0    33     1     8
 -6.1124943493649975E-01 a       777     0    33     1     9
 -2.8209336481885011E-01 a       778     0    33     1    10
  6.2267273881542975E+00 a       779     0    33     1    11
  7.4640553364074380E-02 a       780     0    33     1    12
  6.9296114172829446E+00 a       781     0    33     1    13
  1.9980235606699939E+00 a       782     0    33     1    14
 -1.4653509320903027E-01 a       783     0    33     1    15
  2.5327577836669883E+00 a       784     0    33     1    16
 -8.1563034572223234E+00 a       785     0    33     1    17
 -6.9860232758535670E+00 a       786     0    33     1    18
 -5.5903540927565656E+00 a       787     0    33     1    19
 -2.4139970040922307E+00 a       788     0    33     1    20
  1.2508740467645387E+00 a       789     0    33     1    21
  3.9041563481688475E+00 a       790     0    33     1    22
 -5.3598502319239483E-01 a       791     0    33     1    23
  3.7157932744418769E+00 a       792     0    33     1    24
  9.2985384087806877E-01 a       793     0    34     1     1
  1.6275727819444352E+00 a       794     0    34     1     2
  4.5011129512745995E+00 a       795     0    34     1     3
 -3.6444763264599724E+00 a       796     0    34     1     4
  1.6836920286326067E+00 a       797     0    34     1     5
  7.7243417572377302E+00 a       798     0    34     1     6
  3.8132012258406527E+00 a       799     0    34     1     7
  1.1514111819515273E+01 a       800     0    34     1     8
 -1.2893326285192394E+01 a       801     0    34     1     9
 -4.1148943538261911E+00 a       802     0    34     1    10
 -6.2903263513357528E+00 a       803     0    34     1    11
 -1.4711482188299034E+00 a       804     0    34     1    12
 -3.4447353901102167E+00 a       805     0    34     1    13
 -8.0425483789482701E+00 a       806     0    34     1    14
 -2.1181964363069632E+00 a       807     0    34     1    15
  3.7444725522668580E+00 a       808     0    34     1    16
 -1.0211303034132031E+01 a       809     0    34     1    17
  4.8928942806781190E+00 a       810     0    34     1    18
  7.1482946264860348E-01 a       811     0    34     1    19
 -8.9783476423856214E+00 a       812     0    34     1    20
 -2.8733183048683579E+00 a       813     0    34     1    21
  7.6822942984877249E+00 a       814     0    34     1    22
 -9.6302201116382791E-01 a       815     0    34     1    23
  9.9628868418236216E+00 a       816     0    34     1    24
 -4.8921506214534780E+00 a       817     0    35     1     1
 -1.0883079731631064E+01 a       818     0    35     1     2
 -3.5420203716446834E+00 a       819     0    35     1     3
 -2.2194132780695854E+00 a       820     0    35     1     4
  7.8951477572224773E+00 a       821     0    35     1     5
 -2.9032481890854580E+00 a       822     0    35     1     6
 -4.4837458887897617E+00 a       823     0    35     1     7
  1.4281641911899905E+00 a       824     0    35     1     8
  1.3756055112509820E+00 a       825     0    35     1     9
  5.7683661091645477E-01 a       826     0    35     1    10
 -3.8286865261481648E+00 a       827     0    35     1    11
  5.2832084995120754E+00 a       828     0    35     1    12
 -4.0754806794365699E+00 a       829     0    35     1    13
  1.0289583028310197E+01 a       830     0    35     1    14
 -5.3860661378256856E+00 a       831     0    35     1    15
 -7.5595427110895213E-03 a       832     0    35     1    16
 -7.7795174165471606E+00 a       833     0    35     1    17
 -1.3906435690565997E+00 a       834     0    35     1    18
  2.6376159006559154E+00 a       835     0    35     1    19
 -6.3327273773503512E+00 a       836     0    35     1    20
  1.5121565653998876E+00 a       837     0    35     1    21
 -1.1113481142072035E+00 a       838     0    35     1    22
  4.5877405552619361E+00 a       839     0    35     1    23
 -9.3377908764087376E+00 a       840     0    35     1    24
  4.5117858602503356E+00 a       841     0    36     1     1
 -1.7677054502739917E+00 a       842     0    36     1     2
 -3.1345067385304266E+00 a       843     0    36     1     3
 -1.3345112843805347E+00 a       844     0    36     1     4
 -1.2317022806413067E+00 a       845     0    36     1     5
  1.4175080799954363E+00 a       846     0    36     1     6
  8.2834562424205549E-01 a       847     0    36     1     7
  3.5577403628296493E+00 a       848     0    36     1     8
  2.0993920418991885E+00 a       849     0    36     1     9
 -1.2587731402772275E+00 a       850     0    36     1    10
 -3.3678349751270868E+00 a       851     0    36     1    11
 -2.0327190576071250E+00 a       852     0    36     1    12
 -6.0876078126592139E+00 a       853     0    36     1    13
  8.9213735675906083E+00 a       854     0    36     1    14
 -2.6285205230705260E+00 a       855     0    36     1    15
 -7.4901822120301331E-01 a       856     0    36     1    16
 -3.6583154471949597E+00 a       857     0    36     1    17
 -9.2245763476761322E+00 a       858     0    36     1    18
 -2.1204826704837303E+00 a       859     0    36     1    19
  9.5771205210913291E-01 a       860     0    36     1    20
  3.2676948164213666E+00 a       861     0    36     1    21
  1.7193088293475915E+00 a       862     0    36     1    22
  2.4540597619258433E+00 a       863     0    36     1    23
  1.6741271742991104E+00 a       864     0    36     1    24
  9.2002380618930468E-01 a       865     0    37     1     1
 -5.9279157572116121E+00 a       866     0    37     1     2
  8.3248664900561504E+00 a       867     0    37     1     3
  2.2783272275906432E+00 a       868     0    37     1     4
  2.3932906197537736E+00 a       869     0    37     1     5
 -1.2874438818401108E+00 a       870     0    37     1     6
 -6.5608017214461734E-01 a       871     0    37     1     7
 -5.3660577801792797E-01 a       872     0    37     1     8
  1.5982001187805057E+00 a       873     0    37     1     9
  2.1074774789890902E-01 a       874     0    37     1    10
 -5.9331170301640357E-01 a       875     0    37     1    11
  8.5959400234001349E-01 a       876     0    37     1    12
 -6.1950864926588944E-01 a       877     0    37     1    13
  3.5630301920618485E-01 a       878     0    37     1    14
 -1.7070580324360800E+00 a       879     0    37     1    15
  2.6268831395670391E+00 a       880     0    37     1    16
 -2.5258624307337434E+00 a       881     0    37     1    17
  1.0587397490646011E+00 a       882     0    37     1    18
 -6.4137580732565969E+00 a       883     0    37     1    19
  3.1033770280550184E+00 a       884     0    37     1    20
 -1.0286138475018937E+01 a       885     0    37     1    21
  6.7096044466443541E+00 a       886     0    37     1    22
  2.6608004370636323E-01 a       887     0    37     1    23
 -3.9158668034792790E+00 a       888     0    37     1    24
  1.4176564546036660E-01 a       889     0    38     1     1
 -9.1612281404493323E-01 a       890     0    38     1     2
 -1.4157959846354728E+01 a       891     0    38     1     3
 -1.7037671237365402E+00 a       892     0    38     1     4
 -1.7238255001979008E+00 a       893     0    38     1     5
 -7.8626566483085050E+00 a       894     0    38     1     6
 -4.6628328893716334E-02 a       895     0    38     1     7
  2.2863005577959057E+00 a       896     0    38     1     8
  2.4280498959222255E-01 a       897     0    38     1     9
  3.7488251598781075E-01 a       898     0    38     1    10
 -6.4062881809004102E+00 a       899     0    38     1    11
  1.1469612820551065E+00 a       900     0    38     1    12
 -1.9010390879617622E+00 a       901     0    38     1    13
  6.7572165565176325E+00 a       902     0    38     1    14
 -3.3120714733611818E+00 a       903     0    38     1    15
  3.5098101103533458E-01 a       904     0    38     1    16
 -7.2363899728214065E+00 a       905     0    38     1    17
 -7.0031952796769490E+00 a       906     0    38     1    18
 -2.0572961334820756E+00 a       907     0    38     1    19
  4.3724128076843201E+00 a       908     0    38     1    20
  3.1221715357512134E+00 a       909     0    38     1    21
  4.7479572558640610E+00 a       910     0    38     1    22
 -2.2149526292378102E-01 a       911     0    38     1    23
 -7.2064532157543635E+00 a       912     0    38     1    24
  6.5761080755885706E+00 a       913     0    39     1     1
 -7.1942929918916629E+00 a       914     0    39     1     2
  6.0611055950641479E-01 a       915     0    39     1     3
  1.6799603158048908E+00 a       916     0    39     1     4
 -7.6863172153290176E+00 a       917     0    39     1     5
 -3.4949835133897750E-01 a       918     0    39     1     6
 -7.7835165209537616E+00 a       919     0    39     1     7
  2.9719419267464615E+00 a       920     0    39     1     8
 -5.1331155793417151E+00 a       921     0    39     1     9
 -4.1826852692922349E+00 a       922     0    39     1    10
 -1.0854152576568092E+00 a       923     0    39     1    11
  2.0627369122586332E+00 a       924     0    39     1    12
  5.7917465019227503E+00 a       925     0    39     1    13
  4.4186823527874592E+00 a       926     0    39     1    14
  7.7158691054480144E+00 a       927     0    39     1    15
 -4.1998921949980108E+00 a       928     0    39     1    16
 -3.3824472727812092E+00 a       929     0    39     1    17
 -9.5953092030696059E+00 a       930     0    39     1    18
  6.0014179227230358E+00 a       931     0    39     1    19
  1.0617739038910752E+00 a       932     0    39     1    20
 -4.6907843097688646E+00 a       933     0    39     1    21
 -3.7692529084818558E+00 a       934     0    39     1    22
 -2.6529158637669545E+00 a       935     0    39     1    23
 -1.9546370598723533E+00 a       936     0    39     1    24
 -4.4980158950037410E+00 a       937     0    40     1     1
  7.4306664587361810E+00 a       938     0    40     1     2
  2.9021324248928546E+00 a       939     0    40     1     3
  1.9718269071333421E+00 a       940     0    40     1     4
  4.5162611586045056E+00 a       941     0    40     1     5
  5.1430920596816678E+00 a       942     0    40     1     6
  2.0341546215259778E+00 a       943     0    40     1     7
 -1.5885091073617728E+00 a       944     0    40     1     8
  9.2304529466861354E+00 a       945     0    40     1     9
  4.7909387188806898E+00 a       946     0    40     1    10
  5.6529535939327573E+00 a       947     0    40     1    11
  5.8435493701541503E+00 a       948     0    40     1    12
 -2.2853039749250019E+00 a       949     0    40     1    13
  4.6330488326485852E+00 a       950     0    40     1    14
  3.0002270219195202E+00 a       951     0    40     1    15
  1.1954873568625786E+01 a       952     0    40     1    16
  2.4008505815620502E+00 a       953     0    40     1    17
 -1.2896254630973394E-01 a       954     0    40     1    18
  2.8326711727868963E+00 a       955     0    40     1    19
  7.6546022032337169E-01 a       956     0    40     1    20
  3.2514747614128967E+00 a       957     0    40     1    21
 -1.0596730497025044E+00 a       958     0    40     1    22
 -2.5533125461632036E+00 a       959     0    40     1    23
 -5.0225321338941811E+00 a       960     0    40     1    24
 -2.2182988725602368E-01 a       961     0    41     1     1
  2.2493354580992966E+00 a       962     0    41     1     2
 -8.3459529655476743E+00 a       963     0    41     1     3
 -5.3714448227568639E+00 a       964     0    41     1     4
 -1.6856427240782690E+00 a       965     0    41     1     5
  1.4968176668470472E+00 a       966     0    41     1     6
  3.2500689548305757E+00 a       967     0    41     1     7
 -5.4622907613798555E+00 a       968     0    41     1     8
 -3.9797900006815543E+00 a       969     0    41     1     9
 -3.3296041233452076E+00 a       970     0    41     1    10
 -8.3734440420038880E-01 a       971     0    41     1    11
  1.2729938671160907E+00 a       972     0    41     1    12
 -3.8710151567896900E+00 a       973     0    41     1    13
 -6.0343977239405086E-03 a       974     0    41     1    14
  2.1180566797860112E+00 a       975     0    41     1    15
  7.5547621220221561E+00 a       976     0    41     1    16
  4.7785540228243466E+00 a       977     0    41     1    17
  6.4324936306859080E+00 a       978     0    41     1    18
 -6.3625816353428422E-01 a       979     0    41     1    19
 -9.3355228479568435E+00 a       980     0    41     1    20
  3.5171608059174653E+00 a       981     0    41     1    21
 -3.2426579635339892E-01 a       982     0    41     1    22
 -6.5653406194004136E+00 a       983     0    41     1    23
 -7.5066806797870678E+00 a       984     0    41     1    24
 -1.2585097539181560E+00 a       985     0    42     1     1
 -5.6201734579869491E+00 a       986     0    42     1     2
  1.4195525032637597E+01 a       987     0    42     1     3
  1.3312935941301629E+00 a       988     0    42     1     4
 -1.5906291471600422E+00 a       989     0    42     1     5
  8.5018909733371508E+00 a       990     0    42     1     6
  4.7361324798877996E-01 a       991     0    42     1     7
  8.5469048691588316E+00 a       992     0    42     1     8
 -3.0410807619705166E-01 a       993     0    42     1     9
 -1.1530497496181069E+00 a       994     0    42     1    10
 -3.2984603455365674E-01 a       995     0    42     1    11
 -6.4925832138108130E-01 a       996     0    42     1    12
 -5.9516560288949387E+00 a       997     0    42     1    13
 -2.8466945601262816E+00 a       998     0    42     1    14
  3.7258747673186878E+00 a       999     0    42     1    15
  1.5707316516774084E+01 a      1000     0    42     1    16
 -4.6938146061304247E+00 a      1001     0    42     1    17
 -4.6534148885748090E+00 a      1002     0    42     1    18
 -6.7065535701095111E+00 a      1003     0    42     1    19
  6.7519879798227818E+00 a      1004     0    42     1    20
 -3.0209923431335208E+00 a      1005     0    42     1    21
  1.9563103811162514E+00 a      1006     0    42     1    22
  4.1922677844662992E+00 a      1007     0    42     1    23
 -5.0521886512252498E+00 a      1008     0    42     1    24
  1.4480646326506905E-01 a      1009     0    43     1     1
  9.9468668059987664E-01 a      1010     0    43     1     2
 -2.9088338973235479E+00 a      1011     0    43     1     3
 -7.9495193040639689E-01 a      1012     0    43     1     4
 -1.3126508642177497E+00 a      1013     0    43     1     5
  1.6594212593076239E+00 a      1014     0    43     1     6
  4.8925222559790971E+00 a      1015     0    43     1     7
  4.8884798118753565E+00 a      1016     0    43     1     8
 -4.2799669888934506E+00 a      1017     0    43     1     9
  8.4394660666490529E-01 a      1018     0    43     1    10
 -3.5401695773346118E+00 a      1019     0    43     1    11
  4.2843230413380615E+00 a      1020     0    43     1    12
  2.9536852600052992E+00 a      1021     0    43     1    13
 -2.0361154145980831E+00 a      1022     0    43     1    14
  3.3102773333176194E+00 a      1023     0    43     1    15
 -6.7207841487002575E+00 a      1024     0    43     1    16
 -2.3407394703270983E+00 a      1025     0    43     1    17
 -2.6674047641934759E+00 a      1026     0    43     1    18
  4.3570757043764086E-01 a      1027     0    43     1    19
 -7.9470886051131426E+00 a      1028     0    43     1    20
 -1.6932796373770447E+00 a      1029     0    43     1    21
 -4.5325054608791167E+00 a      1030     0    43     1    22
  2.9789118352860910E+00 a      1031     0    43     1    23
  6.0638673703997883E+00 a      1032     0    43     1    24
  1.5920552374691201E+00 a      1033     0    44     1     1
  1.3674977893304765E+01 a      1034     0    44     1     2
 -2.9239540663599177E+00 a      1035     0    44     1     3
 -7.8486732612364900E+00 a      1036     0    44     1     4
 -2.8278712754243576E+00 a      1037     0    44     1     5
  1.8254699053917782E+00 a      1038     0    44     1     6
  3.2847409131473486E+00 a      1039     0    44     1     7
 -1.1557494421072776E+00 a      1040     0    44     1     8
  3.7152970454565732E+00 a      1041     0    44     1     9
 -2.6853053204253300E-02 a      1042     0    44     1    10
  1.9456918991873007E+00 a      1043     0    44     1    11
 -3.4532455961350301E+00 a      1044     0    44     1    12
 -1.3163982964817128E+01 a      1045     0    44     1    13
 -1.4043471726549683E+00 a      1046     0    44     1    14
  1.3292486539737100E+01 a      1047     0    44     1    15
 -7.8331529339404966E+00 a      1048     0    44     1    16
 -6.1912407209576017E+00 a      1049     0    44     1    17
 -8.5835272556716617E+00 a      1050     0    44     1    18
  3.7326972676337773E+00 a      1051     0    44     1    19
  5.0494859144918065E+00 a      1052     0    44     1    20
 -1.7799739630054912E+01 a      1053     0    44     1    21
 -7.8464521776696863E+00 a      1054     0    44     1    22
 -3.4583191477076496E+00 a      1055     0    44     1    23
 -7.5810320249140810E+00 a      1056     0    44     1    24
 -2.4107063592262650E+00 a      1057     0    45     1     1
 -2.6665599263409603E+00 a      1058     0    45     1     2
  1.0136456702159153E+00 a      1059     0    45     1     3
 -1.0107478385894693E+01 a      1060     0    45     1     4
 -4.1979323406849306E-01 a      1061     0    45     1     5
  9.7893252512983615E+00 a      1062     0    45     1     6
 -3.6806663519649221E+00 a      1063     0    45     1     7
  3.5738572760108385E+00 a      1064     0    45     1     8
 -4.9691692809715349E+00 a      1065     0    45     1     9
  2.4512937339855605E+00 a      1066     0    45     1    10
  2.2509379780250995E+00 a      1067     0    45     1    11
  1.1499185709415713E+00 a      1068     0    45     1    12
 -6.9995024681019249E+00 a      1069     0    45     1    13
 -4.7028586298533787E-01 a      1070     0    45     1    14
 -1.4641315735046847E+01 a      1071     0    45     1    15
 -3.4419248979034847E+00 a      1072     0    45     1    16
 -2.3919537725724673E+00 a      1073     0    45     1    17
  8.6075883023346016E+00 a      1074     0    45     1    18
  4.1465432887863072E+00 a      1075     0    45     1    19
  3.7387844777722807E+00 a      1076     0    45     1    20
 -1.1551664348660591E+01 a      1077     0    45     1    21
  3.3307286525009898E+00 a      1078     0    45     1    22
 -6.4279002202083779E+00 a      1079     0    45     1    23
  5.8797841348753153E+00 a      1080     0    45     1    24
 -2.9326450655353820E+00 a      1081     0    46     1     1
  1.0041411839908621E+01 a      1082     0    46     1     2
  5.7657991696164208E+00 a      1083     0    46     1     3
 -8.4779392130781464E+00 a      1084     0    46     1     4
  6.5626079350568833E+00 a      1085     0    46     1     5
  2.3330221797413966E+00 a      1086     0    46     1     6
  3.2899806242744201E+00 a      1087     0    46     1     7
  7.8150943236564752E-01 a      1088     0    46     1     8
 -6.0900478008890868E+00 a      1089     0    46     1     9
  6.2166588671090892E+00 a      1090     0    46     1    10
  3.2489562406322463E+00 a      1091     0    46     1    11
 -8.8034663989013939E+00 a      1092     0    46     1    12
 -2.4151533772075591E+00 a      1093     0    46     1    13
 -4.3986298724859013E-01 a      1094     0    46     1    14
 -3.1086657752405586E+00 a      1095     0    46     1    15
  8.0965190799062494E+00 a      1096     0    46     1    16
 -2.0853989237677628E+00 a      1097     0    46     1    17
  3.4134824037514289E+00 a      1098     0    46     1    18
  3.7472369816791145E+00 a      1099     0    46     1    19
  7.6514970317473958E+00 a      1100     0    46     1    20
  6.7499502438161851E+00 a      1101     0    46     1    21
 -1.5615891565148226E+00 a      1102     0    46     1    22
 -5.9440647926594110E+00 a      1103     0    46     1    23
  2.4285616408939843E+00 a      1104     0    46     1    24
 -7.2536983857640269E+00 a      1105     0    47     1     1
 -1.6630363050407529E-01 a      1106     0    47     1     2
 -4.0458307658406465E+00 a      1107     0    47     1     3
 -4.4609615585924161E+00 a      1108     0    47     1     4
  1.4999962926763434E+01 a      1109     0    47     1     5
  2.1487206563090826E+00 a      1110     0    47     1     6
  6.2139254057796016E+00 a      1111     0    47     1     7
  5.2173259852997376E+00 a      1112     0    47     1     8
  5.5160077239637992E+00 a      1113     0    47     1     9
 -7.1088074093270537E-01 a      1114     0    47     1    10
  4.2731396429859485E+00 a      1115     0    47     1    11
 -3.4015475174926468E-01 a      1116     0    47     1    12
 -1.0787196539226107E+01 a      1117     0    47     1    13
 -6.6446030070285254E+00 a      1118     0    47     1    14
 -1.1769813476391178E+01 a      1119     0    47     1    15
  9.9438463797497203E+00 a      1120     0    47     1    16
  6.6463896063379231E+00 a      1121     0    47     1    17
 -2.6067052975281890E+00 a      1122     0    47     1    18
 -1.4780421750306355E-02 a      1123     0    47     1    19
 -6.3201247351273890E+00 a      1124     0    47     1    20
  9.3148378106985241E+00 a      1125     0    47     1    21
  9.4115402584792307E-01 a      1126     0    47     1    22
  2.7168230721946673E+00 a      1127     0    47     1    23
  6.2851257692566591E+00 a      1128     0    47     1    24
 -1.2449701358634420E+00 a      1129     0    48     1     1
  7.6480433984384227E-02 a      1130     0    48     1     2
  3.7493327520535220E+00 a      1131     0    48     1     3
  5.8738961581173310E+00 a      1132     0    48     1     4
 -1.5685508096514804E+00 a      1133     0    48     1     5
  1.7354997163887447E+00 a      1134     0    48     1     6
  2.3243256574254980E+00 a      1135     0    48     1     7
 -6.3646288420148592E-02 a      1136     0    48     1     8
  5.6126559354143550E+00 a      1137     0    48     1     9
 -4.6200258791066036E+00 a      1138     0    48     1    10
  5.1739128902282632E+00 a      1139     0    48     1    11
 -5.8507717048592109E+00 a      1140     0    48     1    12
 -1.7399616652098765E-01 a      1141     0    48     1    13
 -1.7066049901369478E+00 a      1142     0    48     1    14
 -4.5509807825257855E+00 a      1143     0    48     1    15
  4.2266730051619108E+00 a      1144     0    48     1    16
  5.2218217244902467E+00 a      1145     0    48     1    17
  2.9243521284008458E+00 a      1146     0    48     1    18
  2.4223001348059365E+00 a      1147     0    48     1    19
 -2.1164498141737127E+00 a      1148     0    48     1    20
 -5.7330218772883850E+00 a      1149     0    48     1    21
  2.9576061695972222E+00 a      1150     0    48     1    22
 -4.3072470924879189E+00 a      1151     0    48     1    23
  2.8350291438561919E+00 a      1152     0    48     1    24
  3.2580886818630446E+00 a      1153     0    49     1     1
  3.1685154460107823E+00 a      1154     0    49     1     2
 -7.5123617215952718E+00 a      1155     0    49     1     3
  7.2972113917876635E+00 a      1156     0    49     1     4
 -3.6671273838077685E+00 a      1157     0    49     1     5
  9.9556659140262376E+00 a      1158     0    49     1     6
 -4.1936474947254183E+00 a      1159     0    49     1     7
 -1.9013917023311000E-01 a      1160     0    49     1     8
  4.2027226140935277E+00 a      1161     0    49     1     9
 -1.8738044655777003E-01 a      1162     0    49     1    10
 -1.6037164238344117E+00 a      1163     0    49     1    11
 -1.1848525229928955E+01 a      1164     0    49     1    12
  1.0730344822487348E+01 a      1165     0    49     1    13
  4.6305211940636122E+00 a      1166     0    49     1    14
  3.3622901932404681E-01 a      1167     0    49     1    15
 -2.4819020440627879E+00 a      1168     0    49     1    16
 -4.2472262472140665E+00 a      1169     0    49     1    17
  3.2754043684006096E+00 a      1170     0    49     1    18
  9.1864516708056119E+00 a      1171     0    49     1    19
  1.1767464029322815E+01 a      1172     0    49     1    20
 -7.1077317604961932E-01 a      1173     0    49     1    21
  1.0354858045438844E+01 a      1174     0    49     1    22
 -4.4432958303071999E+00 a      1175     0    49     1    23
  4.1792342869869907E+00 a      1176     0    49     1    24
  8.7799173931927399E+00 a      1177     0    50     1     1
  8.2864619796587267E+00 a      1178     0    50     1     2
  7.7124435657879324E+00 a      1179     0    50     1     3
 -9.6415364506452228E+00 a      1180     0    50     1     4
  6.8980751265323645E+00 a      1181     0    50     1     5
 -7.0276271368336678E+00 a      1182     0    50     1     6
  4.2958160673999402E+00 a      1183     0    50     1     7
  5.2098620817019530E+00 a      1184     0    50     1     8
 -5.6186817843370793E+00 a      1185     0    50     1     9
  1.5701843501834030E+00 a      1186     0    50     1    10
 -9.4672888641430948E+00 a      1187     0    50     1    11
 -1.5354866368161244E+00 a      1188     0    50     1    12
  1.5602376093345822E+00 a      1189     0    50     1    13
 -6.6633707834927653E+00 a      1190     0    50     1    14
  5.0814254065952040E+00 a      1191     0    50     1    15
 -2.6964300751363410E+00 a      1192     0    50     1    16
 -4.1663644767397114E+00 a      1193     0    50     1    17
  7.5661703760056254E+00 a      1194     0    50     1    18
 -2.1305533921968558E+00 a      1195     0    50     1    19
  4.6829497207220250E+00 a      1196     0    50     1    20
  8.6095600422671215E+00 a      1197     0    50     1    21
  2.5651776081328226E-01 a      1198     0    50     1    22
  2.1530997448327698E+00 a      1199     0    50     1    23
  1.2036484665424330E+01 a      1200     0    50     1    24
 -4.1904928578614387E+00 a      1201     0    51     1     1
 -1.1560674082463824E+00 a      1202     0    51     1     2
 -4.7354075938320230E+00 a      1203     0    51     1     3
  2.6962256911269415E+00 a      1204     0    51     1     4
  4.6053940570227239E+00 a      1205     0    51     1     5
  4.4848390705509749E+00 a      1206     0    51     1     6
  3.4198397570703953E+00 a      1207     0    51     1     7
 -1.1177253273045007E+01 a      1208     0    51     1     8
 -1.1251334904710648E+00 a      1209     0    51     1     9
 -1.1725570042792071E+00 a      1210     0    51     1    10
  7.8635679366945235E+00 a      1211     0    51     1    11
 -6.7322334563029562E+00 a      1212     0    51     1    12
 -1.0143060454147006E+00 a      1213     0    51     1    13
 -1.5053032091327680E+01 a      1214     0    51     1    14
 -8.4662894863399831E+00 a      1215     0    51     1    15
 -1.2362869425883342E-01 a      1216     0    51     1    16
 -7.4372343979132411E+00 a      1217     0    51     1    17
 -8.9640111259817488E+00 a      1218     0    51     1    18
  3.3442936195276967E+00 a      1219     0    51     1    19
  1.9363960403163247E-01 a      1220     0    51     1    20
  8.9906680792096108E+00 a      1221     0    51     1    21
  4.0830950885971236E+00 a      1222     0    51     1    22
  3.1610760815692140E+00 a      1223     0    51     1    23
  1.2791046657843143E+01 a      1224     0    51     1    24
 -6.9002182050179854E+00 a      1225     0    52     1     1
  3.6016422369142664E+00 a      1226     0    52     1     2
  4.1633376258577988E+00 a      1227     0    52     1     3
 -2.7406440271110695E+00 a      1228     0    52     1     4
  2.3479491799048871E-01 a      1229     0    52     1     5
  1.1478419802656912E+01 a      1230     0    52     1     6
  3.0582807670953529E+00 a      1231     0    52     1     7
  1.0844788223148356E+01 a      1232     0    52     1     8
 -7.1330927376389610E+00 a      1233     0    52     1     9
 -4.0779045152196964E+00 a      1234     0    52     1    10
 -4.5895690676179495E+00 a      1235     0    52     1    11
 -5.6096419236764374E+00 a      1236     0    52     1    12
 -2.2645204242446622E+00 a      1237     0    52     1    13
 -1.6120030612223937E+00 a      1238     0    52     1    14
 -1.5437885704511132E+00 a      1239     0    52     1    15
 -3.7098355472438210E-01 a      1240     0    52     1    16
 -1.3425808731995886E+01 a      1241     0    52     1    17
  5.0039227746603849E+00 a      1242     0    52     1    18
 -1.0091477578014030E+00 a      1243     0    52     1    19
 -1.0648149035337260E+01 a      1244     0    52     1    20
 -5.6552142055620633E+00 a      1245     0    52     1    21
  7.7309927442190167E+00 a      1246     0    52     1    22
  2.2521081625780366E+00 a      1247     0    52     1    23
  8.1321366966463078E+00 a      1248     0    52     1    24
  4.0575807591436233E+00 a      1249     0    53     1     1
 -7.2325874757974473E+00 a      1250     0    53     1     2
  5.4657756776682227E+00 a      1251     0    53     1     3
  1.2876633950623857E+00 a      1252     0    53     1     4
  6.0138869300787849E+00 a      1253     0    53     1     5
 -3.1204280269330051E+00 a      1254     0    53     1     6
 -2.7089663000767454E+00 a      1255     0    53     1     7
 -6.3893571999112586E+00 a      1256     0    53     1     8
 -6.0106301903385917E-01 a      1257     0    53     1     9
 -7.1225273316158759E+00 a      1258     0    53     1    10
 -2.5096985801220200E+00 a      1259     0    53     1    11
 -1.3732707797673944E+00 a      1260     0    53     1    12
  7.2766179213126669E-01 a      1261     0    53     1    13
  1.8340321671443969E+00 a      1262     0    53     1    14
  1.5246603404683878E+01 a      1263     0    53     1    15
 -2.1626842558781059E+00 a      1264     0    53     1    16
  6.9182724317914444E+00 a      1265     0    53     1    17
 -1.1836956017243112E+00 a      1266     0    53     1    18
  3.5180413671895221E+00 a      1267     0    53     1    19
 -2.3296934129103612E+00 a      1268     0    53     1    20
 -1.0191393794136271E+01 a      1269     0    53     1    21
 -1.5050758721212034E+00 a      1270     0    53     1    22
 -6.0696793407065863E+00 a      1271     0    53     1    23
 -1.1748574121760429E+00 a      1272     0    53     1    24
 -3.9952850233193957E+00 a      1273     0    54     1     1
 -2.3816899138483483E+00 a      1274     0    54     1     2
 -6.5672787929341645E+00 a      1275     0    54     1     3
 -3.3605677528337279E+00 a      1276     0    54     1     4
 -3.8015052495362234E-01 a      1277     0    54     1     5
 -1.1713958204630343E+01 a      1278     0    54     1     6
  7.0276236899004187E+00 a      1279     0    54     1     7
 -4.8295857521323695E+00 a      1280     0    54     1     8
  4.1820742073012802E+00 a      1281     0    54     1     9
  6.7277358805949827E+00 a      1282     0    54     1    10
  3.2747091964328684E-01 a      1283     0    54     1    11
 -1.1828577975088249E+01 a      1284     0    54     1    12
  1.0337835566172515E+00 a      1285     0    54     1    13
  5.1027836441676229E+00 a      1286     0    54     1    14
 -1.8169524014807642E+01 a      1287     0    54     1    15
 -2.1296666956665447E+00 a      1288     0    54     1    16
 -8.1249062679578863E+00 a      1289     0    54     1    17
 -1.2125374623364532E+01 a      1290     0    54     1    18
 -2.4962758791714177E+00 a      1291     0    54     1    19
 -5.6271350629888914E+00 a      1292     0    54     1    20
  8.7483758631652968E+00 a      1293     0    54     1    21
 -4.1818697998288146E-01 a      1294     0    54     1    22
 -4.0147964760904822E+00 a      1295     0    54     1    23
  4.0243320822679083E+00 a      1296     0    54     1    24
 -1.2700607137367268E+00 a      1297     0    55     1     1
 -4.7880784656094617E+00 a      1298     0    55     1     2
  7.2432665227359987E+00 a      1299     0    55     1     3
 -7.1053291251439954E-01 a      1300     0    55     1     4
  4.7834162531864868E+00 a      1301     0    55     1     5
  2.3686370590535253E+00 a      1302     0    55     1     6
  4.9353031286353977E+00 a      1303     0    55     1     7
  4.6973002015149437E+00 a      1304     0    55     1     8
  5.1673490938258038E+00 a      1305     0    55     1     9
 -1.3807155158784292E+00 a      1306     0    55     1    10
  2.5265101530013627E+00 a      1307     0    55     1    11
 -5.4220860933823163E+00 a      1308     0    55     1    12
 -3.4700298693990765E+00 a      1309     0    55     1    13
  1.3906569443498007E+00 a      1310     0    55     1    14
  1.1725102138009870E+01 a      1311     0    55     1    15
  1.1713389500308695E+01 a      1312     0    55     1    16
 -3.2060013433143046E+00 a      1313     0    55     1    17
  1.4982948703288452E+01 a      1314     0    55     1    18
  1.4624808959945594E+00 a      1315     0    55     1    19
 -2.1737208526098515E+00 a      1316     0    55     1    20
 -4.8563582656717914E+00 a      1317     0    55     1    21
  5.9676550938471751E+00 a      1318     0    55     1    22
 -3.5704456858785796E+00 a      1319     0    55     1    23
  1.9027611134987950E+00 a      1320     0    55     1    24
  7.0676791828948895E+00 a      1321     0    56     1     1
  3.2045699869769972E-01 a      1322     0    56     1     2
  3.6891672102313566E+00 a      1323     0    56     1     3
  3.2737137011217285E+00 a      1324     0    56     1     4
 -3.7566184226600372E+00 a      1325     0    56     1     5
  2.6440763769574702E+00 a      1326     0    56     1     6
  5.1577901566630813E-01 a      1327     0    56     1     7
 -5.3827263931589293E+00 a      1328     0    56     1     8
 -3.8158227844177941E+00 a      1329     0    56     1     9
  1.1066322456585052E+01 a      1330     0    56     1    10
 -9.0297481527471888E+00 a      1331     0    56     1    11
  7.5112848229328035E+00 a      1332     0    56     1    12
 -3.1085822505974298E-01 a      1333     0    56     1    13
 -7.2465604300158688E+00 a      1334     0    56     1    14
  1.8265715639284189E-01 a      1335     0    56     1    15
 -5.3524627185994467E-01 a      1336     0    56     1    16
 -4.4074946596199721E-01 a      1337     0    56     1    17
  1.5885805926678911E+00 a      1338     0    56     1    18
  1.4457301003699401E+00 a      1339     0    56     1    19
  1.2701979500959222E+01 a      1340     0    56     1    20
 -3.0973103543382052E+00 a      1341     0    56     1    21
 -3.5664862503405774E+00 a      1342     0    56     1    22
  1.1139013168057334E+01 a      1343     0    56     1    23
  6.2373457026158929E+00 a      1344     0    56     1    24
  8.0194453843837454E+00 a      1345     0    57     1     1
 -5.7034394844586247E+00 a      1346     0    57     1     2
  5.6237775200125109E+00 a      1347     0    57     1     3
 -2.3231252124477755E+00 a      1348     0    57     1     4
 -1.8185204707534799E+00 a      1349     0    57     1     5
 -4.9856318466219278E+00 a      1350     0    57     1     6
  2.1896054793659463E+00 a      1351     0    57     1     7
 -4.0760864817416627E+00 a      1352     0    57     1     8
  4.9297758181332920E+00 a      1353     0    57     1     9
 -8.1743111531574031E-01 a      1354     0    57     1    10
  3.0664038047615896E+00 a      1355     0    57     1    11
 -1.7311729002772021E+00 a      1356     0    57     1    12
  8.3352926743448013E+00 a      1357     0    57     1    13
 -9.7378029005703848E+00 a      1358     0    57     1    14
 -5.8116742555882537E+00 a      1359     0    57     1    15
  1.8826376462086464E-01 a      1360     0    57     1    16
 -4.7823828525275154E+00 a      1361     0    57     1    17
 -6.4853911706971914E+00 a      1362     0    57     1    18
  6.4619150001654440E+00 a      1363     0    57     1    19
 -9.6043835536486799E-01 a      1364     0    57     1    20
 -3.1115148064010802E-02 a      1365     0    57     1    21
 -9.5402027099199271E-01 a      1366     0    57     1    22
 -2.9725533348130999E+00 a      1367     0    57     1    23
  5.0703778053155188E+00 a      1368     0    57     1    24
 -1.1210814864153109E+01 a      1369     0    58     1     1
  1.3267748714749672E+01 a      1370     0    58     1     2
  2.6873583372474381E+00 a      1371     0    58     1     3
  3.7038243056061728E+00 a      1372     0    58     1     4
  1.2942308219659457E+00 a      1373     0    58     1     5
  5.5168879161414122E+00 a      1374     0    58     1     6
 -5.3226077093719049E+00 a      1375     0    58     1     7
 -1.1246930364340225E+01 a      1376     0    58     1     8
  2.9328668731917102E+00 a      1377     0    58     1     9
  1.0683602164390098E+00 a      1378     0    58     1    10
  1.6962161592455317E+01 a      1379     0    58     1    11
  1.8151409352495635E+00 a      1380     0    58     1    12
  1.4901147432930978E-01 a      1381     0    58     1    13
  6.3853991166639119E+00 a      1382     0    58     1    14
  1.5238317618027732E+00 a      1383     0    58     1    15
  1.5176814099166502E+00 a      1384     0    58     1    16
 -1.7172861677010147E+01 a      1385     0    58     1    17
  1.6285170512097780E+00 a      1386     0    58     1    18
 -3.7281496617382932E+00 a      1387     0    58     1    19
 -3.1775710543617692E+00 a      1388     0    58     1    20
 -3.7083089660919462E+00 a      1389     0    58     1    21
 -7.8479889358595036E+00 a      1390     0    58     1    22
 -4.7471813182654241E+00 a      1391     0    58     1    23
 -5.2654035214292456E+00 a      1392     0    58     1    24
  1.4820350015149524E+00 a      1393     0    59     1     1
 -5.3834062170151409E+00 a      1394     0    59     1     2
  8.1609198087029764E+00 a      1395     0    59     1     3
 -5.8010066194161949E-02 a      1396     0    59     1     4
 -1.2420360657309889E+01 a      1397     0    59     1     5
  1.0788975778644389E+01 a      1398     0    59     1     6
  1.5888291369146779E-01 a      1399     0    59     1     7
 -2.2697750396065686E+01 a      1400     0    59     1     8
 -9.5295679740298009E+00 a      1401     0    59     1     9
 -3.0077328928172333E+00 a      1402     0    59     1    10
 -7.3630058483155061E+00 a      1403     0    59     1    11
 -6.2359425245100510E+00 a      1404     0    59     1    12
  4.3346706023193846E+00 a      1405     0    59     1    13
 -9.9666228172652218E+00 a      1406     0    59     1    14
  5.2722118852334310E+00 a      1407     0    59     1    15
  3.2346023684237388E+00 a      1408     0    59     1    16
  7.7059158170304443E+00 a      1409     0    59     1    17
  1.1382864067218073E+01 a      1410     0    59     1    18
  8.1619785312083319E+00 a      1411     0    59     1    19
 -9.6818911964810983E-01 a      1412     0    59     1    20
 -2.9834634923975240E-01 a      1413     0    59     1    21
 -8.3210563501451151E+00 a      1414     0    59     1    22
 -1.0160763376600338E+01 a      1415     0    59     1    23
 -6.2340790308774707E+00 a      1416     0    59     1    24
 -2.3528431118944186E+00 a      1417     0    60     1     1
 -6.7268757416907414E+00 a      1418     0    60     1     2
 -5.8739892110130345E+00 a      1419     0    60     1     3
  4.9213546293584161E+00 a      1420     0    60     1     4
 -1.1139602771497215E+01 a      1421     0    60     1     5
 -5.4262497187773819E+00 a      1422     0    60     1     6
  1.4495087302627077E+01 a      1423     0    60     1     7
 -1.9858925011543429E+00 a      1424     0    60     1     8
 -2.9614168378279735E+00 a      1425     0    60     1     9
 -1.5160981089721361E+00 a      1426     0    60     1    10
 -1.5047904009541540E+00 a      1427     0    60     1    11
 -7.7762400057923420E-01 a      1428     0    60     1    12
  6.6326526675830575E+00 a      1429     0    60     1    13
 -2.9796446549198650E+00 a      1430     0    60     1    14
 -1.6879426156623674E+00 a      1431     0    60     1    15
  1.0443958650235263E+00 a      1432     0    60     1    16
 -2.0488417252478630E+00 a      1433     0    60     1    17
  5.2304865084402836E+00 a      1434     0    60     1    18
 -7.1052343864534973E-01 a      1435     0    60     1    19
  2.9069130302735902E+00 a      1436     0    60     1    20
 -1.9160180386728067E+00 a      1437     0    60     1    21
  4.6633131294958527E+00 a      1438     0    60     1    22
 -7.6844324176901568E-01 a      1439     0    60     1    23
 -9.6157170085827754E+00 a      1440     0    60     1    24
 -2.8896355341021134E+00 a      1441     0    61     1     1
  2.0662708946293673E+00 a      1442     0    61     1     2
  1.2661396970502190E+00 a      1443     0    61     1     3
 -2.3951206780471734E-01 a      1444     0    61     1     4
  2.5831407551254468E+00 a      1445     0    61     1     5
  2.7739633988084889E-01 a      1446     0    61     1     6
 -3.8229131861735630E+00 a      1447     0    61     1     7
  1.0199287772512042E+00 a      1448     0    61     1     8
 -2.0837440887041083E+00 a      1449     0    61     1     9
 -1.5488060919036049E+00 a      1450     0    61     1    10
 -8.2074488772820846E+00 a      1451     0    61     1    11
 -5.0822696661856401E+00 a      1452     0    61     1    12
  3.7574048633481544E-02 a      1453     0    61     1    13
 -4.1508568099445800E+00 a      1454     0    61     1    14
 -2.5030196204334447E+00 a      1455     0    61     1    15
 -3.3530600503926751E+00 a      1456     0    61     1    16
 -6.1610701654863611E+00 a      1457     0    61     1    17
 -7.6677533294079057E+00 a      1458     0    61     1    18
 -6.1093577681834613E-02 a      1459     0    61     1    19
 -6.4909775981025959E+00 a      1460     0    61     1    20
 -1.5174428115268959E+00 a      1461     0    61     1    21
  1.0554871506104019E+01 a      1462     0    61     1    22
  7.7848496689199120E-01 a      1463     0    61     1    23
  1.0537216924335551E+00 a      1464     0    61     1    24
 -6.6979280363195510E+00 a      1465     0    62     1     1
  3.2343094567014137E+00 a      1466     0    62     1     2
 -5.3421198208792697E+00 a      1467     0    62     1     3
 -2.0971363928894537E+00 a      1468     0    62     1     4
 -3.2760459499864969E+00 a      1469     0    62     1     5
  8.0599246091335210E+00 a      1470     0    62     1     6
  3.5825554689875538E+00 a      1471     0    62     1     7
  1.2314304659558277E+00 a      1472     0    62     1     8
  7.9786535233837572E+00 a      1473     0    62     1     9
  4.0612896978009774E+00 a      1474     0    62     1    10
 -2.8996171988604069E+00 a      1475     0    62     1    11
  4.0058307030216875E+00 a      1476     0    62     1    12
 -5.5760006440633232E+00 a      1477     0    62     1    13
 -6.3561222053758595E+00 a      1478     0    62     1    14
 -3.0903644899882408E+00 a      1479     0    62     1    15
  4.2341748926438667E+00 a      1480     0    62     1    16
 -2.0220353674560170E+00 a      1481     0    62     1    17
 -1.6533317431343260E+00 a      1482     0    62     1    18
 -2.1771985462507284E+00 a      1483     0    62     1    19
  7.2624171659472925E+00 a      1484     0    62     1    20
 -8.6578692354927771E+00 a      1485     0    62     1    21
  1.1391506600229631E+00 a      1486     0    62     1    22
  2.3884296646632768E+00 a      1487     0    62     1    23
 -1.4459949783088871E-01 a      1488     0    62     1    24
  2.7562471647504561E+00 a      1489     0    63     1     1
 -1.5637419067649545E+00 a      1490     0    63     1     2
 -3.4479050593435252E+00 a      1491     0    63     1     3
 -4.9766767686613909E+00 a      1492     0    63     1     4
 -4.7308513805477137E+00 a      1493     0    63     1     5
 -5.0724418199910382E-01 a      1494     0    63     1     6
 -1.7228150324620477E+00 a      1495     0    63     1     7
  3.1933293131070011E+00 a      1496     0    63     1     8
 -2.1643602998459466E+00 a      1497     0    63     1     9
  4.4411945106686836E+00 a      1498     0    63     1    10
  5.3978855409084980E+00 a      1499     0    63     1    11
  6.2142620971626599E+00 a      1500     0    63     1    12
 -2.4191998880534706E+00 a      1501     0    63     1    13
  3.6031661183623491E+00 a      1502     0    63     1    14
 -9.3306909547905570E-01 a      1503     0    63     1    15
 -7.2191566492572239E+00 a      1504     0    63     1    16
 -4.3806865849757086E+00 a      1505     0    63     1    17
  1.0476180386820912E+01 a      1506     0    63     1    18
 -6.8382696512032903E-01 a      1507     0    63     1    19
 -1.0229976423522677E-01 a      1508     0    63     1    20
 -6.6223334517484034E+00 a      1509     0    63     1    21
 -5.5943126430904675E+00 a      1510     0    63     1    22
 -8.2886545148382584E+00 a      1511     0    63     1    23
  3.1450076322366129E+00 a      1512     0    63     1    24
  1.9051247395416016E+00 a      1513     0    64     1     1
  9.9961812705460407E+00 a      1514     0    64     1     2
 -9.8370688286962800E+00 a      1515     0    64     1     3
 -6.4455245792225957E-01 a      1516     0    64     1     4
 -7.3878470283598690E+00 a      1517     0    64     1     5
 -6.7734685065579141E+00 a      1518     0    64     1     6
 -3.2139528653570966E+00 a      1519     0    64     1     7
 -7.5055943304561419E+00 a      1520     0    64     1     8
  5.2772484678564535E-01 a      1521     0    64     1     9
  8.0545725437587734E+00 a      1522     0    64     1    10
  4.7863088800378888E+00 a      1523     0    64     1    11
  6.2365753043549810E-01 a      1524     0    64     1    12
 -4.0780403326724217E+00 a      1525     0    64     1    13
  3.0535811798410060E+00 a      1526     0    64     1    14
  8.4650852147182878E+00 a      1527     0    64     1    15
  6.4555735631607591E+00 a      1528     0    64     1    16
 -8.3610579039564907E+00 a      1529     0    64     1    17
 -1.0009802475684977E+00 a      1530     0    64     1    18
 -8.1132008187003848E+00 a      1531     0    64     1    19
 -8.4006534267639541E+00 a      1532     0    64     1    20
 -3.0485049846478298E+00 a      1533     0    64     1    21
  5.1687190335061137E+00 a      1534     0    64     1    22
 -4.1963474473125597E+00 a      1535     0    64     1    23
  5.6787716534464208E+00 a      1536     0    64     1    24
  5.7720479489362368E+00 a      1537     0    65     1     1
  4.3644504189789179E+00 a      1538     0    65     1     2
  3.8637104221555605E+00 a      1539     0    65     1     3
  5.1358760574098934E+00 a      1540     0    65     1     4
 -6.9793760044601267E+00 a      1541     0    65     1     5
  1.8291488135632255E+00 a      1542     0    65     1     6
 -3.9906687724408312E+00 a      1543     0    65     1     7
 -3.6944538356616139E+00 a      1544     0    65     1     8
 -1.0406806740726468E+01 a      1545     0    65     1     9
  2.5295537316467489E+00 a      1546     0    65     1    10
 -4.4395679175555776E+00 a      1547     0    65     1    11
  8.9845361408980851E-01 a      1548     0    65     1    12
  7.9191649935224220E+00 a      1549     0    65     1    13
  3.5730160853976667E+00 a      1550     0    65     1    14
  1.3899192296440116E+01 a      1551     0    65     1    15
 -1.0219640651134991E+01 a      1552     0    65     1    16
  1.2790001004838492E+00 a      1553     0    65     1    17
  7.7040406966233377E+00 a      1554     0    65     1    18
  5.6723491094292351E+00 a      1555     0    65     1    19
 -3.3928401298848709E-01 a      1556     0    65     1    20
 -6.7899727670546390E+00 a      1557     0    65     1    21
 -9.3531018192868611E+00 a      1558     0    65     1    22
  3.6614831602063798E+00 a      1559     0    65     1    23
  3.1849319471774984E+00 a      1560     0    65     1    24
  1.0426883762182415E+00 a      1561     0    66     1     1
  1.6786072594473365E+00 a      1562     0    66     1     2
 -4.2861135338938015E+00 a      1563     0    66     1     3
 -9.7284610781762715E-01 a      1564     0    66     1     4
 -1.6456558533602518E+01 a      1565     0    66     1     5
  3.5920235239685629E+00 a      1566     0    66     1     6
 -1.6229423989201321E+00 a      1567     0    66     1     7
  7.9258175507323898E+00 a      1568     0    66     1     8
  4.6081031069936440E+00 a      1569     0    66     1     9
 -1.3064503769140328E+00 a      1570     0    66     1    10
  8.6447969332080579E+00 a      1571     0    66     1    11
 -8.9091873114464217E+00 a      1572     0    66     1    12
 -1.6882846384911987E+00 a      1573     0    66     1    13
 -7.8153721533059892E+00 a      1574     0    66     1    14
  4.8267573665413686E+00 a      1575     0    66     1    15
  6.2985154958587835E+00 a      1576     0    66     1    16
 -1.1413604491672716E+01 a      1577     0    66     1    17
 -3.1061666163693959E+00 a      1578     0    66     1    18
 -2.4631905096559268E+00 a      1579     0    66     1    19
 -6.0956572504460054E+00 a      1580     0    66     1    20
  1.4051181118112639E+00 a      1581     0    66     1    21
  8.5644983702624933E-01 a      1582     0    66     1    22
  1.4429513996105775E-01 a      1583     0    66     1    23
  3.5115873052905626E+00 a      1584     0    66     1    24
  5.5363193434963236E+00 a      1585     0    67     1     1
 -1.0016405192375704E+00 a      1586     0    67     1     2
 -7.8950839767578964E+00 a      1587     0    67     1     3
 -4.9760812817526281E+00 a      1588     0    67     1     4
 -2.8880915559706479E+00 a      1589     0    67     1     5
 -6.2509934003806809E+00 a      1590     0    67     1     6
 -9.5830416024236531E-01 a      1591     0    67     1     7
 -9.8989961639825079E+00 a      1592     0    67     1     8
  6.4866690408699110E+00 a      1593     0    67     1     9
  9.0638878607596443E+00 a      1594     0    67     1    10
  8.3581985309244651E+00 a      1595     0    67     1    11
 -7.2824308424362787E+00 a      1596     0    67     1    12
  1.1325023587547347E+00 a      1597     0    67     1    13
  2.0779938361985395E-01 a      1598     0    67     1    14
 -1.2867575849973059E+01 a      1599     0    67     1    15
 -5.9183686512083744E+00 a      1600     0    67     1    16
  6.2075572117893953E+00 a      1601     0    67     1    17
 -1.7208945599802077E+00 a      1602     0    67     1    18
  7.0847133689013591E+00 a      1603     0    67     1    19
  1.8255802263500236E+01 a      1604     0    67     1    20
  8.1136087412831053E+00 a      1605     0    67     1    21
  4.2549306803906806E+00 a      1606     0    67     1    22
 -3.8738568747158850E+00 a      1607     0    67     1    23
  7.3992128162679434E+00 a      1608     0    67     1    24
 -4.3294586339646157E+00 a      1609     0    68     1     1
  1.5815403736199602E+00 a      1610     0    68     1     2
  2.1669235865306393E+00 a      1611     0    68     1     3
  1.2326758323310334E+00 a      1612     0    68     1     4
 -3.6551328307764495E+00 a      1613     0    68     1     5
 -7.0082462172163151E-01 a      1614     0    68     1     6
 -1.2070245999619613E+00 a      1615     0    68     1     7
 -4.5178121008546297E+00 a      1616     0    68     1     8
  4.5083267092917350E+00 a      1617     0    68     1     9
  4.0573292644771328E+00 a      1618     0    68     1    10
  1.1712929806532639E+00 a      1619     0    68     1    11
  1.5695256017938160E+01 a      1620     0    68     1    12
  7.5255406257384572E-01 a      1621     0    68     1    13
 -2.4116105090936197E+00 a      1622     0    68     1    14
 -1.9045439652518814E+00 a      1623     0    68     1    15
