################################################################################
# Neural network connection values (weights and biases).
################################################################################
# Col  Name       Description
################################################################################
# 1    connection Neural network connection value.
# 2    t          Connection type (a = weight, b = bias).
# 3    index      Index enumerating weights.
# 4    l_s        Starting point layer (end point layer for biases).
# 5    n_s        Starting point neuron in starting layer (end point neuron for biases).
# 6    l_e        End point layer.
# 7    n_e        End point neuron in end layer.
################################################################################
#                      1 2         3     4     5     6     7
#             connection t     index   l_s   n_s   l_e   n_e
############################################################
  1.6175188758571011E+00 a         1     0     1     1     1
 -2.7430513424865884E-03 a         2     0     1     1     2
  6.6581771039622550E+00 a         3     0     1     1     3
 -1.4203116869825410E+01 a         4     0     1     1     4
  1.2880760262865875E+01 a         5     0     1     1     5
 -5.4124336605209971E+00 a         6     0     1     1     6
  2.6570370293167711E+00 a         7     0     1     1     7
 -5.9990216713510573E+00 a         8     0     1     1     8
  6.2108011643569405E+00 a         9     0     1     1     9
 -5.4630194347582597E+00 a        10     0     1     1    10
  1.8804678541990749E+00 a        11     0     1     1    11
  1.1854235526336073E+01 a        12     0     1     1    12
  1.9409864922543405E+00 a        13     0     1     1    13
  7.4409683231559072E+00 a        14     0     1     1    14
  2.7497434222671430E-01 a        15     0     1     1    15
  6.3128102597476599E-01 a        16     0     1     1    16
 -7.1166644083123645E+00 a        17     0     1     1    17
 -8.8412071750041168E+00 a        18     0     1     1    18
  5.2283123102674534E+00 a        19     0     1     1    19
  1.3422587821701265E+01 a        20     0     1     1    20
  9.7718551276373311E-01 a        21     0     1     1    21
 -5.6921820498245497E+00 a        22     0     1     1    22
  5.2444589114052835E+00 a        23     0     1     1    23
  2.7313662853766023E+00 a        24     0     1     1    24
 -3.1138948137215752E+00 a        25     0     2     1     1
  9.5125762866954577E+00 a        26     0     2     1     2
 -1.8052814602300387E+00 a        27     0     2     1     3
 -1.0409681211302074E+01 a        28     0     2     1     4
  6.6853994770837488E+00 a        29     0     2     1     5
 -1.3881822786312064E+00 a        30     0     2     1     6
 -5.1801446003886289E+00 a        31     0     2     1     7
  2.8446765298219443E+00 a        32     0     2     1     8
 -7.5364615756014599E+00 a        33     0     2     1     9
 -5.0991420023143936E+00 a        34     0     2     1    10
  3.5993526304810048E+00 a        35     0     2     1    11
  5.9657155717503931E+00 a        36     0     2     1    12
 -1.8597090574721407E+00 a        37     0     2     1    13
  6.7418140368018786E-01 a        38     0     2     1    14
  2.5449687698752594E+00 a        39     0     2     1    15
  1.0672984945149736E+01 a        40     0     2     1    16
  7.8412091582582812E+00 a        41     0     2     1    17
 -1.7456699017472388E+01 a        42     0     2     1    18
 -7.7769720425297493E+00 a        43     0     2     1    19
  2.0080388622904688E+00 a        44     0     2     1    20
  1.9130811222215576E+00 a        45     0     2     1    21
  1.5054339288405474E+01 a        46     0     2     1    22
  2.8848264265176526E+00 a        47     0     2     1    23
  1.4840614758454088E+01 a        48     0     2     1    24
  1.2452893373681850E+00 a        49     0     3     1     1
  1.5805573598041098E+00 a        50     0     3     1     2
 -1.6747876567139730E+00 a        51     0     3     1     3
  9.0665450365191855E+00 a        52     0     3     1     4
 -6.7186768090905895E+00 a        53     0     3     1     5
  2.1703995107331858E-01 a        54     0     3     1     6
 -3.5888106646317715E+00 a        55     0     3     1     7
  9.5368934373897740E-01 a        56     0     3     1     8
  5.7380632620660532E-01 a        57     0     3     1     9
 -8.0072978452207497E+00 a        58     0     3     1    10
 -1.6699982974596739E+00 a        59     0     3     1    11
 -8.1725136053792156E+00 a        60     0     3     1    12
 -1.1981382369353895E+00 a        61     0     3     1    13
  3.4728833499699121E+00 a        62     0     3     1    14
  1.8935282161937086E+00 a        63     0     3     1    15
 -2.7163422424682673E+00 a        64     0     3     1    16
  1.7064282118952487E+00 a        65     0     3     1    17
  2.9648399862598476E+00 a        66     0     3     1    18
 -6.6103167457442202E+00 a        67     0     3     1    19
 -5.1579380928292737E+00 a        68     0     3     1    20
  9.2923654779129505E-01 a        69     0     3     1    21
  2.8586179444317144E+00 a        70     0     3     1    22
 -2.9001518283641090E+00 a        71     0     3     1    23
  5.5232284022903200E-01 a        72     0     3     1    24
  5.5353805309943986E+00 a        73     0     4     1     1
 -6.2255628077741401E+00 a        74     0     4     1     2
 -4.1798548929320205E+00 a        75     0     4     1     3
  8.0560952674707362E+00 a        76     0     4     1     4
 -9.0011932002546136E+00 a        77     0     4     1     5
  5.9439865784931163E+00 a        78     0     4     1     6
  5.1369842931669627E+00 a        79     0     4     1     7
  1.7870090279391428E+00 a        80     0     4     1     8
 -1.2767381715226711E-01 a        81     0     4     1     9
  3.4126716052827453E+00 a        82     0     4     1    10
  3.7252565698108495E+00 a        83     0     4     1    11
  1.2126697444260128E+00 a        84     0     4     1    12
  3.4302948871607724E+00 a        85     0     4     1    13
 -1.3902023120323677E+00 a        86     0     4     1    14
 -6.9896229949041482E+00 a        87     0     4     1    15
 -8.9990987900387260E+00 a        88     0     4     1    16
 -2.0517285995522183E+00 a        89     0     4     1    17
  1.1682804551645241E+01 a        90     0     4     1    18
  8.0468499257379449E+00 a        91     0     4     1    19
 -4.5485008025219154E+00 a        92     0     4     1    20
  1.6506252368544025E+00 a        93     0     4     1    21
 -6.1603538410969412E+00 a        94     0     4     1    22
 -3.1472277856734093E-01 a        95     0     4     1    23
 -7.8432587369925608E+00 a        96     0     4     1    24
 -1.8413833450887001E+00 a        97     0     5     1     1
 -2.5383821490926035E+00 a        98     0     5     1     2
 -5.9273906661803739E+00 a        99     0     5     1     3
  1.4999480933083738E+01 a       100     0     5     1     4
 -1.2915162849030626E+01 a       101     0     5     1     5
  3.1829770625957967E+00 a       102     0     5     1     6
 -7.5927840834546405E+00 a       103     0     5     1     7
  8.7051547678004368E+00 a       104     0     5     1     8
 -6.4021199035261835E+00 a       105     0     5     1     9
 -1.5175325041636265E+00 a       106     0     5     1    10
  3.3025846530955284E-02 a       107     0     5     1    11
 -1.5268726345181250E+01 a       108     0     5     1    12
 -2.2607155223059827E+00 a       109     0     5     1    13
 -3.8944334981707875E+00 a       110     0     5     1    14
  5.4325678374637700E+00 a       111     0     5     1    15
 -4.0334548403723138E+00 a       112     0     5     1    16
  2.7863074815775408E+00 a       113     0     5     1    17
  3.2155908150731314E+00 a       114     0     5     1    18
 -8.1662426940429338E+00 a       115     0     5     1    19
 -1.0429801291700604E+01 a       116     0     5     1    20
  8.6640200118623156E-01 a       117     0     5     1    21
  4.1934025924898242E+00 a       118     0     5     1    22
 -9.2305279912182545E+00 a       119     0     5     1    23
 -3.3917639479237658E+00 a       120     0     5     1    24
  9.7201349637325607E-01 a       121     0     6     1     1
 -1.3151926402541379E+01 a       122     0     6     1     2
 -4.1936332925752211E+00 a       123     0     6     1     3
  9.5613652401376026E+00 a       124     0     6     1     4
 -8.3074612779783852E+00 a       125     0     6     1     5
  2.2803737667266315E+00 a       126     0     6     1     6
  1.7322090069753535E+00 a       127     0     6     1     7
 -1.4866571740271999E+00 a       128     0     6     1     8
  5.9744241366628446E+00 a       129     0     6     1     9
  3.8923726213738967E+00 a       130     0     6     1    10
 -9.4601268436181815E-02 a       131     0     6     1    11
 -2.9977671529165857E+00 a       132     0     6     1    12
 -5.1056089961747944E+00 a       133     0     6     1    13
 -7.6424963942331525E-01 a       134     0     6     1    14
 -1.4853821696266822E+00 a       135     0     6     1    15
 -9.6923515525323385E+00 a       136     0     6     1    16
 -6.0413617271608233E+00 a       137     0     6     1    17
  1.7634887230179920E+01 a       138     0     6     1    18
  1.1463588669876435E+01 a       139     0     6     1    19
 -3.0877626992493461E+00 a       140     0     6     1    20
  3.2242127874598014E-02 a       141     0     6     1    21
 -8.8970834816845041E+00 a       142     0     6     1    22
 -4.4485855700648331E+00 a       143     0     6     1    23
 -1.4393427486926626E+01 a       144     0     6     1    24
 -6.2789787853847550E+00 a       145     0     7     1     1
 -4.9796710344602388E+00 a       146     0     7     1     2
 -2.3820046819990126E+00 a       147     0     7     1     3
 -7.0882959145203168E+00 a       148     0     7     1     4
 -1.1093889193649755E+00 a       149     0     7     1     5
 -2.9347692964020942E+00 a       150     0     7     1     6
  1.7765126112377172E+00 a       151     0     7     1     7
  1.4181866931310039E+00 a       152     0     7     1     8
 -4.4258410843248184E+00 a       153     0     7     1     9
  8.5443594600553041E+00 a       154     0     7     1    10
  5.2634740341445303E+00 a       155     0     7     1    11
  5.9738953425847177E+00 a       156     0     7     1    12
  4.9167366585679968E+00 a       157     0     7     1    13
 -8.6672589732713288E+00 a       158     0     7     1    14
 -5.7869487978746816E+00 a       159     0     7     1    15
  8.6173406594958717E+00 a       160     0     7     1    16
  2.1783989049389909E+00 a       161     0     7     1    17
 -2.6499729893683783E+00 a       162     0     7     1    18
  1.1903961438038856E+01 a       163     0     7     1    19
  1.4738897713301842E+00 a       164     0     7     1    20
  1.7258937817913085E+00 a       165     0     7     1    21
 -1.0816666194214207E-01 a       166     0     7     1    22
 -3.1891010282964181E+00 a       167     0     7     1    23
 -2.3042888676431397E+00 a       168     0     7     1    24
 -4.6058814105704995E+00 a       169     0     8     1     1
  3.3622831374950422E+00 a       170     0     8     1     2
  5.5662907118820968E+00 a       171     0     8     1     3
 -1.4909141594787462E+01 a       172     0     8     1     4
  1.2353539592115034E+01 a       173     0     8     1     5
 -5.5073986745668950E+00 a       174     0     8     1     6
 -8.7914413358544614E+00 a       175     0     8     1     7
 -5.8210071576604570E+00 a       176     0     8     1     8
  1.2729843925012143E+00 a       177     0     8     1     9
 -3.2067402747899614E+00 a       178     0     8     1    10
 -1.1067653915337390E+01 a       179     0     8     1    11
 -2.7600447208906282E+00 a       180     0     8     1    12
  5.3207655199773622E+00 a       181     0     8     1    13
  2.0492653562718324E-01 a       182     0     8     1    14
  1.4187003846339524E+01 a       183     0     8     1    15
  7.9011114541633942E+00 a       184     0     8     1    16
 -3.7530384808749280E+00 a       185     0     8     1    17
 -2.1489379540495179E+01 a       186     0     8     1    18
 -1.7139188270274946E+01 a       187     0     8     1    19
  2.5432836507266217E+00 a       188     0     8     1    20
  1.1070387224581644E+00 a       189     0     8     1    21
  9.1236489486069350E-01 a       190     0     8     1    22
  2.3280843544682037E+00 a       191     0     8     1    23
  8.0543978676963235E+00 a       192     0     8     1    24
  9.0914815012676193E+00 a       193     0     9     1     1
  4.9120615593143713E+00 a       194     0     9     1     2
 -4.2015650242318853E-01 a       195     0     9     1     3
  1.2427493188011034E+00 a       196     0     9     1     4
  6.5412939000782933E+00 a       197     0     9     1     5
 -8.3923709584160566E-01 a       198     0     9     1     6
  2.4407469663463268E+00 a       199     0     9     1     7
 -7.1049982466031842E+00 a       200     0     9     1     8
  2.2327971781861309E+00 a       201     0     9     1     9
  3.3000693591396195E+00 a       202     0     9     1    10
 -2.7486577037098927E+00 a       203     0     9     1    11
  8.7230309445274532E+00 a       204     0     9     1    12
 -2.3263866339542054E+00 a       205     0     9     1    13
  6.8747021005975242E+00 a       206     0     9     1    14
  2.6787241261677721E+00 a       207     0     9     1    15
 -3.3132525664535382E+00 a       208     0     9     1    16
 -2.5890044069436055E-02 a       209     0     9     1    17
  1.5766331257358237E+00 a       210     0     9     1    18
 -5.5155952705523879E+00 a       211     0     9     1    19
  3.4743859905712986E+00 a       212     0     9     1    20
 -4.1293651345844102E+00 a       213     0     9     1    21
 -5.5356648811029858E+00 a       214     0     9     1    22
  8.1619794194589925E+00 a       215     0     9     1    23
 -6.2186534964477271E+00 a       216     0     9     1    24
  1.2761221706079913E+00 a       217     0    10     1     1
  5.1227704652773731E+00 a       218     0    10     1     2
  2.1699148698185677E+00 a       219     0    10     1     3
  1.1143877006928250E+01 a       220     0    10     1     4
 -2.4812958319533456E+00 a       221     0    10     1     5
 -5.4870094180565685E+00 a       222     0    10     1     6
  1.0093988809321626E+01 a       223     0    10     1     7
  3.0148853457627833E+00 a       224     0    10     1     8
  1.0430281069047003E+00 a       225     0    10     1     9
 -4.1862739524303505E+00 a       226     0    10     1    10
  1.0299321494318002E+01 a       227     0    10     1    11
 -9.5524186195192484E-01 a       228     0    10     1    12
  1.3709235629276395E-01 a       229     0    10     1    13
  3.5906608768507897E-01 a       230     0    10     1    14
 -7.4566483946732189E+00 a       231     0    10     1    15
 -5.0172542943006704E+00 a       232     0    10     1    16
  6.4069374278267102E+00 a       233     0    10     1    17
  8.4466990420551884E+00 a       234     0    10     1    18
  6.1116485435317820E+00 a       235     0    10     1    19
 -5.0298739827477124E-01 a       236     0    10     1    20
 -4.5173617246045055E+00 a       237     0    10     1    21
  2.0373453364090617E+00 a       238     0    10     1    22
 -5.1992975178179419E+00 a       239     0    10     1    23
  3.3356473860606699E+00 a       240     0    10     1    24
 -4.9880327833412563E+00 a       241     0    11     1     1
 -7.6971617807081849E-01 a       242     0    11     1     2
  5.4917267211690912E-01 a       243     0    11     1     3
 -2.4733592333337251E+00 a       244     0    11     1     4
 -8.5944276004623466E-01 a       245     0    11     1     5
  2.4184132075772231E+00 a       246     0    11     1     6
 -1.2036017427623189E+00 a       247     0    11     1     7
  4.4467826690052945E+00 a       248     0    11     1     8
 -2.7629289508266364E-01 a       249     0    11     1     9
 -2.8797089522346360E+00 a       250     0    11     1    10
 -1.6256627461318949E+00 a       251     0    11     1    11
 -4.5936210864223170E+00 a       252     0    11     1    12
 -1.8374896844172603E+00 a       253     0    11     1    13
 -2.3930818424425948E+00 a       254     0    11     1    14
 -6.7764100383713499E-01 a       255     0    11     1    15
  2.2514934063736245E+00 a       256     0    11     1    16
  1.0933612681187754E+00 a       257     0    11     1    17
  1.1440691021900975E+00 a       258     0    11     1    18
  2.4461912558083214E+00 a       259     0    11     1    19
 -1.7963139264408157E+00 a       260     0    11     1    20
 -1.6685558196392847E-01 a       261     0    11     1    21
  3.5321057757198764E+00 a       262     0    11     1    22
 -1.4571949739629693E+00 a       263     0    11     1    23
  3.3631535429651969E+00 a       264     0    11     1    24
 -1.0678781111506461E+00 a       265     0    12     1     1
 -3.3523155097914490E+00 a       266     0    12     1     2
 -5.4916643060708887E+00 a       267     0    12     1     3
 -3.8738994182486324E+00 a       268     0    12     1     4
 -4.8555321168603741E-02 a       269     0    12     1     5
  1.7741392600574354E+01 a       270     0    12     1     6
 -5.9051823573832829E+00 a       271     0    12     1     7
  2.7214017967104360E+00 a       272     0    12     1     8
 -2.6302147788997434E+00 a       273     0    12     1     9
  6.6783031919926561E+00 a       274     0    12     1    10
 -7.4115040303854380E+00 a       275     0    12     1    11
  2.3960574838361675E+00 a       276     0    12     1    12
 -2.0158402781906188E+00 a       277     0    12     1    13
  1.0642027778206796E-01 a       278     0    12     1    14
  3.0836724845804566E+00 a       279     0    12     1    15
  7.0752846825292606E+00 a       280     0    12     1    16
 -1.7997927370438458E+00 a       281     0    12     1    17
  1.2742994846154230E+00 a       282     0    12     1    18
 -4.6526499872349719E-01 a       283     0    12     1    19
  2.1783878906371232E-01 a       284     0    12     1    20
  8.4897206660688240E-01 a       285     0    12     1    21
 -8.9562936367226187E-01 a       286     0    12     1    22
  4.5189318335033422E+00 a       287     0    12     1    23
 -2.7496074346766419E+00 a       288     0    12     1    24
  4.2489538333646397E+00 a       289     0    13     1     1
 -3.0956120408321319E+00 a       290     0    13     1     2
 -5.1764263944616333E+00 a       291     0    13     1     3
 -4.8699648915066795E+00 a       292     0    13     1     4
 -1.2157964833270407E+01 a       293     0    13     1     5
  8.2324275576546118E+00 a       294     0    13     1     6
 -1.3749364205068249E+00 a       295     0    13     1     7
 -8.3094555299263639E+00 a       296     0    13     1     8
  1.4853751739081313E+00 a       297     0    13     1     9
 -7.7720801152023080E+00 a       298     0    13     1    10
  1.0794812423320856E+00 a       299     0    13     1    11
 -5.0629873751089871E-01 a       300     0    13     1    12
  3.6833568987201213E+00 a       301     0    13     1    13
  1.1954766392797538E+01 a       302     0    13     1    14
 -1.1904025123700817E+01 a       303     0    13     1    15
  8.2476885228896180E+00 a       304     0    13     1    16
 -1.0876594389741709E+00 a       305     0    13     1    17
  7.1780392032845279E+00 a       306     0    13     1    18
 -5.8463365021695113E+00 a       307     0    13     1    19
 -7.4582815374013984E+00 a       308     0    13     1    20
 -3.1543204797509774E+00 a       309     0    13     1    21
 -6.4752562132561176E+00 a       310     0    13     1    22
 -5.7264644605803139E-01 a       311     0    13     1    23
 -1.1190216292836739E+00 a       312     0    13     1    24
 -6.5582083728884166E-01 a       313     0    14     1     1
 -4.7556480478977319E+00 a       314     0    14     1     2
 -2.7257602567339214E+00 a       315     0    14     1     3
  1.8159862467283203E+00 a       316     0    14     1     4
  4.9130994219262583E+00 a       317     0    14     1     5
  2.4940958530686301E+00 a       318     0    14     1     6
  8.2488541446353603E-01 a       319     0    14     1     7
 -6.0850292468539182E+00 a       320     0    14     1     8
  3.2376225469375473E+00 a       321     0    14     1     9
  2.5767037131943678E+00 a       322     0    14     1    10
 -1.0690878475016678E+01 a       323     0    14     1    11
 -4.7009945209443282E+00 a       324     0    14     1    12
  1.2146433516144746E+00 a       325     0    14     1    13
 -1.1735059498086169E+01 a       326     0    14     1    14
 -2.6732900152187051E+00 a       327     0    14     1    15
  5.0948742307579664E+00 a       328     0    14     1    16
 -6.0575504745110917E+00 a       329     0    14     1    17
  5.4078823696318079E-01 a       330     0    14     1    18
 -1.6598183871904926E+00 a       331     0    14     1    19
 -5.6385950256904893E+00 a       332     0    14     1    20
 -7.5564036525684850E+00 a       333     0    14     1    21
 -5.8543839863177292E+00 a       334     0    14     1    22
 -1.8355504118525743E+00 a       335     0    14     1    23
  8.6889870408799190E+00 a       336     0    14     1    24
  7.2677718353345955E-01 a       337     0    15     1     1
 -8.5759245976833380E+00 a       338     0    15     1     2
 -9.8289874992871837E+00 a       339     0    15     1     3
 -1.5629550945073718E+00 a       340     0    15     1     4
 -1.5587724806230922E+01 a       341     0    15     1     5
  5.1639309484280265E+00 a       342     0    15     1     6
 -5.9946633172101196E+00 a       343     0    15     1     7
 -3.9062136791952065E+00 a       344     0    15     1     8
  4.1147218789441613E+00 a       345     0    15     1     9
 -6.4799361895587182E-01 a       346     0    15     1    10
  3.3448390991857289E+00 a       347     0    15     1    11
  2.7712937647547444E+00 a       348     0    15     1    12
  6.0036323786686090E+00 a       349     0    15     1    13
 -5.2909448869053755E-01 a       350     0    15     1    14
  6.1990771989414455E+00 a       351     0    15     1    15
  2.1423422406122561E+00 a       352     0    15     1    16
  2.2527841627662926E+00 a       353     0    15     1    17
  2.6136725490676760E+00 a       354     0    15     1    18
  9.0626825206736896E+00 a       355     0    15     1    19
  1.6097094179116066E+01 a       356     0    15     1    20
  4.0930559453387900E+00 a       357     0    15     1    21
 -8.3424893109771148E+00 a       358     0    15     1    22
 -6.5639790014098569E+00 a       359     0    15     1    23
  5.5244554834456432E+00 a       360     0    15     1    24
 -3.6370772768260187E+00 a       361     0    16     1     1
 -9.6579158554684721E+00 a       362     0    16     1     2
 -1.2162097188131872E+01 a       363     0    16     1     3
 -3.5225165659602351E+00 a       364     0    16     1     4
 -1.0688809632452395E+01 a       365     0    16     1     5
 -6.5999292289064631E+00 a       366     0    16     1     6
 -2.2925971058081283E+00 a       367     0    16     1     7
 -1.4462642657224816E+00 a       368     0    16     1     8
  1.3085912414183634E+00 a       369     0    16     1     9
  2.1358139560405918E+00 a       370     0    16     1    10
  5.3183153877824472E+00 a       371     0    16     1    11
  5.1330337924981801E+00 a       372     0    16     1    12
 -4.5224745047113846E+00 a       373     0    16     1    13
 -4.6743997699853148E+00 a       374     0    16     1    14
 -1.1089318396894472E+01 a       375     0    16     1    15
 -7.5823171181793203E-01 a       376     0    16     1    16
  1.9832567643422094E-01 a       377     0    16     1    17
  1.3178722501262348E+00 a       378     0    16     1    18
  1.5487174410428736E+01 a       379     0    16     1    19
 -1.1408941412652339E+01 a       380     0    16     1    20
 -5.8786655939131416E+00 a       381     0    16     1    21
 -4.0125387356221927E+00 a       382     0    16     1    22
 -1.9212585694751250E-01 a       383     0    16     1    23
 -8.7667279249849794E-01 a       384     0    16     1    24
  8.3083487434640055E+00 a       385     0    17     1     1
 -6.8846291625368981E+00 a       386     0    17     1     2
 -1.1905375275572803E+00 a       387     0    17     1     3
 -1.4737267712264165E+01 a       388     0    17     1     4
  5.9760735985644176E-01 a       389     0    17     1     5
  3.4473262296343186E+00 a       390     0    17     1     6
 -5.7677467752293712E+00 a       391     0    17     1     7
 -6.4505316334988141E+00 a       392     0    17     1     8
  8.1408947489194716E+00 a       393     0    17     1     9
  1.5359914225679134E+00 a       394     0    17     1    10
 -2.6879106148841920E+00 a       395     0    17     1    11
  1.7542175432443370E+00 a       396     0    17     1    12
  8.1115413147433095E+00 a       397     0    17     1    13
 -3.2539345986057446E+00 a       398     0    17     1    14
 -6.9290652093483915E+00 a       399     0    17     1    15
  8.3908830265554819E+00 a       400     0    17     1    16
  1.1888280922438044E+00 a       401     0    17     1    17
 -1.1195107920722286E+01 a       402     0    17     1    18
  7.7598917346756491E-01 a       403     0    17     1    19
  3.2882028094189053E+00 a       404     0    17     1    20
 -7.1768315499450761E+00 a       405     0    17     1    21
  9.4735537165210756E-02 a       406     0    17     1    22
 -8.3937203968379563E+00 a       407     0    17     1    23
 -5.1907360222975969E+00 a       408     0    17     1    24
 -9.4950978307947942E+00 a       409     0    18     1     1
 -1.5327605987126909E+00 a       410     0    18     1     2
  8.5636265250112178E+00 a       411     0    18     1     3
 -7.5260418703666598E-01 a       412     0    18     1     4
  1.8942722272570449E+00 a       413     0    18     1     5
  1.2307435718173069E+01 a       414     0    18     1     6
  8.2632412406430973E+00 a       415     0    18     1     7
  1.0443588053346884E+01 a       416     0    18     1     8
  8.0808369600460193E+00 a       417     0    18     1     9
 -1.4256543123096218E+01 a       418     0    18     1    10
 -1.0313972725092297E+00 a       419     0    18     1    11
 -1.5154748452937208E+00 a       420     0    18     1    12
  1.6521065625165978E+01 a       421     0    18     1    13
 -6.3815837764110475E+00 a       422     0    18     1    14
 -1.0752786583880011E+01 a       423     0    18     1    15
 -5.4741605540446239E+00 a       424     0    18     1    16
  5.5902375597377851E+00 a       425     0    18     1    17
 -1.6430279544208659E+01 a       426     0    18     1    18
 -3.4253190308648254E+00 a       427     0    18     1    19
 -1.2059493115999217E+01 a       428     0    18     1    20
 -2.1519206471295109E+00 a       429     0    18     1    21
  8.4024707441988014E+00 a       430     0    18     1    22
 -9.2959124566140389E-02 a       431     0    18     1    23
  2.4300098024336614E+00 a       432     0    18     1    24
  4.6723274880043881E+00 a       433     0    19     1     1
  3.5075306475630046E+00 a       434     0    19     1     2
 -4.3427301998860441E+00 a       435     0    19     1     3
 -4.9663275421155459E+00 a       436     0    19     1     4
  9.6774261026081343E-01 a       437     0    19     1     5
 -1.5833490852606884E+00 a       438     0    19     1     6
  6.5124810447147949E-02 a       439     0    19     1     7
 -1.5954453119093102E+00 a       440     0    19     1     8
  2.0691376650851616E+00 a       441     0    19     1     9
 -8.9548405160167057E+00 a       442     0    19     1    10
  3.5264038539055313E+00 a       443     0    19     1    11
  1.5552804110556435E+00 a       444     0    19     1    12
 -3.5986668453775605E+00 a       445     0    19     1    13
  3.5927798223944261E+00 a       446     0    19     1    14
  3.5650762794124886E+00 a       447     0    19     1    15
  4.6028069165217245E+00 a       448     0    19     1    16
  2.8541438257604042E+00 a       449     0    19     1    17
  7.4819661960520509E+00 a       450     0    19     1    18
 -2.4016176370116177E-01 a       451     0    19     1    19
  9.3030254115214195E-01 a       452     0    19     1    20
  6.3714439496938802E+00 a       453     0    19     1    21
 -1.2056313206759059E+01 a       454     0    19     1    22
  2.5897679689403699E+00 a       455     0    19     1    23
  8.2081453263273723E+00 a       456     0    19     1    24
 -7.2426151802041181E+00 a       457     0    20     1     1
 -5.5213161657875842E+00 a       458     0    20     1     2
  7.0367161706333925E-01 a       459     0    20     1     3
  9.7377566939343421E+00 a       460     0    20     1     4
  1.3725329324553666E+00 a       461     0    20     1     5
 -2.5199563058358683E+00 a       462     0    20     1     6
  6.5505971451850646E+00 a       463     0    20     1     7
  5.1528418661765485E-01 a       464     0    20     1     8
 -1.2356863835984759E+00 a       465     0    20     1     9
  2.0609347638557569E+00 a       466     0    20     1    10
  5.4499911573599196E+00 a       467     0    20     1    11
  2.0643828570826410E+00 a       468     0    20     1    12
  1.4928659401567093E+00 a       469     0    20     1    13
  1.8434928641227808E+00 a       470     0    20     1    14
 -5.8589522794612892E+00 a       471     0    20     1    15
 -1.2342951678819013E+01 a       472     0    20     1    16
  1.4253520694424349E+00 a       473     0    20     1    17
  2.6524668574708956E+00 a       474     0    20     1    18
 -5.7435645040312835E+00 a       475     0    20     1    19
  3.1318975323314544E+00 a       476     0    20     1    20
  3.9785075405083581E+00 a       477     0    20     1    21
 -1.2679709931763865E+01 a       478     0    20     1    22
 -4.7631961435011823E+00 a       479     0    20     1    23
  6.8453750874997006E+00 a       480     0    20     1    24
  9.0307928126834547E-01 a       481     0    21     1     1
  4.2866771065460494E+00 a       482     0    21     1     2
 -2.9093913557412820E+00 a       483     0    21     1     3
 -4.3317509156598116E-01 a       484     0    21     1     4
  4.4212374907688599E+00 a       485     0    21     1     5
  7.9104997052954138E+00 a       486     0    21     1     6
  1.5272524722665370E+01 a       487     0    21     1     7
 -6.5649358411537750E-01 a       488     0    21     1     8
 -2.2191080957568414E+00 a       489     0    21     1     9
  4.0185619791187008E+00 a       490     0    21     1    10
  6.6795370495047388E+00 a       491     0    21     1    11
 -3.3835197640175423E+00 a       492     0    21     1    12
 -1.2606148987439326E+01 a       493     0    21     1    13
 -5.4419088899996488E+00 a       494     0    21     1    14
 -3.3470901568948737E+00 a       495     0    21     1    15
  6.0075120714317727E+00 a       496     0    21     1    16
 -2.6535483368734440E+00 a       497     0    21     1    17
  1.0643129296915614E+01 a       498     0    21     1    18
 -7.8203367588332711E+00 a       499     0    21     1    19
 -8.0884746288379628E+00 a       500     0    21     1    20
 -4.1797078471859059E+00 a       501     0    21     1    21
  7.7170369069399785E+00 a       502     0    21     1    22
 -7.4447191345030577E+00 a       503     0    21     1    23
  1.8712339231123302E+01 a       504     0    21     1    24
 -1.9270585094249619E+00 a       505     0    22     1     1
  5.8225947706052867E+00 a       506     0    22     1     2
 -9.0117783615345033E+00 a       507     0    22     1     3
  9.1412096498027395E+00 a       508     0    22     1     4
  4.8170998913878238E+00 a       509     0    22     1     5
  1.5229751661694296E+01 a       510     0    22     1     6
  6.7172300845746387E+00 a       511     0    22     1     7
 -1.0422244314654407E+01 a       512     0    22     1     8
 -1.8364888613429484E+00 a       513     0    22     1     9
  3.2228699620813046E+00 a       514     0    22     1    10
 -4.3066255633895016E+00 a       515     0    22     1    11
  4.6582569243688070E+00 a       516     0    22     1    12
 -3.5628843188198549E+00 a       517     0    22     1    13
  5.6152826453130089E+00 a       518     0    22     1    14
 -3.5880177975375429E+00 a       519     0    22     1    15
 -8.9756564245252246E+00 a       520     0    22     1    16
 -4.2692623136430408E+00 a       521     0    22     1    17
  4.7217732368861771E+00 a       522     0    22     1    18
  7.5675971896927896E+00 a       523     0    22     1    19
  7.7640653338920966E+00 a       524     0    22     1    20
 -1.7154701419294606E-04 a       525     0    22     1    21
 -3.5295087363727831E+00 a       526     0    22     1    22
  1.0464325790963997E+01 a       527     0    22     1    23
  9.2241444327185853E+00 a       528     0    22     1    24
 -4.6079365580739386E+00 a       529     0    23     1     1
  1.0955406390978199E+01 a       530     0    23     1     2
  1.0505580571229078E+01 a       531     0    23     1     3
  1.2439540307011004E+01 a       532     0    23     1     4
  8.8610539137066233E+00 a       533     0    23     1     5
  8.8674294616288041E+00 a       534     0    23     1     6
  1.0469228311353737E+01 a       535     0    23     1     7
  5.2144505638346859E+00 a       536     0    23     1     8
 -5.1093323125110199E+00 a       537     0    23     1     9
  1.2819782353083745E+01 a       538     0    23     1    10
 -3.7868657643873189E+00 a       539     0    23     1    11
 -9.1514983980396227E+00 a       540     0    23     1    12
  4.6596176966929574E+00 a       541     0    23     1    13
 -6.6325823656637564E+00 a       542     0    23     1    14
  2.3949968102796260E+00 a       543     0    23     1    15
 -6.4392663570199937E-01 a       544     0    23     1    16
 -6.0522406949319763E+00 a       545     0    23     1    17
 -5.1509580167526527E+00 a       546     0    23     1    18
 -1.9214895431076984E-01 a       547     0    23     1    19
  1.9378096367355975E+00 a       548     0    23     1    20
  1.1463774027915263E+00 a       549     0    23     1    21
 -6.8291833995116580E+00 a       550     0    23     1    22
  3.5339487366807107E+00 a       551     0    23     1    23
 -4.3372213561691870E+00 a       552     0    23     1    24
  5.6374536481367494E+00 a       553     0    24     1     1
 -4.6969644238124246E+00 a       554     0    24     1     2
 -4.2547440411355018E+00 a       555     0    24     1     3
  3.0759493550325194E+00 a       556     0    24     1     4
  3.2606156482170032E+00 a       557     0    24     1     5
 -5.2071368792844055E+00 a       558     0    24     1     6
  9.9730866932954954E-01 a       559     0    24     1     7
 -1.5447338116508634E+01 a       560     0    24     1     8
 -5.8880468015865418E-02 a       561     0    24     1     9
  1.0178874760924399E+01 a       562     0    24     1    10
 -1.4710124315298030E+01 a       563     0    24     1    11
 -9.2149202889801920E+00 a       564     0    24     1    12
  9.1441180994222371E-01 a       565     0    24     1    13
  5.9236285633559911E+00 a       566     0    24     1    14
  1.1198708042040773E+01 a       567     0    24     1    15
  3.3113870907914214E+00 a       568     0    24     1    16
  4.4695716732750773E-01 a       569     0    24     1    17
 -6.9716189608182200E+00 a       570     0    24     1    18
  1.2826851579791316E+00 a       571     0    24     1    19
  3.9631310502028505E-02 a       572     0    24     1    20
  7.5336526554633023E+00 a       573     0    24     1    21
  4.4989394533750424E+00 a       574     0    24     1    22
 -1.0969644553376408E+00 a       575     0    24     1    23
 -8.0198655627007867E+00 a       576     0    24     1    24
 -2.1555114981670922E+00 a       577     0    25     1     1
  5.2497639926251827E+00 a       578     0    25     1     2
  4.1396945611385458E+00 a       579     0    25     1     3
  6.4669513533938092E+00 a       580     0    25     1     4
  6.8527067984010985E+00 a       581     0    25     1     5
  5.5475204671434577E+00 a       582     0    25     1     6
 -7.1095562402231094E+00 a       583     0    25     1     7
 -6.1173687540433823E+00 a       584     0    25     1     8
 -4.3535216489507356E+00 a       585     0    25     1     9
  4.9368786456920741E+00 a       586     0    25     1    10
  4.4012679672778328E+00 a       587     0    25     1    11
 -2.5173401749237585E+00 a       588     0    25     1    12
 -8.2463128260034644E+00 a       589     0    25     1    13
 -6.7198614852333938E+00 a       590     0    25     1    14
  1.5430537671920208E+00 a       591     0    25     1    15
 -7.8931308815329393E-01 a       592     0    25     1    16
  2.0976799405039039E+00 a       593     0    25     1    17
 -4.6217966509174051E+00 a       594     0    25     1    18
  4.6046788067107078E+00 a       595     0    25     1    19
  9.6439420028404150E+00 a       596     0    25     1    20
  5.2447248514970735E+00 a       597     0    25     1    21
  2.8849729803109209E-01 a       598     0    25     1    22
  1.1038532275344064E+01 a       599     0    25     1    23
 -1.8684569015781589E+00 a       600     0    25     1    24
 -5.6653942024487716E+00 a       601     0    26     1     1
  4.6802811957663719E+00 a       602     0    26     1     2
  2.0879379425523386E+00 a       603     0    26     1     3
 -3.8388340639895296E-01 a       604     0    26     1     4
 -4.2618105659489952E-01 a       605     0    26     1     5
 -2.7391822591884787E+00 a       606     0    26     1     6
 -5.4577296807239737E+00 a       607     0    26     1     7
  7.9331863226997585E+00 a       608     0    26     1     8
 -7.2341822899865393E+00 a       609     0    26     1     9
  9.1240487097512357E+00 a       610     0    26     1    10
  6.8872321585053631E-01 a       611     0    26     1    11
 -3.3780850210348123E-01 a       612     0    26     1    12
 -4.4923048401504557E+00 a       613     0    26     1    13
  5.2582731540499363E+00 a       614     0    26     1    14
 -3.2514508933762225E+00 a       615     0    26     1    15
 -3.1264725739285506E+00 a       616     0    26     1    16
 -3.8728503314318430E+00 a       617     0    26     1    17
 -4.4742983864335182E+00 a       618     0    26     1    18
  3.5925167111766463E+00 a       619     0    26     1    19
  6.0714135538128877E+00 a       620     0    26     1    20
  1.3239776857928165E+00 a       621     0    26     1    21
  6.7749242831706846E+00 a       622     0    26     1    22
  1.3637686033344460E+01 a       623     0    26     1    23
 -2.5160296627824983E+00 a       624     0    26     1    24
 -6.3914011055230286E+00 a       625     0    27     1     1
  1.1022076914589189E+00 a       626     0    27     1     2
 -3.1970495698282977E+00 a       627     0    27     1     3
  2.7891658036617777E+00 a       628     0    27     1     4
 -1.9740199632622608E+00 a       629     0    27     1     5
  1.2266566317695615E+00 a       630     0    27     1     6
  1.1066283064815520E+01 a       631     0    27     1     7
 -1.5726671205932130E+00 a       632     0    27     1     8
  7.4121078263763938E+00 a       633     0    27     1     9
  1.6617135871017050E+00 a       634     0    27     1    10
 -6.1482443990393492E+00 a       635     0    27     1    11
  1.7586054364205561E-01 a       636     0    27     1    12
 -5.4764114360874370E+00 a       637     0    27     1    13
  2.5681822624007786E+00 a       638     0    27     1    14
  3.5121411787779659E+00 a       639     0    27     1    15
 -6.1410628792071487E+00 a       640     0    27     1    16
 -5.9695489245128011E+00 a       641     0    27     1    17
  7.0235499968959045E+00 a       642     0    27     1    18
 -1.0862183931731565E+01 a       643     0    27     1    19
 -3.2595574964343075E+00 a       644     0    27     1    20
 -1.4212646943864859E+00 a       645     0    27     1    21
  7.7224552664746309E+00 a       646     0    27     1    22
  3.3884268286145014E+00 a       647     0    27     1    23
 -1.2083723398367608E+01 a       648     0    27     1    24
  3.3839553963328424E+00 a       649     0    28     1     1
  5.7227334548883864E+00 a       650     0    28     1     2
  6.1548833181991034E+00 a       651     0    28     1     3
  6.6779998994545897E+00 a       652     0    28     1     4
  5.7872577201063615E+00 a       653     0    28     1     5
  1.5678555292925389E+00 a       654     0    28     1     6
 -5.3714735861559380E+00 a       655     0    28     1     7
 -3.3638919243347893E+00 a       656     0    28     1     8
  5.8422727936671821E+00 a       657     0    28     1     9
  4.6604910433401230E+00 a       658     0    28     1    10
  6.2585751819847237E+00 a       659     0    28     1    11
 -7.2727966019286976E+00 a       660     0    28     1    12
  6.4265843969560621E-01 a       661     0    28     1    13
 -8.8115356748225349E+00 a       662     0    28     1    14
  1.1528140275282976E+00 a       663     0    28     1    15
 -1.4225848298777139E+01 a       664     0    28     1    16
 -9.4024100639588504E-01 a       665     0    28     1    17
  6.2695662751189474E+00 a       666     0    28     1    18
  2.5836690530882791E+00 a       667     0    28     1    19
  1.4675787628977661E+00 a       668     0    28     1    20
 -7.9046130264455072E-01 a       669     0    28     1    21
  7.0874805138342252E+00 a       670     0    28     1    22
 -2.8357352623463035E+00 a       671     0    28     1    23
  4.3822670467011644E+00 a       672     0    28     1    24
 -6.5655714102793512E+00 a       673     0    29     1     1
  2.0263410517885383E+00 a       674     0    29     1     2
  5.7142926977566368E+00 a       675     0    29     1     3
  2.2276666164896635E+00 a       676     0    29     1     4
 -3.0699231720767950E-01 a       677     0    29     1     5
 -6.5053292394948359E-01 a       678     0    29     1     6
 -1.2445710092137640E+01 a       679     0    29     1     7
 -4.7516028358333191E+00 a       680     0    29     1     8
 -4.5228223267763124E+00 a       681     0    29     1     9
  1.2780314195982807E+01 a       682     0    29     1    10
 -3.3403369890286005E+00 a       683     0    29     1    11
 -7.9268311074457234E+00 a       684     0    29     1    12
 -2.8074049812304680E+00 a       685     0    29     1    13
  1.8745842690247214E+00 a       686     0    29     1    14
 -1.3029271285989874E+00 a       687     0    29     1    15
  1.8618644125429107E+00 a       688     0    29     1    16
  6.9544222590951446E+00 a       689     0    29     1    17
 -4.2921070370291412E+00 a       690     0    29     1    18
  1.4346276963133993E+00 a       691     0    29     1    19
 -4.9456295799942502E+00 a       692     0    29     1    20
 -7.9505103812645173E-01 a       693     0    29     1    21
  4.6831543509720026E+00 a       694     0    29     1    22
  1.1740200416463797E+01 a       695     0    29     1    23
 -9.1431389630319142E+00 a       696     0    29     1    24
 -6.3422825273253580E-01 a       697     0    30     1     1
 -3.4259991795540712E+00 a       698     0    30     1     2
 -1.9876846014652303E+00 a       699     0    30     1     3
 -5.8625720098690186E+00 a       700     0    30     1     4
 -5.9379282989498163E+00 a       701     0    30     1     5
 -6.4971917260731846E+00 a       702     0    30     1     6
 -1.3232462466831128E+01 a       703     0    30     1     7
 -1.6371978627812698E+00 a       704     0    30     1     8
 -5.4073207540098647E+00 a       705     0    30     1     9
  5.8834141585038591E+00 a       706     0    30     1    10
 -3.6660323881784094E+00 a       707     0    30     1    11
 -2.7703127531893661E+00 a       708     0    30     1    12
 -4.9854273828336932E+00 a       709     0    30     1    13
 -4.0106231819345188E+00 a       710     0    30     1    14
  6.2196890133973115E-01 a       711     0    30     1    15
  1.9385509522380961E+00 a       712     0    30     1    16
 -4.8247316800289282E+00 a       713     0    30     1    17
 -1.1314495266158313E+00 a       714     0    30     1    18
  4.4314057837663183E+00 a       715     0    30     1    19
  6.2791834683160879E+00 a       716     0    30     1    20
  1.9532814823587741E+00 a       717     0    30     1    21
  1.5281669673156710E+00 a       718     0    30     1    22
  1.2439969170945206E+00 a       719     0    30     1    23
  4.6830093818385938E+00 a       720     0    30     1    24
 -2.4949582546043589E+00 a       721     0    31     1     1
 -5.3196019202136313E-01 a       722     0    31     1     2
  1.0996473521874395E+00 a       723     0    31     1     3
  3.9594776909341274E+00 a       724     0    31     1     4
  1.2549850734644052E+00 a       725     0    31     1     5
  5.4140085032670617E+00 a       726     0    31     1     6
  2.2410870399717981E+00 a       727     0    31     1     7
  1.0641381509553896E+00 a       728     0    31     1     8
 -1.6657861118715518E+00 a       729     0    31     1     9
  2.1717267802008298E+00 a       730     0    31     1    10
 -2.7737954534978186E+00 a       731     0    31     1    11
 -2.0715614926849915E+00 a       732     0    31     1    12
  4.9291474942365580E-03 a       733     0    31     1    13
  4.2299209420231181E+00 a       734     0    31     1    14
 -2.0689740739593256E+00 a       735     0    31     1    15
  6.7121820182709191E-01 a       736     0    31     1    16
 -4.9569119114958546E+00 a       737     0    31     1    17
 -1.4638890664600384E+00 a       738     0    31     1    18
 -1.1118767646466651E+01 a       739     0    31     1    19
  2.3384098060732188E+00 a       740     0    31     1    20
 -4.5019527796916350E+00 a       741     0    31     1    21
  4.8599350872972922E+00 a       742     0    31     1    22
 -2.3692824152782856E+00 a       743     0    31     1    23
 -1.4575790905573514E+00 a       744     0    31     1    24
  5.0342165714831824E+00 a       745     0    32     1     1
  1.2226905763402656E+00 a       746     0    32     1     2
  6.8528103834282872E-01 a       747     0    32     1     3
  1.0028776141857625E+00 a       748     0    32     1     4
 -3.2239005289427061E+00 a       749     0    32     1     5
 -3.9155087756416980E+00 a       750     0    32     1     6
 -3.0094176738544705E+00 a       751     0    32     1     7
  1.0517335644785353E+00 a       752     0    32     1     8
 -3.2226768851347019E+00 a       753     0    32     1     9
 -1.2438440150835408E+00 a       754     0    32     1    10
  2.6481825688963212E-01 a       755     0    32     1    11
 -1.5175510941749446E+00 a       756     0    32     1    12
  4.2392097384021401E+00 a       757     0    32     1    13
 -1.4059834188724034E+00 a       758     0    32     1    14
  6.8876348559648566E+00 a       759     0    32     1    15
  1.3156782990322391E+00 a       760     0    32     1    16
  3.4810217115952371E+00 a       761     0    32     1    17
  7.7402015085242208E+00 a       762     0    32     1    18
  5.8262105307137990E-01 a       763     0    32     1    19
 -4.0559087468558914E+00 a       764     0    32     1    20
 -9.9645265383934298E-02 a       765     0    32     1    21
 -6.9547827708754428E-01 a       766     0    32     1    22
  3.4084932787276712E+00 a       767     0    32     1    23
 -4.3444215848416521E+00 a       768     0    32     1    24
  5.9889409819126600E+00 a       769     0    33     1     1
  1.0090704223503184E+00 a       770     0    33     1     2
 -1.5877767631241460E+00 a       771     0    33     1     3
  2.6960347325271083E+00 a       772     0    33     1     4
 -3.6467920178644180E+00 a       773     0    33     1     5
 -9.5658979212103770E+00 a       774     0    33     1     6
 -1.0816570986142528E+01 a       775     0    33     1     7
 -3.6519529313129970E+00 a       776     0    33     1     8
  1.9256345868879210E+00 a       777     0    33     1     9
  5.4893351724352808E+00 a       778     0    33     1    10
 -1.8405531464090605E+00 a       779     0    33     1    11
  4.6223004695494287E+00 a       780     0    33     1    12
 -4.9820037276298947E+00 a       781     0    33     1    13
  1.8861653641959575E+00 a       782     0    33     1    14
  7.5711560023488298E+00 a       783     0    33     1    15
 -2.1870302435608489E+00 a       784     0    33     1    16
 -2.9600861823213456E+00 a       785     0    33     1    17
  3.7180361007914904E+00 a       786     0    33     1    18
  4.0370388794980645E+00 a       787     0    33     1    19
  6.8226073962923266E+00 a       788     0    33     1    20
  3.4576590129785463E+00 a       789     0    33     1    21
 -4.6879382824896130E+00 a       790     0    33     1    22
  6.3006825770722479E+00 a       791     0    33     1    23
 -9.6119273331163004E+00 a       792     0    33     1    24
 -6.2302882637595038E+00 a       793     0    34     1     1
 -4.6896239867492007E+00 a       794     0    34     1     2
  1.3158625046175181E+00 a       795     0    34     1     3
  1.0002648364300601E+00 a       796     0    34     1     4
 -4.2217428573947666E+00 a       797     0    34     1     5
 -6.8858230440910093E+00 a       798     0    34     1     6
 -1.1966583708709204E+00 a       799     0    34     1     7
  7.2107121604793258E+00 a       800     0    34     1     8
 -2.3487963355348391E+00 a       801     0    34     1     9
  4.4016283662416411E+00 a       802     0    34     1    10
 -1.4783787954053951E+00 a       803     0    34     1    11
 -4.2675766306486973E-01 a       804     0    34     1    12
 -4.6153796986677955E+00 a       805     0    34     1    13
 -1.2082848921063432E+01 a       806     0    34     1    14
  1.2350611584274223E+00 a       807     0    34     1    15
 -2.1492526880190237E+00 a       808     0    34     1    16
  2.1971495788256750E+00 a       809     0    34     1    17
 -5.3658078143589305E-01 a       810     0    34     1    18
  2.9204644639699477E+00 a       811     0    34     1    19
 -1.6841084149460259E+00 a       812     0    34     1    20
 -2.0728980931555547E+00 a       813     0    34     1    21
 -2.9614929088037290E+00 a       814     0    34     1    22
 -2.5886116562548183E+00 a       815     0    34     1    23
 -8.2608772969408690E+00 a       816     0    34     1    24
 -4.4811502755300241E+00 a       817     0    35     1     1
 -1.6043675481933390E+00 a       818     0    35     1     2
 -2.8630409086756257E+00 a       819     0    35     1     3
  5.4673033930714166E+00 a       820     0    35     1     4
 -1.0243561543832591E+00 a       821     0    35     1     5
 -6.8300197617381730E+00 a       822     0    35     1     6
 -5.7491748260337152E+00 a       823     0    35     1     7
  4.2091550775467450E+00 a       824     0    35     1     8
  1.8917702294899765E+00 a       825     0    35     1     9
 -1.2292029592572917E-01 a       826     0    35     1    10
  7.4264405642347056E+00 a       827     0    35     1    11
  6.9667474192059275E-01 a       828     0    35     1    12
 -9.1514820415946225E+00 a       829     0    35     1    13
  4.8488673728862857E+00 a       830     0    35     1    14
  1.5839272517835232E+00 a       831     0    35     1    15
 -1.2645932720895061E+01 a       832     0    35     1    16
  2.5468195099660682E+00 a       833     0    35     1    17
  6.9124133720530772E+00 a       834     0    35     1    18
  2.8985112999308456E+00 a       835     0    35     1    19
  1.0148587698451202E+01 a       836     0    35     1    20
 -1.9103978542309026E+00 a       837     0    35     1    21
  4.9228321480012669E+00 a       838     0    35     1    22
  1.4635162817635263E+00 a       839     0    35     1    23
  2.7679797076337302E+00 a       840     0    35     1    24
 -3.8242246788062062E-01 a       841     0    36     1     1
  4.8673105954282727E+00 a       842     0    36     1     2
  7.1851774866472393E+00 a       843     0    36     1     3
 -1.3995941820985764E+00 a       844     0    36     1     4
  3.1559017675283956E+00 a       845     0    36     1     5
 -2.1129139685044120E+00 a       846     0    36     1     6
  4.0668121295696427E+00 a       847     0    36     1     7
  7.9680200272609039E+00 a       848     0    36     1     8
  1.6675316960963713E+00 a       849     0    36     1     9
 -3.1303451775825430E-01 a       850     0    36     1    10
  5.8251946190590962E+00 a       851     0    36     1    11
 -8.1063390971099791E-01 a       852     0    36     1    12
 -1.1367003930449746E+01 a       853     0    36     1    13
 -4.0457815654574372E+00 a       854     0    36     1    14
 -2.5447549477813696E+00 a       855     0    36     1    15
 -1.4952002566393343E+00 a       856     0    36     1    16
 -7.0741094220190934E+00 a       857     0    36     1    17
  2.2696345337235408E+00 a       858     0    36     1    18
 -4.3367269503832846E+00 a       859     0    36     1    19
 -1.5131067528971325E+00 a       860     0    36     1    20
 -1.6094769393531949E-01 a       861     0    36     1    21
  2.3376928441129894E+00 a       862     0    36     1    22
  8.2155634429110080E-01 a       863     0    36     1    23
  4.0363763111411828E+00 a       864     0    36     1    24
  1.3876865957602361E-01 a       865     0    37     1     1
 -1.3228876157682683E+00 a       866     0    37     1     2
  2.1012783830394017E+00 a       867     0    37     1     3
 -1.8184950353603047E+00 a       868     0    37     1     4
  4.1639712634925292E+00 a       869     0    37     1     5
 -7.7264137690522050E+00 a       870     0    37     1     6
  5.7121619114560351E+00 a       871     0    37     1     7
  3.4048884644468593E+00 a       872     0    37     1     8
 -1.0164828777775614E+00 a       873     0    37     1     9
  8.1179384079788375E-01 a       874     0    37     1    10
 -1.9927939571132005E+00 a       875     0    37     1    11
  5.9058215493135935E-01 a       876     0    37     1    12
 -1.0975243904344725E+00 a       877     0    37     1    13
 -5.9471066365624567E+00 a       878     0    37     1    14
  3.3477282533782700E+00 a       879     0    37     1    15
  2.0878633908028608E+00 a       880     0    37     1    16
 -4.6080266905403461E-01 a       881     0    37     1    17
  1.0040084836277892E+00 a       882     0    37     1    18
  3.0086045396723460E+00 a       883     0    37     1    19
 -1.3075380562537251E+00 a       884     0    37     1    20
  6.6600796069870927E-01 a       885     0    37     1    21
  5.6127588111013376E+00 a       886     0    37     1    22
 -2.6993722159764486E+00 a       887     0    37     1    23
  1.1351365203718273E+00 a       888     0    37     1    24
  1.0123805775219848E+01 a       889     0    38     1     1
 -1.2328760650039445E+00 a       890     0    38     1     2
  1.3566030822385158E+00 a       891     0    38     1     3
 -8.8927913845317672E+00 a       892     0    38     1     4
 -4.3235886567110793E-01 a       893     0    38     1     5
 -6.4289380740504001E+00 a       894     0    38     1     6
  1.3624037409993968E+00 a       895     0    38     1     7
 -5.7580276612840864E+00 a       896     0    38     1     8
  2.7634601459052330E+00 a       897     0    38     1     9
 -2.3422665829346223E+00 a       898     0    38     1    10
 -3.4793443074745072E-02 a       899     0    38     1    11
  4.3507696337200930E+00 a       900     0    38     1    12
  1.1994003033273075E+00 a       901     0    38     1    13
  1.9464677333470948E-01 a       902     0    38     1    14
  6.5518323513760934E-01 a       903     0    38     1    15
  2.0274602430216153E+00 a       904     0    38     1    16
  2.3871538517634709E+00 a       905     0    38     1    17
  1.9836313549236781E+00 a       906     0    38     1    18
  3.0394926549257093E+00 a       907     0    38     1    19
 -3.2322821636387628E-01 a       908     0    38     1    20
  2.5020631879152826E+00 a       909     0    38     1    21
  6.1805594902853356E+00 a       910     0    38     1    22
 -5.2204443815885622E+00 a       911     0    38     1    23
 -6.1870542033825302E+00 a       912     0    38     1    24
  3.2035429773775173E+00 a       913     0    39     1     1
  5.7475076641722138E+00 a       914     0    39     1     2
  7.5166854112081456E+00 a       915     0    39     1     3
 -2.8926720257080136E+00 a       916     0    39     1     4
  5.3034556989433881E+00 a       917     0    39     1     5
 -5.8518325771318374E+00 a       918     0    39     1     6
 -3.1497744847673554E+00 a       919     0    39     1     7
  5.9322797688981597E+00 a       920     0    39     1     8
 -6.0219003086356917E+00 a       921     0    39     1     9
 -1.9640497121304104E+00 a       922     0    39     1    10
 -6.9167200904043380E+00 a       923     0    39     1    11
  5.8871530702683001E+00 a       924     0    39     1    12
  1.4306517419728944E+01 a       925     0    39     1    13
 -3.3937538167075374E+00 a       926     0    39     1    14
 -1.6907715949059778E+00 a       927     0    39     1    15
  7.2761970157684863E-01 a       928     0    39     1    16
  3.2655015627386352E+00 a       929     0    39     1    17
 -1.1739125304650479E+01 a       930     0    39     1    18
 -4.1972383250899431E-01 a       931     0    39     1    19
 -5.4920262311903292E+00 a       932     0    39     1    20
 -1.6678229437321985E+00 a       933     0    39     1    21
 -3.9857236747583462E+00 a       934     0    39     1    22
  2.3739758917697800E+00 a       935     0    39     1    23
 -1.0090270912937694E+01 a       936     0    39     1    24
  1.2076394506700470E+00 a       937     0    40     1     1
  7.0526798958487626E+00 a       938     0    40     1     2
  5.5312179088106026E+00 a       939     0    40     1     3
 -2.7012583533231149E+00 a       940     0    40     1     4
  2.0228991101525220E+00 a       941     0    40     1     5
  1.2523815078930807E+00 a       942     0    40     1     6
  8.8116471806635011E-01 a       943     0    40     1     7
  2.5457340054851190E+00 a       944     0    40     1     8
  1.0079926470448402E+00 a       945     0    40     1     9
 -1.9471272937251036E+00 a       946     0    40     1    10
 -1.8043134292878860E+00 a       947     0    40     1    11
  8.6074354868310429E-02 a       948     0    40     1    12
  1.8921061884298258E+00 a       949     0    40     1    13
 -2.2532995181677755E+00 a       950     0    40     1    14
  4.1193126497790056E+00 a       951     0    40     1    15
  3.2289432746398776E+00 a       952     0    40     1    16
  7.9185190302302368E+00 a       953     0    40     1    17
 -7.1139398419487554E-01 a       954     0    40     1    18
 -1.5514163193677890E+00 a       955     0    40     1    19
  3.9243011365535994E+00 a       956     0    40     1    20
 -3.1735936384912309E+00 a       957     0    40     1    21
  9.2406911795144531E+00 a       958     0    40     1    22
 -3.2470961079908607E+00 a       959     0    40     1    23
 -4.7874468133042747E+00 a       960     0    40     1    24
  3.2620888525519809E+00 a       961     0    41     1     1
 -2.1481965262263444E-01 a       962     0    41     1     2
  1.4556100798182918E+00 a       963     0    41     1     3
 -2.4322778705506805E+00 a       964     0    41     1     4
 -1.5557188463507113E-01 a       965     0    41     1     5
 -2.4729783726695027E+00 a       966     0    41     1     6
  1.2069474037685732E+00 a       967     0    41     1     7
 -3.5907411259404964E-01 a       968     0    41     1     8
 -4.2824658093874568E-01 a       969     0    41     1     9
 -1.7565995529364371E+00 a       970     0    41     1    10
  1.7162358217581950E+00 a       971     0    41     1    11
  1.3025530284057316E+00 a       972     0    41     1    12
  8.3853503513021954E-01 a       973     0    41     1    13
 -1.5785368398955946E-01 a       974     0    41     1    14
  3.6996273479620818E+00 a       975     0    41     1    15
  3.1876791532363340E+00 a       976     0    41     1    16
  1.4858929997406740E+00 a       977     0    41     1    17
 -3.0037437269764966E-01 a       978     0    41     1    18
  1.0115783930776805E+00 a       979     0    41     1    19
 -4.9697030342363737E+00 a       980     0    41     1    20
 -2.0455488847490249E+00 a       981     0    41     1    21
  5.8740147120159554E+00 a       982     0    41     1    22
 -4.3448172627410280E+00 a       983     0    41     1    23
 -8.3076375020459103E-01 a       984     0    41     1    24
 -2.5155734165825430E+00 a       985     0    42     1     1
  1.4954157425187875E+00 a       986     0    42     1     2
 -2.5626515192805353E+00 a       987     0    42     1     3
  2.3507219912800177E+00 a       988     0    42     1     4
 -3.0144417445741534E-01 a       989     0    42     1     5
 -1.7590053652382880E+00 a       990     0    42     1     6
 -7.0975978278197305E-01 a       991     0    42     1     7
 -1.6289199582733318E+00 a       992     0    42     1     8
 -5.8631157914600394E+00 a       993     0    42     1     9
 -3.9569662687142966E+00 a       994     0    42     1    10
  7.6260548924496838E+00 a       995     0    42     1    11
  8.5373706395931059E-01 a       996     0    42     1    12
 -4.5793099808977766E+00 a       997     0    42     1    13
  3.7916773696188297E+00 a       998     0    42     1    14
  1.2242067904005722E+00 a       999     0    42     1    15
 -6.6264815745458738E-01 a      1000     0    42     1    16
 -1.2241680742757870E+00 a      1001     0    42     1    17
  1.1030267746405046E+01 a      1002     0    42     1    18
  3.0613313191545051E+00 a      1003     0    42     1    19
  1.0647832284721030E+00 a      1004     0    42     1    20
 -4.2207281074436782E+00 a      1005     0    42     1    21
 -8.4168628371381882E+00 a      1006     0    42     1    22
  4.6758259048327568E+00 a      1007     0    42     1    23
  2.4994859019403566E+00 a      1008     0    42     1    24
  8.0252152929437308E+00 a      1009     0    43     1     1
 -2.6553015203722441E+00 a      1010     0    43     1     2
 -1.4471914171598426E+00 a      1011     0    43     1     3
 -5.5814739617598468E+00 a      1012     0    43     1     4
 -1.9609167604478712E+00 a      1013     0    43     1     5
 -3.6384822478057068E+00 a      1014     0    43     1     6
  6.0825761609951465E+00 a      1015     0    43     1     7
 -1.3640461557204582E+00 a      1016     0    43     1     8
 -4.4018458855727433E-01 a      1017     0    43     1     9
 -1.3587384474842703E+00 a      1018     0    43     1    10
 -4.0956723884789854E+00 a      1019     0    43     1    11
  4.2315755512247195E+00 a      1020     0    43     1    12
  1.0232776990676681E+01 a      1021     0    43     1    13
  6.8223925657211231E+00 a      1022     0    43     1    14
 -2.6724845511073032E+00 a      1023     0    43     1    15
  5.7260062195856207E+00 a      1024     0    43     1    16
  4.0669186227407872E+00 a      1025     0    43     1    17
 -7.3247225001818839E-01 a      1026     0    43     1    18
 -7.4088667676719213E+00 a      1027     0    43     1    19
 -1.2553650669060280E+01 a      1028     0    43     1    20
 -2.2116859826027855E+00 a      1029     0    43     1    21
  6.3667339366957798E-01 a      1030     0    43     1    22
 -7.7436389418886700E+00 a      1031     0    43     1    23
 -2.0830738908718498E+00 a      1032     0    43     1    24
  1.1733271732595890E+01 a      1033     0    44     1     1
 -3.3020216390230774E+00 a      1034     0    44     1     2
 -1.3544420659951253E+00 a      1035     0    44     1     3
 -5.6319762997085903E+00 a      1036     0    44     1     4
 -7.6016069702660145E+00 a      1037     0    44     1     5
  3.1502377214425414E+00 a      1038     0    44     1     6
  2.7228116118120820E+00 a      1039     0    44     1     7
 -1.0645993215699795E+01 a      1040     0    44     1     8
  4.9889279220852254E+00 a      1041     0    44     1     9
 -8.4736996176335051E+00 a      1042     0    44     1    10
 -5.8405008546730086E-01 a      1043     0    44     1    11
  6.4508392772232295E+00 a      1044     0    44     1    12
  1.0624929483303658E+01 a      1045     0    44     1    13
 -6.3311230322602796E+00 a      1046     0    44     1    14
  6.3892168563902372E+00 a      1047     0    44     1    15
  6.3544772739996276E+00 a      1048     0    44     1    16
  1.5812177994114323E+00 a      1049     0    44     1    17
  3.4351540586373330E+00 a      1050     0    44     1    18
 -3.6448768161397682E+00 a      1051     0    44     1    19
 -8.3780560506264674E+00 a      1052     0    44     1    20
  2.4921172745040443E+00 a      1053     0    44     1    21
 -8.2621164204890629E+00 a      1054     0    44     1    22
 -1.3954320249116041E+01 a      1055     0    44     1    23
 -2.9436650469132610E+00 a      1056     0    44     1    24
  5.0569561860340837E+00 a      1057     0    45     1     1
  3.9254344750151362E+00 a      1058     0    45     1     2
  7.1320618742171238E+00 a      1059     0    45     1     3
 -5.9262672403502767E+00 a      1060     0    45     1     4
  2.3647362085437140E+00 a      1061     0    45     1     5
  2.1366378874989818E+00 a      1062     0    45     1     6
 -9.4840079503834591E+00 a      1063     0    45     1     7
  6.2153158315173247E+00 a      1064     0    45     1     8
 -6.9506263747562516E+00 a      1065     0    45     1     9
 -3.4427823144607967E+00 a      1066     0    45     1    10
  2.5478303238743809E+00 a      1067     0    45     1    11
  2.6698586631947347E+00 a      1068     0    45     1    12
  1.1889901119792823E+01 a      1069     0    45     1    13
 -3.0904666143592436E+00 a      1070     0    45     1    14
 -1.3691814975102028E+00 a      1071     0    45     1    15
  9.4618242500694159E+00 a      1072     0    45     1    16
  8.1294201141744828E+00 a      1073     0    45     1    17
 -1.2416200818337742E+01 a      1074     0    45     1    18
  6.2691816028727789E+00 a      1075     0    45     1    19
 -1.0185705339625770E-01 a      1076     0    45     1    20
  1.2483245068722573E+00 a      1077     0    45     1    21
 -6.6153211886850150E+00 a      1078     0    45     1    22
 -7.8119783705892836E+00 a      1079     0    45     1    23
  5.3077476994978623E+00 a      1080     0    45     1    24
  1.9162346149058511E+00 a      1081     0    46     1     1
 -3.4237198697300513E+00 a      1082     0    46     1     2
  7.5673766653073538E-01 a      1083     0    46     1     3
 -4.1417763146052140E+00 a      1084     0    46     1     4
 -2.2412090693815361E+00 a      1085     0    46     1     5
 -4.5949254883405066E+00 a      1086     0    46     1     6
 -1.6498047928144925E+00 a      1087     0    46     1     7
  3.0145499808442144E+00 a      1088     0    46     1     8
 -2.2934790880759101E-01 a      1089     0    46     1     9
 -1.0667063364634739E+00 a      1090     0    46     1    10
 -5.3226495712398405E+00 a      1091     0    46     1    11
  5.1639722529166745E+00 a      1092     0    46     1    12
  4.9288084253881892E-01 a      1093     0    46     1    13
  3.0316289559854086E+00 a      1094     0    46     1    14
 -8.3242333980875238E-01 a      1095     0    46     1    15
  9.8413127934270950E+00 a      1096     0    46     1    16
  5.7737207369370414E-01 a      1097     0    46     1    17
 -3.7521221027991900E+00 a      1098     0    46     1    18
 -4.3329368378021487E+00 a      1099     0    46     1    19
 -3.8228156648271852E+00 a      1100     0    46     1    20
  3.4074560223402717E+00 a      1101     0    46     1    21
  6.3566681244581147E-02 a      1102     0    46     1    22
 -1.2095099839069594E+00 a      1103     0    46     1    23
 -5.5194746934625556E+00 a      1104     0    46     1    24
  7.2562978185087399E+00 a      1105     0    47     1     1
 -1.0445668173314826E+00 a      1106     0    47     1     2
 -5.9667918286229318E+00 a      1107     0    47     1     3
 -4.6253582750006217E+00 a      1108     0    47     1     4
 -2.4996756469810461E-01 a      1109     0    47     1     5
 -1.0444530737569557E+00 a      1110     0    47     1     6
  3.2328292287065081E+00 a      1111     0    47     1     7
 -4.5368132977245385E-01 a      1112     0    47     1     8
  9.9041565839841583E-01 a      1113     0    47     1     9
 -1.1253439682377678E+01 a      1114     0    47     1    10
  1.0626015450157353E+00 a      1115     0    47     1    11
  4.1879328314063757E+00 a      1116     0    47     1    12
  6.0525062280709208E-01 a      1117     0    47     1    13
 -1.2847102902248022E+00 a      1118     0    47     1    14
  6.9018277944626050E+00 a      1119     0    47     1    15
 -8.4286097727275777E-01 a      1120     0    47     1    16
 -1.8323046109881147E+00 a      1121     0    47     1    17
  2.0938093251201244E+00 a      1122     0    47     1    18
  2.8142622037441700E-01 a      1123     0    47     1    19
  1.7565133806213613E+00 a      1124     0    47     1    20
  3.6853933587533008E+00 a      1125     0    47     1    21
  1.6041086819784989E-01 a      1126     0    47     1    22
 -8.4883459235400434E+00 a      1127     0    47     1    23
  6.5537655079259005E-01 a      1128     0    47     1    24
  1.0728638319397401E+00 a      1129     0    48     1     1
  1.4113239184993831E+00 a      1130     0    48     1     2
  1.6366709213239321E+00 a      1131     0    48     1     3
  9.7101335994299127E+00 a      1132     0    48     1     4
  2.5272596812818704E+00 a      1133     0    48     1     5
  4.3099176104033985E+00 a      1134     0    48     1     6
  9.7738504222094598E+00 a      1135     0    48     1     7
  2.3471827604608300E+00 a      1136     0    48     1     8
  3.7270085573826246E+00 a      1137     0    48     1     9
 -2.3113228564337596E+00 a      1138     0    48     1    10
  3.5798704885850992E+00 a      1139     0    48     1    11
  6.5306911273425596E+00 a      1140     0    48     1    12
  7.9274046732074686E+00 a      1141     0    48     1    13
 -3.7124851571631684E-01 a      1142     0    48     1    14
  3.1082867003212167E-01 a      1143     0    48     1    15
 -1.3084537989126235E+00 a      1144     0    48     1    16
  5.7595571266804466E+00 a      1145     0    48     1    17
  7.4217362362924710E-01 a      1146     0    48     1    18
 -3.5884464055960734E+00 a      1147     0    48     1    19
 -1.1594743938115942E+01 a      1148     0    48     1    20
 -8.4972962967934074E-01 a      1149     0    48     1    21
 -2.2527474935738829E+00 a      1150     0    48     1    22
  3.7216835625525663E-01 a      1151     0    48     1    23
 -3.6632432475379799E+00 a      1152     0    48     1    24
 -6.0692932982691072E+00 a      1153     0    49     1     1
  8.4922610061008239E+00 a      1154     0    49     1     2
  7.0761546967126296E+00 a      1155     0    49     1     3
  7.7078354055795772E+00 a      1156     0    49     1     4
  1.4195953313857723E+01 a      1157     0    49     1     5
  4.3958267576357297E+00 a      1158     0    49     1     6
 -9.3920531074860994E-02 a      1159     0    49     1     7
  6.6167786019490382E+00 a      1160     0    49     1     8
 -2.1989420636329027E+00 a      1161     0    49     1     9
  1.0856687540395708E+01 a      1162     0    49     1    10
 -1.2196801805348194E+00 a      1163     0    49     1    11
 -2.1073500304001920E+00 a      1164     0    49     1    12
  2.5226357531079530E-01 a      1165     0    49     1    13
 -4.4234865462134586E-02 a      1166     0    49     1    14
  6.7474859125669902E+00 a      1167     0    49     1    15
 -6.8927638885448301E+00 a      1168     0    49     1    16
 -3.7182238638980447E+00 a      1169     0    49     1    17
 -1.1468032321101346E+01 a      1170     0    49     1    18
 -1.1309672971645959E+01 a      1171     0    49     1    19
  8.9371522642526386E+00 a      1172     0    49     1    20
 -1.8243549517462312E+00 a      1173     0    49     1    21
  7.3682143668749740E+00 a      1174     0    49     1    22
  1.5156676231316777E+00 a      1175     0    49     1    23
  4.2041251243947713E+00 a      1176     0    49     1    24
 -5.7217145319758433E+00 a      1177     0    50     1     1
  3.9915208155912416E+00 a      1178     0    50     1     2
  2.9260879211470785E+00 a      1179     0    50     1     3
  2.3564658116060970E+00 a      1180     0    50     1     4
 -3.8288898629091079E+00 a      1181     0    50     1     5
  9.5329607825129414E-01 a      1182     0    50     1     6
 -4.0061905261315802E+00 a      1183     0    50     1     7
  1.0288376808024871E+01 a      1184     0    50     1     8
 -5.1527744031324838E+00 a      1185     0    50     1     9
 -1.1884513797655807E+00 a      1186     0    50     1    10
  6.5223304049142898E+00 a      1187     0    50     1    11
 -5.6935325420721050E-01 a      1188     0    50     1    12
 -1.9094626582318186E+00 a      1189     0    50     1    13
  8.0666557404846557E+00 a      1190     0    50     1    14
  4.1474431531326434E+00 a      1191     0    50     1    15
  4.1623105330666901E+00 a      1192     0    50     1    16
  5.5499573116913012E+00 a      1193     0    50     1    17
  3.4440949206966223E+00 a      1194     0    50     1    18
 -1.4510673551004821E-01 a      1195     0    50     1    19
  6.3485805943542484E-01 a      1196     0    50     1    20
  4.7243831179984932E+00 a      1197     0    50     1    21
  3.7990376407273043E+00 a      1198     0    50     1    22
  1.1546722886711631E+01 a      1199     0    50     1    23
 -8.5327848658038228E+00 a      1200     0    50     1    24
  8.5336571315078980E-01 a      1201     0    51     1     1
  5.7533516055745624E+00 a      1202     0    51     1     2
  1.0009576656669670E+00 a      1203     0    51     1     3
  5.3847916443860520E+00 a      1204     0    51     1     4
  1.1333603968549411E+00 a      1205     0    51     1     5
 -3.2750972301751391E+00 a      1206     0    51     1     6
 -5.9271894848427396E+00 a      1207     0    51     1     7
 -5.3933309551929529E+00 a      1208     0    51     1     8
 -1.1395282379783882E+00 a      1209     0    51     1     9
  2.6995868411781991E+00 a      1210     0    51     1    10
 -4.2496274499416353E+00 a      1211     0    51     1    11
 -3.1977974279148915E+00 a      1212     0    51     1    12
 -8.4548675598217358E+00 a      1213     0    51     1    13
  7.3180148052869312E+00 a      1214     0    51     1    14
 -4.1779228244646518E+00 a      1215     0    51     1    15
 -2.4984521702897746E+00 a      1216     0    51     1    16
  3.8315892883100862E+00 a      1217     0    51     1    17
  6.8155632965737230E+00 a      1218     0    51     1    18
 -2.4298368672149544E+00 a      1219     0    51     1    19
 -8.8848194389950503E+00 a      1220     0    51     1    20
 -3.9092626283167129E+00 a      1221     0    51     1    21
  6.5395550534862084E+00 a      1222     0    51     1    22
  1.1766892080245775E+01 a      1223     0    51     1    23
 -1.0479078877819452E+01 a      1224     0    51     1    24
  1.6804317611336442E-02 a      1225     0    52     1     1
  1.9664545726939846E+00 a      1226     0    52     1     2
  1.2927350253345567E+01 a      1227     0    52     1     3
  2.1731758659749487E+00 a      1228     0    52     1     4
  2.0142002002504844E+00 a      1229     0    52     1     5
 -4.0884949896797957E+00 a      1230     0    52     1     6
  3.1285805944985978E-01 a      1231     0    52     1     7
  6.4682481308514852E+00 a      1232     0    52     1     8
 -5.9037511603180555E+00 a      1233     0    52     1     9
  4.7983328493504844E+00 a      1234     0    52     1    10
 -6.2582916491677061E+00 a      1235     0    52     1    11
 -8.3723883068289751E-01 a      1236     0    52     1    12
  3.2455337863142488E+00 a      1237     0    52     1    13
 -1.4274770734956721E+01 a      1238     0    52     1    14
  1.1168118556079094E+01 a      1239     0    52     1    15
 -3.8919490699230250E+00 a      1240     0    52     1    16
  2.6767807728131472E+00 a      1241     0    52     1    17
  1.2708675717179585E+00 a      1242     0    52     1    18
 -6.4812622821688031E+00 a      1243     0    52     1    19
  6.1611584216495690E+00 a      1244     0    52     1    20
  5.2670202514335402E+00 a      1245     0    52     1    21
 -9.4828755751462239E+00 a      1246     0    52     1    22
  1.9001481712350703E+00 a      1247     0    52     1    23
 -5.6200425187989067E+00 a      1248     0    52     1    24
 -1.1508613879914243E+01 a      1249     0    53     1     1
  7.6052474544477517E+00 a      1250     0    53     1     2
 -5.3332839817411493E-01 a      1251     0    53     1     3
  1.4078587913351583E+01 a      1252     0    53     1     4
 -5.7262177903086480E+00 a      1253     0    53     1     5
 -8.6300665399911534E+00 a      1254     0    53     1     6
  1.7545149837220170E-01 a      1255     0    53     1     7
  9.9554984981168282E+00 a      1256     0    53     1     8
 -4.1901947206026291E+00 a      1257     0    53     1     9
 -3.8481083403356795E+00 a      1258     0    53     1    10
  4.4403844531029781E+00 a      1259     0    53     1    11
  2.8297514271334272E+00 a      1260     0    53     1    12
 -1.1075159503487466E+01 a      1261     0    53     1    13
  7.1983404705967367E+00 a      1262     0    53     1    14
  2.6709491345294567E+00 a      1263     0    53     1    15
 -9.5370061317936266E+00 a      1264     0    53     1    16
  9.8803414352925523E-01 a      1265     0    53     1    17
  1.0971169658541085E+01 a      1266     0    53     1    18
 -3.0995343571449676E+00 a      1267     0    53     1    19
  3.1154371344665628E+00 a      1268     0    53     1    20
  8.4888033080397598E+00 a      1269     0    53     1    21
 -1.7976138220827411E+00 a      1270     0    53     1    22
  1.0912347292424332E+01 a      1271     0    53     1    23
  5.9066657741673989E+00 a      1272     0    53     1    24
  8.9902941985773417E+00 a      1273     0    54     1     1
  6.0117423047176253E+00 a      1274     0    54     1     2
  3.7725714142533300E+00 a      1275     0    54     1     3
 -7.2286862463751635E+00 a      1276     0    54     1     4
  8.3535778865448196E-01 a      1277     0    54     1     5
 -9.0027117563307861E+00 a      1278     0    54     1     6
 -2.0130751420083191E+00 a      1279     0    54     1     7
  4.0361005074103479E-01 a      1280     0    54     1     8
 -7.6207116952787155E+00 a      1281     0    54     1     9
  1.0427717619601212E+01 a      1282     0    54     1    10
 -1.7963565395843301E-01 a      1283     0    54     1    11
 -2.5169512537196881E-01 a      1284     0    54     1    12
 -1.0223775310316114E+01 a      1285     0    54     1    13
  9.9636342144256984E-01 a      1286     0    54     1    14
 -4.1523154410197893E-01 a      1287     0    54     1    15
  7.0987823992460628E+00 a      1288     0    54     1    16
 -1.3547011296822566E+00 a      1289     0    54     1    17
  8.7805563086408487E+00 a      1290     0    54     1    18
 -4.6172459650555275E+00 a      1291     0    54     1    19
  6.8422150788521385E+00 a      1292     0    54     1    20
  2.6347116702781372E+00 a      1293     0    54     1    21
  1.7563454939054390E+00 a      1294     0    54     1    22
 -6.3216655508453927E+00 a      1295     0    54     1    23
 -3.2984111303109933E+00 a      1296     0    54     1    24
 -8.5538527640338007E+00 a      1297     0    55     1     1
 -3.1131891993558982E+00 a      1298     0    55     1     2
  4.7437329271167634E+00 a      1299     0    55     1     3
  2.9873646385170125E+00 a      1300     0    55     1     4
  7.8607285626834624E+00 a      1301     0    55     1     5
 -3.2233647748492031E+00 a      1302     0    55     1     6
  2.7315224295777321E+00 a      1303     0    55     1     7
  8.1063334840421142E+00 a      1304     0    55     1     8
 -4.2784563602037879E+00 a      1305     0    55     1     9
  1.2700549580570817E+01 a      1306     0    55     1    10
 -2.8966064437343944E+00 a      1307     0    55     1    11
 -4.4728280695700668E+00 a      1308     0    55     1    12
 -1.6414572539812691E+00 a      1309     0    55     1    13
 -7.4766177506795293E+00 a      1310     0    55     1    14
 -4.7559012665029721E-01 a      1311     0    55     1    15
 -5.2936791122222244E+00 a      1312     0    55     1    16
 -2.2556357079374272E+00 a      1313     0    55     1    17
 -6.5146406603422502E+00 a      1314     0    55     1    18
  4.9537528840697824E+00 a      1315     0    55     1    19
  1.4781760873832701E+00 a      1316     0    55     1    20
 -5.7576139672705273E-01 a      1317     0    55     1    21
  7.2046272305334353E+00 a      1318     0    55     1    22
  7.4176779381822400E-01 a      1319     0    55     1    23
 -3.8932600923156069E-01 a      1320     0    55     1    24
 -2.4772482953655230E+00 a      1321     0    56     1     1
  4.1673392668576570E+00 a      1322     0    56     1     2
 -8.5083294379636232E-01 a      1323     0    56     1     3
 -5.0680640348429611E+00 a      1324     0    56     1     4
  2.4652220398703113E+00 a      1325     0    56     1     5
  3.0671732694091722E+00 a      1326     0    56     1     6
 -5.1757813710392542E+00 a      1327     0    56     1     7
 -1.3168202101204831E+00 a      1328     0    56     1     8
  4.8617916016059572E+00 a      1329     0    56     1     9
 -1.9221645285504221E+00 a      1330     0    56     1    10
 -2.6191038214808056E+00 a      1331     0    56     1    11
 -3.1611451825410781E+00 a      1332     0    56     1    12
 -1.3286471627815141E+01 a      1333     0    56     1    13
  6.4690267429990933E-01 a      1334     0    56     1    14
 -3.5341448314957208E-01 a      1335     0    56     1    15
  8.4967190909534711E+00 a      1336     0    56     1    16
 -3.8400043867025611E+00 a      1337     0    56     1    17
 -2.1130957483022453E-01 a      1338     0    56     1    18
  7.1150414180474337E+00 a      1339     0    56     1    19
  6.4192969143609231E+00 a      1340     0    56     1    20
 -1.1817310801132692E+00 a      1341     0    56     1    21
  1.5349541266095464E+01 a      1342     0    56     1    22
  7.1028135268597445E+00 a      1343     0    56     1    23
 -6.5382915074900456E+00 a      1344     0    56     1    24
 -1.3515263380507580E+01 a      1345     0    57     1     1
 -2.7125024205747872E+00 a      1346     0    57     1     2
  3.9869847930529088E+00 a      1347     0    57     1     3
  5.2106669249475983E+00 a      1348     0    57     1     4
  3.8999305025218678E-01 a      1349     0    57     1     5
 -2.4876016745476699E+00 a      1350     0    57     1     6
 -6.8435875936603203E+00 a      1351     0    57     1     7
  5.5693593820854090E+00 a      1352     0    57     1     8
 -1.9354439888646491E-01 a      1353     0    57     1     9
  8.3859688701934709E-01 a      1354     0    57     1    10
 -6.7971551404454624E+00 a      1355     0    57     1    11
 -6.2431157972497608E+00 a      1356     0    57     1    12
  3.3596950298192563E+00 a      1357     0    57     1    13
  6.5806453461857650E+00 a      1358     0    57     1    14
 -4.3438284350881631E+00 a      1359     0    57     1    15
 -5.8532281752525375E+00 a      1360     0    57     1    16
  2.2288596384652313E+00 a      1361     0    57     1    17
 -1.1857366628547243E+01 a      1362     0    57     1    18
  6.4855037868329317E+00 a      1363     0    57     1    19
  8.3935496837013481E+00 a      1364     0    57     1    20
 -4.9409358924171496E+00 a      1365     0    57     1    21
 -2.9014229053207091E-01 a      1366     0    57     1    22
  9.1294295012732043E+00 a      1367     0    57     1    23
 -7.6253772930642469E+00 a      1368     0    57     1    24
  1.2643293779438679E+01 a      1369     0    58     1     1
  4.0411064014914029E+00 a      1370     0    58     1     2
  1.5020664266247804E+01 a      1371     0    58     1     3
 -8.6964186978955311E+00 a      1372     0    58     1     4
 -3.5355072875173201E+00 a      1373     0    58     1     5
 -6.3981070124933304E+00 a      1374     0    58     1     6
 -4.0983789295918402E+00 a      1375     0    58     1     7
  7.2595350939582897E+00 a      1376     0    58     1     8
  3.4981106479548840E+00 a      1377     0    58     1     9
 -6.7772988963349272E+00 a      1378     0    58     1    10
  4.1597509380050974E+00 a      1379     0    58     1    11
  2.5214092595550897E-01 a      1380     0    58     1    12
  1.3889171965038425E+01 a      1381     0    58     1    13
 -5.3552916445494034E+00 a      1382     0    58     1    14
  7.7264249623023842E+00 a      1383     0    58     1    15
  1.0410610717146618E+01 a      1384     0    58     1    16
  7.9064680196879857E+00 a      1385     0    58     1    17
 -4.8203795528906639E+00 a      1386     0    58     1    18
 -8.7319500740992364E+00 a      1387     0    58     1    19
 -4.9853246243769078E+00 a      1388     0    58     1    20
 -5.7083535065704112E+00 a      1389     0    58     1    21
  7.5690954885078723E+00 a      1390     0    58     1    22
 -8.7860404973685160E+00 a      1391     0    58     1    23
 -8.4079680737232945E+00 a      1392     0    58     1    24
  1.8589656899079017E+00 a      1393     0    59     1     1
 -6.9703617276784628E+00 a      1394     0    59     1     2
 -6.5843191082479438E+00 a      1395     0    59     1     3
 -1.2837625463526718E+01 a      1396     0    59     1     4
 -1.1929416196254255E+01 a      1397     0    59     1     5
 -3.7299060057143052E-03 a      1398     0    59     1     6
 -5.1184614587145845E+00 a      1399     0    59     1     7
  2.0234707108167752E-01 a      1400     0    59     1     8
  1.1468893164596823E+00 a      1401     0    59     1     9
 -1.1716159935361768E+01 a      1402     0    59     1    10
  1.0305198813481090E-01 a      1403     0    59     1    11
  1.9331262127152511E+00 a      1404     0    59     1    12
 -2.0342452517791467E+00 a      1405     0    59     1    13
  4.5096002124887029E+00 a      1406     0    59     1    14
 -2.0767059705694195E+00 a      1407     0    59     1    15
  9.2745635447033212E+00 a      1408     0    59     1    16
  2.7834979209940061E+00 a      1409     0    59     1    17
  1.3697974805306938E+00 a      1410     0    59     1    18
 -5.3370062137190306E+00 a      1411     0    59     1    19
 -1.0201346481376385E+01 a      1412     0    59     1    20
  7.1743722814551951E+00 a      1413     0    59     1    21
  1.5254340783745477E+00 a      1414     0    59     1    22
  1.4948796139985612E-01 a      1415     0    59     1    23
 -4.2444286512914138E+00 a      1416     0    59     1    24
 -4.4805298445536916E+00 a      1417     0    60     1     1
  4.5047092092705245E+00 a      1418     0    60     1     2
  5.0453527373685070E-01 a      1419     0    60     1     3
 -3.3403642822306576E+00 a      1420     0    60     1     4
  1.5802857614209471E+00 a      1421     0    60     1     5
 -5.5638377844282272E-01 a      1422     0    60     1     6
 -4.3831314690296166E+00 a      1423     0    60     1     7
  7.9317235813375060E+00 a      1424     0    60     1     8
 -3.0618175347525041E+00 a      1425     0    60     1     9
 -1.0949656896272982E+01 a      1426     0    60     1    10
  1.1905110092955219E+01 a      1427     0    60     1    11
  9.3318442986525962E+00 a      1428     0    60     1    12
  4.4047073913772996E+00 a      1429     0    60     1    13
 -1.7597309997707489E+00 a      1430     0    60     1    14
 -9.7345608178543834E+00 a      1431     0    60     1    15
 -1.6822575716583552E+00 a      1432     0    60     1    16
 -2.1822548129000613E-01 a      1433     0    60     1    17
  1.3913926010648230E+00 a      1434     0    60     1    18
 -2.1306482968784328E+00 a      1435     0    60     1    19
  2.2922302947156115E+00 a      1436     0    60     1    20
 -9.6671812524196366E+00 a      1437     0    60     1    21
 -7.3335887043001309E+00 a      1438     0    60     1    22
 -1.5822774739129004E+00 a      1439     0    60     1    23
  6.1623883923022529E+00 a      1440     0    60     1    24
 -7.9073204852526642E+00 a      1441     0    61     1     1
 -2.7794874612549236E+00 a      1442     0    61     1     2
 -2.4699915312807548E+00 a      1443     0    61     1     3
  1.8563980136800138E+00 a      1444     0    61     1     4
 -2.4691923536013451E+00 a      1445     0    61     1     5
 -2.4326964697974742E+00 a      1446     0    61     1     6
  7.0901895925913552E+00 a      1447     0    61     1     7
  9.3794023714208592E+00 a      1448     0    61     1     8
  5.4560424036585156E+00 a      1449     0    61     1     9
 -2.4346920905686020E+00 a      1450     0    61     1    10
  6.1095258811972797E-01 a      1451     0    61     1    11
 -2.6267356822025829E+00 a      1452     0    61     1    12
 -2.2592961784162105E-01 a      1453     0    61     1    13
  7.3413331830825825E+00 a      1454     0    61     1    14
 -2.3191847073652654E+00 a      1455     0    61     1    15
 -5.4016046264376314E+00 a      1456     0    61     1    16
 -8.0688544959870949E+00 a      1457     0    61     1    17
  7.4922892945994644E+00 a      1458     0    61     1    18
  3.8828290082641068E+00 a      1459     0    61     1    19
 -1.8542205030756318E+00 a      1460     0    61     1    20
 -6.4386296901757500E+00 a      1461     0    61     1    21
 -1.6669369892838036E-02 a      1462     0    61     1    22
 -9.1888375858349285E+00 a      1463     0    61     1    23
  5.2009821495434965E+00 a      1464     0    61     1    24
 -9.4385216247387156E+00 a      1465     0    62     1     1
 -4.4317326064850864E+00 a      1466     0    62     1     2
 -3.8698182625725006E+00 a      1467     0    62     1     3
  1.0296914433186018E+01 a      1468     0    62     1     4
  8.3115775340087694E+00 a      1469     0    62     1     5
  6.8245235958884294E+00 a      1470     0    62     1     6
  7.4758181295685757E+00 a      1471     0    62     1     7
 -2.3282261652646978E+00 a      1472     0    62     1     8
  7.5428061805131676E+00 a      1473     0    62     1     9
 -5.4826386201180535E+00 a      1474     0    62     1    10
  1.7118601920281422E+00 a      1475     0    62     1    11
 -6.5170564486389715E+00 a      1476     0    62     1    12
 -7.0020952808445749E+00 a      1477     0    62     1    13
 -4.2213982642587409E+00 a      1478     0    62     1    14
 -3.0805215949487388E+00 a      1479     0    62     1    15
 -4.4511162164288800E+00 a      1480     0    62     1    16
  3.0577128061477028E+00 a      1481     0    62     1    17
  4.5825566824597797E+00 a      1482     0    62     1    18
  7.5938398335974280E-02 a      1483     0    62     1    19
  3.8784694986158921E+00 a      1484     0    62     1    20
 -7.4284938157374434E+00 a      1485     0    62     1    21
  1.3972569950088318E+00 a      1486     0    62     1    22
 -6.1913718154201298E+00 a      1487     0    62     1    23
  1.2372004213805731E+01 a      1488     0    62     1    24
 -5.9316118993824363E-01 a      1489     0    63     1     1
 -2.5744175212862039E+00 a      1490     0    63     1     2
 -2.3394976586605214E+00 a      1491     0    63     1     3
  2.6398287407139485E+00 a      1492     0    63     1     4
 -2.0757092914951095E-01 a      1493     0    63     1     5
 -1.3879978242396427E+00 a      1494     0    63     1     6
 -9.4178835109875774E+00 a      1495     0    63     1     7
 -3.5009103868100255E-01 a      1496     0    63     1     8
 -5.8600566241928922E+00 a      1497     0    63     1     9
  2.2204732110115040E+00 a      1498     0    63     1    10
  7.4322750357569394E+00 a      1499     0    63     1    11
 -7.6745595033849598E+00 a      1500     0    63     1    12
 -7.5541121318519524E+00 a      1501     0    63     1    13
  3.1201542772082303E-02 a      1502     0    63     1    14
 -4.4088010399990170E+00 a      1503     0    63     1    15
 -1.5879606779751088E+00 a      1504     0    63     1    16
  8.7059307611000503E-02 a      1505     0    63     1    17
  2.6059614835994451E+00 a      1506     0    63     1    18
  1.1396820387619211E+01 a      1507     0    63     1    19
  9.9014932365539359E+00 a      1508     0    63     1    20
 -3.9739151819845095E+00 a      1509     0    63     1    21
 -3.9301479813488167E+00 a      1510     0    63     1    22
  2.9485819223597711E+00 a      1511     0    63     1    23
  2.2221417664202576E+01 a      1512     0    63     1    24
 -1.0209410733846113E+01 a      1513     0    64     1     1
 -5.7397735557157183E+00 a      1514     0    64     1     2
 -7.6082404120939096E+00 a      1515     0    64     1     3
 -7.5120929036286848E+00 a      1516     0    64     1     4
 -5.9219548720432309E+00 a      1517     0    64     1     5
 -1.1411333241836061E+00 a      1518     0    64     1     6
 -4.3853289674314969E-02 a      1519     0    64     1     7
  6.7593244444299172E+00 a      1520     0    64     1     8
 -5.4669589740359310E+00 a      1521     0    64     1     9
 -4.1337446226614993E+00 a      1522     0    64     1    10
 -5.3361179510255852E+00 a      1523     0    64     1    11
  5.2598572716531473E+00 a      1524     0    64     1    12
 -6.9271494829818838E+00 a      1525     0    64     1    13
  1.0051827961318187E+01 a      1526     0    64     1    14
 -3.5171970704271551E+00 a      1527     0    64     1    15
  1.1533826706272563E+01 a      1528     0    64     1    16
  2.7759330874954311E+00 a      1529     0    64     1    17
 -4.9968370532832074E+00 a      1530     0    64     1    18
  2.8396955582344687E+00 a      1531     0    64     1    19
  3.8359482012255706E+00 a      1532     0    64     1    20
  2.0383375373642134E+00 a      1533     0    64     1    21
 -3.8148321526081910E+00 a      1534     0    64     1    22
  4.6187549311752134E+00 a      1535     0    64     1    23
 -6.3848507801669854E+00 a      1536     0    64     1    24
 -3.1953957425881097E-01 a      1537     0    65     1     1
 -3.8312904144781226E+00 a      1538     0    65     1     2
 -5.4811468185705765E+00 a      1539     0    65     1     3
 -2.0575903630036824E-01 a      1540     0    65     1     4
  4.3969756636027180E+00 a      1541     0    65     1     5
 -1.5643194163603831E+00 a      1542     0    65     1     6
  1.3751065912055754E+01 a      1543     0    65     1     7
  5.5998082848257456E+00 a      1544     0    65     1     8
  8.2662035621719170E+00 a      1545     0    65     1     9
 -1.2028971840464841E+01 a      1546     0    65     1    10
  8.5019117942081246E-01 a      1547     0    65     1    11
  5.3714849731659964E+00 a      1548     0    65     1    12
  5.3450227713339791E+00 a      1549     0    65     1    13
 -2.4966715053063124E+00 a      1550     0    65     1    14
 -4.4091509981191912E+00 a      1551     0    65     1    15
 -7.5627308403522675E-01 a      1552     0    65     1    16
 -9.0899871184493879E+00 a      1553     0    65     1    17
  2.1602209105779999E-01 a      1554     0    65     1    18
 -1.4248646421156255E+00 a      1555     0    65     1    19
  5.2564253995403494E+00 a      1556     0    65     1    20
 -3.5717336518741623E+00 a      1557     0    65     1    21
 -2.9202598371287443E+00 a      1558     0    65     1    22
 -3.3766999715773456E+00 a      1559     0    65     1    23
  2.0433997844667132E+01 a      1560     0    65     1    24
 -6.5854884069118680E-01 a      1561     0    66     1     1
  2.6295226805211391E+00 a      1562     0    66     1     2
 -1.1613613238201106E+00 a      1563     0    66     1     3
 -2.9435504537455937E+00 a      1564     0    66     1     4
  5.7637168203942863E+00 a      1565     0    66     1     5
  8.4970528722429250E+00 a      1566     0    66     1     6
  6.1773515015403282E+00 a      1567     0    66     1     7
  8.6635455967082720E-01 a      1568     0    66     1     8
  2.3571381224433865E+00 a      1569     0    66     1     9
 -6.9832811101284245E+00 a      1570     0    66     1    10
  1.2925152345436357E+00 a      1571     0    66     1    11
 -3.1096555178974432E+00 a      1572     0    66     1    12
 -5.4418787637993509E+00 a      1573     0    66     1    13
  5.6135154717440603E+00 a      1574     0    66     1    14
 -2.2857485072147097E+00 a      1575     0    66     1    15
 -1.6686318623329468E+00 a      1576     0    66     1    16
  3.7000245040669095E+00 a      1577     0    66     1    17
  1.9325267302105034E+00 a      1578     0    66     1    18
 -1.5865854232266625E+00 a      1579     0    66     1    19
  5.6507893765482260E+00 a      1580     0    66     1    20
 -2.7500665597564593E+00 a      1581     0    66     1    21
  3.1348672340311867E-01 a      1582     0    66     1    22
 -1.0225063750434857E-01 a      1583     0    66     1    23
 -5.2903190986385784E+00 a      1584     0    66     1    24
  5.3827244554113927E+00 a      1585     0    67     1     1
  1.4129784048653704E+01 a      1586     0    67     1     2
  1.1080027921921982E+00 a      1587     0    67     1     3
 -3.3209864128117288E+00 a      1588     0    67     1     4
  7.2264199321739975E-01 a      1589     0    67     1     5
 -1.3850900911667288E+00 a      1590     0    67     1     6
 -6.4752860942232848E+00 a      1591     0    67     1     7
 -4.6922046576380003E+00 a      1592     0    67     1     8
  8.8337009541254314E+00 a      1593     0    67     1     9
 -4.5607128612609165E+00 a      1594     0    67     1    10
  4.0599163542364458E+00 a      1595     0    67     1    11
  4.4354986237683075E-01 a      1596     0    67     1    12
 -6.7864141965204128E-01 a      1597     0    67     1    13
  6.8332197961174197E+00 a      1598     0    67     1    14
  5.3476744462044943E+00 a      1599     0    67     1    15
  3.9980828182053729E-01 a      1600     0    67     1    16
  5.1646514746175907E+00 a      1601     0    67     1    17
 -6.6603905794828488E+00 a      1602     0    67     1    18
  9.5159019744264715E+00 a      1603     0    67     1    19
 -3.7514839558317505E+00 a      1604     0    67     1    20
  1.0643959066312421E+00 a      1605     0    67     1    21
  5.2549404728930176E+00 a      1606     0    67     1    22
 -6.3703282679705575E-01 a      1607     0    67     1    23
  1.2958724090447209E+00 a      1608     0    67     1    24
 -3.4111776753114480E+00 a      1609     0    68     1     1
 -5.3525282248453072E+00 a      1610     0    68     1     2
 -9.8766537794784226E-02 a      1611     0    68     1     3
 -8.0115117733220753E+00 a      1612     0    68     1     4
  1.0952260313796568E+01 a      1613     0    68     1     5
  1.0518210357176457E+01 a      1614     0    68     1     6
  5.3932196378090840E+00 a      1615     0    68     1     7
 -4.3969933217994867E-01 a      1616     0    68     1     8
  3.5543406979146157E+00 a      1617     0    68     1     9
  7.0246640944742964E+00 a      1618     0    68     1    10
  4.4324962261841316E-01 a      1619     0    68     1    11
  5.8616132528820959E+00 a      1620     0    68     1    12
  1.5579661563491163E+00 a      1621     0    68     1    13
  3.1516801495013755E+00 a      1622     0    68     1    14
 -4.0336275853752399E+00 a      1623     0    68     1    15
