################################################################################
# Neural network connection values (weights and biases).
################################################################################
# Col  Name       Description
################################################################################
# 1    connection Neural network connection value.
# 2    t          Connection type (a = weight, b = bias).
# 3    index      Index enumerating weights.
# 4    l_s        Starting point layer (end point layer for biases).
# 5    n_s        Starting point neuron in starting layer (end point neuron for biases).
# 6    l_e        End point layer.
# 7    n_e        End point neuron in end layer.
################################################################################
#                      1 2         3     4     5     6     7
#             connection t     index   l_s   n_s   l_e   n_e
############################################################
  6.6006885570397582E+00 a         1     0     1     1     1
  3.3668082264029433E+00 a         2     0     1     1     2
  4.2947618085793069E+00 a         3     0     1     1     3
  5.0526678790181689E+00 a         4     0     1     1     4
  3.2191460820104276E+00 a         5     0     1     1     5
  3.5976181923296617E+00 a         6     0     1     1     6
 -1.1795263514199155E+00 a         7     0     1     1     7
 -9.0239985524753008E-01 a         8     0     1     1     8
 -9.5009522383733618E+00 a         9     0     1     1     9
 -1.4834227559239275E+00 a        10     0     1     1    10
  1.7344454602048691E+00 a        11     0     1     1    11
  4.6252144678249718E-01 a        12     0     1     1    12
 -4.2348117211848795E+00 a        13     0     1     1    13
 -7.5291016948380340E+00 a        14     0     1     1    14
 -1.8346417185810524E+00 a        15     0     1     1    15
 -3.2590810911814412E+00 a        16     0     1     1    16
 -2.4561334693578196E+00 a        17     0     1     1    17
 -1.0627083943748582E+01 a        18     0     1     1    18
 -1.2528983577841643E+01 a        19     0     1     1    19
  3.2643126008740713E+00 a        20     0     1     1    20
  7.3969478985604802E+00 a        21     0     1     1    21
 -2.9174139693073191E+00 a        22     0     1     1    22
 -1.0428867503312803E+01 a        23     0     1     1    23
  4.3166871536879654E+00 a        24     0     1     1    24
  2.5139848059552290E+00 a        25     0     2     1     1
 -1.4349851949338395E+00 a        26     0     2     1     2
  4.2085887768543602E+00 a        27     0     2     1     3
  9.3319834682623237E-01 a        28     0     2     1     4
  7.5931043028623524E+00 a        29     0     2     1     5
  1.0102005966396959E+01 a        30     0     2     1     6
 -2.5263836878958048E+00 a        31     0     2     1     7
  7.8725675866888221E+00 a        32     0     2     1     8
 -4.3438807805939774E+00 a        33     0     2     1     9
 -6.0833554571796966E-01 a        34     0     2     1    10
 -6.0281851047582533E+00 a        35     0     2     1    11
 -1.0108610298640825E+00 a        36     0     2     1    12
 -6.4092513490762681E-01 a        37     0     2     1    13
 -8.7103301294647011E+00 a        38     0     2     1    14
 -5.4524035084345019E+00 a        39     0     2     1    15
 -1.3140785379279754E+00 a        40     0     2     1    16
 -3.9469264754043478E+00 a        41     0     2     1    17
  4.8302756166781027E+00 a        42     0     2     1    18
  3.8949913580705928E+00 a        43     0     2     1    19
 -1.4101466370653602E+01 a        44     0     2     1    20
  9.0159295511834792E+00 a        45     0     2     1    21
 -2.1865021401143667E+00 a        46     0     2     1    22
  7.9993478040571846E+00 a        47     0     2     1    23
 -3.9905216308284421E+00 a        48     0     2     1    24
 -1.7232725422548363E+00 a        49     0     3     1     1
  1.5933699441192526E+00 a        50     0     3     1     2
 -5.6763036127970494E+00 a        51     0     3     1     3
 -3.5288609415258767E+00 a        52     0     3     1     4
 -1.3288009030922239E+00 a        53     0     3     1     5
 -1.8917795521626379E+00 a        54     0     3     1     6
 -5.2220888000789123E-01 a        55     0     3     1     7
  3.4787218966121953E+00 a        56     0     3     1     8
  1.0500433720786922E-01 a        57     0     3     1     9
 -2.5487600774649710E+00 a        58     0     3     1    10
 -3.5534427830339674E+00 a        59     0     3     1    11
  6.1182191721972226E+00 a        60     0     3     1    12
  1.6000701715787389E+00 a        61     0     3     1    13
  2.1515709495599387E+00 a        62     0     3     1    14
 -1.3507287188972912E+00 a        63     0     3     1    15
 -2.2979378046260424E-01 a        64     0     3     1    16
  5.7451409242344624E+00 a        65     0     3     1    17
  3.9740962165305080E+00 a        66     0     3     1    18
 -2.5410720888268696E+00 a        67     0     3     1    19
  1.2363449738277856E+00 a        68     0     3     1    20
 -7.4258251560016006E+00 a        69     0     3     1    21
  6.5775972167197383E-01 a        70     0     3     1    22
 -6.5293018774524259E-01 a        71     0     3     1    23
  3.5954783902444150E+00 a        72     0     3     1    24
 -2.5806271047410649E+00 a        73     0     4     1     1
 -2.2699880587994334E+00 a        74     0     4     1     2
 -1.2696102372555667E+00 a        75     0     4     1     3
 -3.8794742029048856E-01 a        76     0     4     1     4
 -7.2233194206998288E+00 a        77     0     4     1     5
  1.2539467500021659E+00 a        78     0     4     1     6
 -8.8873394800437167E-01 a        79     0     4     1     7
 -4.0891061766832673E+00 a        80     0     4     1     8
  3.5716315812014146E+00 a        81     0     4     1     9
 -7.8735547124145178E-01 a        82     0     4     1    10
  2.9455144049776250E+00 a        83     0     4     1    11
  4.8020693752232111E+00 a        84     0     4     1    12
  2.5653904401876528E+00 a        85     0     4     1    13
  4.7624438187983023E+00 a        86     0     4     1    14
 -4.7540447177061240E-01 a        87     0     4     1    15
  5.9402061918777518E+00 a        88     0     4     1    16
 -3.0798106997659040E+00 a        89     0     4     1    17
 -5.3386290199110595E+00 a        90     0     4     1    18
  2.1599151486905237E+00 a        91     0     4     1    19
  6.3958741303064128E+00 a        92     0     4     1    20
 -4.0473045671741241E+00 a        93     0     4     1    21
  2.3010234611836431E+00 a        94     0     4     1    22
 -2.4298971222642654E+00 a        95     0     4     1    23
  5.0669025898316855E+00 a        96     0     4     1    24
 -4.5567669761360845E+00 a        97     0     5     1     1
 -2.3437699528275799E+00 a        98     0     5     1     2
 -8.9565854757650829E+00 a        99     0     5     1     3
 -6.8534779250316413E+00 a       100     0     5     1     4
 -6.9094903577453941E+00 a       101     0     5     1     5
  8.7016021497477114E-01 a       102     0     5     1     6
 -1.4314518788923594E+00 a       103     0     5     1     7
  2.4157653930340768E+00 a       104     0     5     1     8
  4.0953784959643409E+00 a       105     0     5     1     9
  3.4992508684404339E-01 a       106     0     5     1    10
 -8.8233739005811636E+00 a       107     0     5     1    11
  4.7005376122941751E+00 a       108     0     5     1    12
  4.1947747612195325E+00 a       109     0     5     1    13
  4.6030974081274758E+00 a       110     0     5     1    14
  3.1012910738100690E+00 a       111     0     5     1    15
  4.1254236463381284E+00 a       112     0     5     1    16
  9.3226315598297553E+00 a       113     0     5     1    17
  6.3607041184498838E+00 a       114     0     5     1    18
  5.8765136744395212E+00 a       115     0     5     1    19
 -1.3687428360567124E+00 a       116     0     5     1    20
 -9.4824399899406870E+00 a       117     0     5     1    21
  8.6263215258864623E+00 a       118     0     5     1    22
  5.9973543657378929E+00 a       119     0     5     1    23
 -1.2549553721849800E+00 a       120     0     5     1    24
 -2.0628969658707779E+00 a       121     0     6     1     1
  3.1241447885582235E-01 a       122     0     6     1     2
 -3.9230270648565306E+00 a       123     0     6     1     3
  2.0081806267487912E-01 a       124     0     6     1     4
 -4.8475834502606467E+00 a       125     0     6     1     5
 -6.8641754184331463E+00 a       126     0     6     1     6
  2.4130490643043760E+00 a       127     0     6     1     7
 -9.4511681586683363E+00 a       128     0     6     1     8
  6.5416271950634775E+00 a       129     0     6     1     9
 -1.2301514255152510E+00 a       130     0     6     1    10
  4.9759899927445037E+00 a       131     0     6     1    11
  4.5339673217655712E+00 a       132     0     6     1    12
 -5.2525456235974231E+00 a       133     0     6     1    13
  9.5265306932927381E+00 a       134     0     6     1    14
  1.3007950094403706E+00 a       135     0     6     1    15
 -1.9010766270229951E+00 a       136     0     6     1    16
  1.4469587204411281E+00 a       137     0     6     1    17
 -1.8258025816640515E+00 a       138     0     6     1    18
  2.7317199493303166E+00 a       139     0     6     1    19
  1.4497063584079065E+01 a       140     0     6     1    20
 -7.2215495829431786E+00 a       141     0     6     1    21
  5.1164652196971598E+00 a       142     0     6     1    22
 -5.2789434364996675E+00 a       143     0     6     1    23
  5.2305918048771520E+00 a       144     0     6     1    24
 -5.2997637280576768E+00 a       145     0     7     1     1
 -4.6701564046847306E+00 a       146     0     7     1     2
  2.9187345656480730E+00 a       147     0     7     1     3
  1.8360641817727761E+00 a       148     0     7     1     4
 -5.2693465575714535E+00 a       149     0     7     1     5
  1.3977755155900525E+01 a       150     0     7     1     6
 -4.9532739334546099E+00 a       151     0     7     1     7
 -9.2738045173604755E-01 a       152     0     7     1     8
 -3.0256733507611298E+00 a       153     0     7     1     9
  1.5240798682768284E+00 a       154     0     7     1    10
 -2.6406356125671260E-01 a       155     0     7     1    11
 -6.8209252703124035E+00 a       156     0     7     1    12
 -1.2032090928335786E+00 a       157     0     7     1    13
 -5.8675043672085749E+00 a       158     0     7     1    14
  1.3871141788954884E+00 a       159     0     7     1    15
 -1.2939747301177773E-02 a       160     0     7     1    16
 -9.5135038245995744E+00 a       161     0     7     1    17
 -8.6766746145242344E+00 a       162     0     7     1    18
  9.5953417290864422E+00 a       163     0     7     1    19
  5.0932890795239629E+00 a       164     0     7     1    20
  7.9001320319673507E+00 a       165     0     7     1    21
  1.1911588873052967E+01 a       166     0     7     1    22
  6.8165297969641401E+00 a       167     0     7     1    23
 -9.7194833121560489E+00 a       168     0     7     1    24
  8.1284639520774036E+00 a       169     0     8     1     1
  2.2893424525771437E+00 a       170     0     8     1     2
  1.4268193612052584E+00 a       171     0     8     1     3
  3.3630348323486814E+00 a       172     0     8     1     4
  1.1370142742238253E+01 a       173     0     8     1     5
 -5.5063340859811465E+00 a       174     0     8     1     6
  2.5809268787215678E+00 a       175     0     8     1     7
  5.4809941838913749E+00 a       176     0     8     1     8
 -4.5779584892648915E+00 a       177     0     8     1     9
  4.3934177714152078E-01 a       178     0     8     1    10
 -8.8774901403009423E+00 a       179     0     8     1    11
 -7.2528023039356508E+00 a       180     0     8     1    12
  4.2716652288018286E+00 a       181     0     8     1    13
 -1.7671651150006495E+00 a       182     0     8     1    14
  3.6450724148557905E+00 a       183     0     8     1    15
 -8.2024207939112692E+00 a       184     0     8     1    16
  1.2979741239100848E+01 a       185     0     8     1    17
  7.1587430054427914E+00 a       186     0     8     1    18
 -1.0023920052664684E+01 a       187     0     8     1    19
 -1.3064012560072845E+01 a       188     0     8     1    20
  1.1666128269709819E+01 a       189     0     8     1    21
 -7.9502291339909315E-01 a       190     0     8     1    22
 -1.1902002198745179E+00 a       191     0     8     1    23
 -9.4064156453053656E+00 a       192     0     8     1    24
  4.5146578310293295E+00 a       193     0     9     1     1
  3.0163088960442423E+00 a       194     0     9     1     2
 -1.4680999519366438E+00 a       195     0     9     1     3
 -1.9492521002612939E+00 a       196     0     9     1     4
  5.8478867903382676E+00 a       197     0     9     1     5
 -1.4679744367912896E+01 a       198     0     9     1     6
  4.1416376032377018E+00 a       199     0     9     1     7
  2.6583650041217743E+00 a       200     0     9     1     8
  4.0913370876787871E+00 a       201     0     9     1     9
  3.9020583829270752E+00 a       202     0     9     1    10
  1.1587285935384211E+00 a       203     0     9     1    11
  8.3595883033539238E+00 a       204     0     9     1    12
  2.0575688772306919E+00 a       205     0     9     1    13
  8.0977909812883873E+00 a       206     0     9     1    14
 -1.2549620631583977E+01 a       207     0     9     1    15
 -2.3819340131574331E+00 a       208     0     9     1    16
  3.8176887758946076E+00 a       209     0     9     1    17
 -1.3960229036229419E+00 a       210     0     9     1    18
 -8.0771506530735664E+00 a       211     0     9     1    19
 -8.7127454329432794E+00 a       212     0     9     1    20
 -9.4991466038768131E+00 a       213     0     9     1    21
 -1.1933223717813309E+01 a       214     0     9     1    22
 -7.7517110189573177E+00 a       215     0     9     1    23
  1.2551436491170860E+00 a       216     0     9     1    24
 -6.4748205299241990E+00 a       217     0    10     1     1
 -1.9727277378877714E-01 a       218     0    10     1     2
  3.8204598683959898E+00 a       219     0    10     1     3
 -2.9029844866563188E+00 a       220     0    10     1     4
 -9.6043651590201904E+00 a       221     0    10     1     5
  2.6301232144987705E+00 a       222     0    10     1     6
 -4.7321789515247499E+00 a       223     0    10     1     7
 -2.8691612878947481E+00 a       224     0    10     1     8
 -3.4406295520603396E+00 a       225     0    10     1     9
 -3.5237144777627241E+00 a       226     0    10     1    10
  8.5197858094691661E+00 a       227     0    10     1    11
 -1.8743363257198544E+00 a       228     0    10     1    12
  2.4564705283950481E+00 a       229     0    10     1    13
 -7.4469462038411773E+00 a       230     0    10     1    14
  4.1941575719950972E+00 a       231     0    10     1    15
  6.5787017988504495E+00 a       232     0    10     1    16
 -1.3629850265681423E+01 a       233     0    10     1    17
 -1.0110130738599899E+01 a       234     0    10     1    18
  7.8557761191769195E+00 a       235     0    10     1    19
  4.2306011375091197E+00 a       236     0    10     1    20
 -1.1720349394318502E+01 a       237     0    10     1    21
 -1.0910617298217611E+01 a       238     0    10     1    22
  3.5933437941043256E-01 a       239     0    10     1    23
  5.8037719891335167E+00 a       240     0    10     1    24
 -1.1033102585020661E-01 a       241     0    11     1     1
  1.4356592763097769E+00 a       242     0    11     1     2
  2.9614891457048365E+00 a       243     0    11     1     3
  1.4771213108966021E+00 a       244     0    11     1     4
  9.7906581075200450E-02 a       245     0    11     1     5
  3.4314171283018915E+00 a       246     0    11     1     6
  5.0846671859873982E-01 a       247     0    11     1     7
 -2.8349893991289150E+00 a       248     0    11     1     8
 -1.0390484726234694E+00 a       249     0    11     1     9
 -1.4912105348525335E+00 a       250     0    11     1    10
  6.4780025290221499E-01 a       251     0    11     1    11
 -4.9429118866927571E+00 a       252     0    11     1    12
 -2.1658119852830668E+00 a       253     0    11     1    13
 -3.5756169533308317E+00 a       254     0    11     1    14
  8.1543869956164841E+00 a       255     0    11     1    15
 -3.8121458059580227E-01 a       256     0    11     1    16
 -2.7134014868943774E+00 a       257     0    11     1    17
  6.2743584114952178E+00 a       258     0    11     1    18
  3.2055872142032520E+00 a       259     0    11     1    19
  3.4346931902437761E+00 a       260     0    11     1    20
  6.5915039883850479E+00 a       261     0    11     1    21
  1.7697343102933747E+00 a       262     0    11     1    22
  4.3733699407055040E+00 a       263     0    11     1    23
  1.8363092569350929E+00 a       264     0    11     1    24
  6.1586825832377485E+00 a       265     0    12     1     1
  2.3250573536832098E-01 a       266     0    12     1     2
 -9.8863677817995477E+00 a       267     0    12     1     3
  2.7975786989812708E+00 a       268     0    12     1     4
  3.7878886554384783E+00 a       269     0    12     1     5
 -1.3543049786635060E+00 a       270     0    12     1     6
  3.8175142503669708E+00 a       271     0    12     1     7
 -2.0379712120276787E+00 a       272     0    12     1     8
  1.6802290950604428E+00 a       273     0    12     1     9
 -3.1647251595621864E+00 a       274     0    12     1    10
 -3.4112051529006480E+00 a       275     0    12     1    11
  2.8139516816921297E+00 a       276     0    12     1    12
 -2.2673426919160331E+00 a       277     0    12     1    13
  3.1241493485080665E+00 a       278     0    12     1    14
 -6.2445759086569694E+00 a       279     0    12     1    15
 -3.2209811385171028E+00 a       280     0    12     1    16
  4.7144804554393680E+00 a       281     0    12     1    17
  1.9721328164974181E+00 a       282     0    12     1    18
 -1.2923534409483026E+00 a       283     0    12     1    19
  4.1400445761619853E-01 a       284     0    12     1    20
  4.6457686300786332E+00 a       285     0    12     1    21
  2.8689499244217722E+00 a       286     0    12     1    22
  3.9655754581257572E+00 a       287     0    12     1    23
 -2.6126056091132860E-01 a       288     0    12     1    24
  6.0553349137255594E+00 a       289     0    13     1     1
 -7.0992081063298551E+00 a       290     0    13     1     2
 -5.2995644088064502E+00 a       291     0    13     1     3
 -8.8134002763854653E+00 a       292     0    13     1     4
 -1.2924413581155505E+01 a       293     0    13     1     5
 -8.4822574539266782E+00 a       294     0    13     1     6
  1.8822007624745996E+00 a       295     0    13     1     7
 -7.0091643205933387E+00 a       296     0    13     1     8
 -3.2643113713892156E+00 a       297     0    13     1     9
 -6.7928778233828417E+00 a       298     0    13     1    10
 -6.8054156975959657E-01 a       299     0    13     1    11
  6.2218253939334174E+00 a       300     0    13     1    12
  1.2231659260524195E+01 a       301     0    13     1    13
  1.8441780670702668E+00 a       302     0    13     1    14
 -5.3924621382335571E+00 a       303     0    13     1    15
  3.0113063449267279E+00 a       304     0    13     1    16
 -7.6715661624380278E+00 a       305     0    13     1    17
 -6.3491001209740583E+00 a       306     0    13     1    18
  2.3365739727692190E+00 a       307     0    13     1    19
 -1.2356779381111771E+01 a       308     0    13     1    20
  6.9806156176805763E+00 a       309     0    13     1    21
 -3.5051298859583753E+00 a       310     0    13     1    22
 -1.6395646232717105E+00 a       311     0    13     1    23
 -8.2048478040104502E+00 a       312     0    13     1    24
 -1.9961551931700059E+00 a       313     0    14     1     1
  3.9601307452077741E+00 a       314     0    14     1     2
 -7.4040353628398368E+00 a       315     0    14     1     3
  6.7093477351279718E-01 a       316     0    14     1     4
 -5.3320203279767791E+00 a       317     0    14     1     5
  6.8229382761670943E+00 a       318     0    14     1     6
  5.8468984045308403E+00 a       319     0    14     1     7
  7.1557427046146236E+00 a       320     0    14     1     8
  2.9506870080729719E+00 a       321     0    14     1     9
 -2.1420521627073517E+00 a       322     0    14     1    10
  1.0831080380344181E+01 a       323     0    14     1    11
 -1.1993431375868109E+01 a       324     0    14     1    12
  8.6036741879002534E+00 a       325     0    14     1    13
 -1.4435454254650628E+01 a       326     0    14     1    14
 -1.0242373542996699E+00 a       327     0    14     1    15
  5.2437017251328282E+00 a       328     0    14     1    16
 -1.5408071333657600E-01 a       329     0    14     1    17
 -9.3374931675927506E+00 a       330     0    14     1    18
  1.7797461567372197E+00 a       331     0    14     1    19
  1.1715133447752590E+01 a       332     0    14     1    20
 -4.3851726268037652E+00 a       333     0    14     1    21
  2.7531851974073787E+00 a       334     0    14     1    22
 -1.3012067611623380E+01 a       335     0    14     1    23
 -7.1335134697820388E+00 a       336     0    14     1    24
  6.6222411659434588E+00 a       337     0    15     1     1
  4.7852335003259787E+00 a       338     0    15     1     2
 -4.7169520156953144E+00 a       339     0    15     1     3
  5.8367132286823455E+00 a       340     0    15     1     4
 -7.1598560811018688E+00 a       341     0    15     1     5
  2.5211261116674621E+00 a       342     0    15     1     6
 -8.7250151970753489E+00 a       343     0    15     1     7
 -1.2535556550472034E+01 a       344     0    15     1     8
 -4.7729908254417950E+00 a       345     0    15     1     9
  3.0583463068575978E+00 a       346     0    15     1    10
  4.2576311226348169E+00 a       347     0    15     1    11
  5.4351078677757885E+00 a       348     0    15     1    12
 -2.3408670013896189E+00 a       349     0    15     1    13
 -2.3579803778625106E+00 a       350     0    15     1    14
  1.9376123723569740E+00 a       351     0    15     1    15
 -3.8967575355045017E+00 a       352     0    15     1    16
 -6.2064242073861742E+00 a       353     0    15     1    17
 -7.7711592294312393E+00 a       354     0    15     1    18
  2.2127657857271603E+00 a       355     0    15     1    19
 -1.1745605303947219E+01 a       356     0    15     1    20
  3.4825291589566371E-01 a       357     0    15     1    21
  1.3249487690590136E+01 a       358     0    15     1    22
 -5.4183198960906331E+00 a       359     0    15     1    23
  3.4034137428379383E+00 a       360     0    15     1    24
 -5.5794661934697665E+00 a       361     0    16     1     1
 -4.1915928654986585E+00 a       362     0    16     1     2
  5.1102070094344141E+00 a       363     0    16     1     3
 -2.2356277588423099E+00 a       364     0    16     1     4
 -1.0835227681064612E+01 a       365     0    16     1     5
  6.8838440715634777E+00 a       366     0    16     1     6
  2.5465726668838444E+00 a       367     0    16     1     7
 -1.4956465896087721E+00 a       368     0    16     1     8
 -5.7103788578981929E+00 a       369     0    16     1     9
 -1.5259400697286353E+01 a       370     0    16     1    10
  1.4066482419238799E+01 a       371     0    16     1    11
 -8.8169048012285411E-01 a       372     0    16     1    12
  7.8051165917221699E+00 a       373     0    16     1    13
 -6.6361099705036573E+00 a       374     0    16     1    14
 -1.0699770142634060E+01 a       375     0    16     1    15
 -1.7131380603231289E+01 a       376     0    16     1    16
 -9.9290471080795903E+00 a       377     0    16     1    17
 -4.7517532013723569E+00 a       378     0    16     1    18
  9.5842344253783445E+00 a       379     0    16     1    19
  4.5296262169737771E+00 a       380     0    16     1    20
 -4.9140119173149763E+00 a       381     0    16     1    21
 -1.0055805581581014E+01 a       382     0    16     1    22
  1.1897601714179298E+00 a       383     0    16     1    23
  3.7219441605707770E-01 a       384     0    16     1    24
 -3.8440185918622474E+00 a       385     0    17     1     1
  3.2739295488572893E+00 a       386     0    17     1     2
 -1.5352783082782586E+00 a       387     0    17     1     3
  7.6267630767086541E+00 a       388     0    17     1     4
  9.2895135037348489E+00 a       389     0    17     1     5
  2.7615411060414692E+00 a       390     0    17     1     6
 -9.9451136919123808E+00 a       391     0    17     1     7
  9.4969692334897748E-01 a       392     0    17     1     8
 -9.1172405822051346E+00 a       393     0    17     1     9
  5.2807710752881520E-01 a       394     0    17     1    10
  2.7420958948594043E+00 a       395     0    17     1    11
 -2.4852297829552139E+00 a       396     0    17     1    12
  6.3077509289864295E+00 a       397     0    17     1    13
 -1.3311811120153408E+01 a       398     0    17     1    14
  1.2346980585263390E+00 a       399     0    17     1    15
 -2.9618452669440689E+00 a       400     0    17     1    16
 -1.9964543598195885E+00 a       401     0    17     1    17
 -1.8482757668685379E+00 a       402     0    17     1    18
 -3.8844779022350915E+00 a       403     0    17     1    19
  1.1789101500094306E+01 a       404     0    17     1    20
  1.2368426991019632E+01 a       405     0    17     1    21
  1.1780766853230511E+00 a       406     0    17     1    22
 -7.8622010414480492E+00 a       407     0    17     1    23
  4.0402971305015418E+00 a       408     0    17     1    24
 -2.7286980760227224E+00 a       409     0    18     1     1
 -2.8507822434325536E-01 a       410     0    18     1     2
  7.8295134672311750E+00 a       411     0    18     1     3
 -7.3997064035893008E+00 a       412     0    18     1     4
 -9.0060733580424990E-01 a       413     0    18     1     5
  7.4281033813542825E+00 a       414     0    18     1     6
 -6.6341096408835654E+00 a       415     0    18     1     7
 -6.2392226496069920E+00 a       416     0    18     1     8
 -3.1912440715681307E+00 a       417     0    18     1     9
 -1.2932583400819716E+01 a       418     0    18     1    10
  3.1772458434842603E+00 a       419     0    18     1    11
 -6.4162459101342106E+00 a       420     0    18     1    12
  6.0134242090678871E+00 a       421     0    18     1    13
 -1.5921960979516665E+01 a       422     0    18     1    14
 -8.0871239220070095E+00 a       423     0    18     1    15
 -1.3384987876526758E+01 a       424     0    18     1    16
  8.5084580692612044E-01 a       425     0    18     1    17
 -5.8241095837181485E+00 a       426     0    18     1    18
 -4.6398647098008547E+00 a       427     0    18     1    19
  6.3210947519290572E+00 a       428     0    18     1    20
  5.2078311064021854E+00 a       429     0    18     1    21
 -4.3811753463321033E+00 a       430     0    18     1    22
  2.8917671196967321E-01 a       431     0    18     1    23
 -1.3890646302246575E+01 a       432     0    18     1    24
 -4.6704374483145257E+00 a       433     0    19     1     1
  1.3725843620944390E+01 a       434     0    19     1     2
  7.0868976087372255E+00 a       435     0    19     1     3
 -8.0490529377330162E+00 a       436     0    19     1     4
 -5.4915768891141541E+00 a       437     0    19     1     5
  1.3568196465968263E+00 a       438     0    19     1     6
 -2.6400380766582549E-01 a       439     0    19     1     7
 -4.1606774041855399E+00 a       440     0    19     1     8
 -6.8923868117609937E+00 a       441     0    19     1     9
 -3.2033585157821678E+00 a       442     0    19     1    10
 -7.7785982831782610E+00 a       443     0    19     1    11
 -5.8002513712580877E+00 a       444     0    19     1    12
 -4.6938967724349725E+00 a       445     0    19     1    13
  8.0456431720603891E+00 a       446     0    19     1    14
  6.6322342463373518E+00 a       447     0    19     1    15
  8.9288669170655748E+00 a       448     0    19     1    16
 -4.1629944528134804E+00 a       449     0    19     1    17
  8.9007117163109442E+00 a       450     0    19     1    18
 -2.3458078766649463E-02 a       451     0    19     1    19
 -4.8152638666647176E+00 a       452     0    19     1    20
  2.6935901987817878E+00 a       453     0    19     1    21
 -3.7241396014829733E+00 a       454     0    19     1    22
  4.9977350902641762E+00 a       455     0    19     1    23
 -3.6851331208430000E+00 a       456     0    19     1    24
 -2.9721177514355990E+00 a       457     0    20     1     1
  2.8724035295947408E+00 a       458     0    20     1     2
 -8.4272528915281271E+00 a       459     0    20     1     3
  1.4600010358154993E+01 a       460     0    20     1     4
 -4.6210050550461226E+00 a       461     0    20     1     5
 -1.1991018335014376E+01 a       462     0    20     1     6
 -3.3192339979406191E+00 a       463     0    20     1     7
  8.4500531943986683E+00 a       464     0    20     1     8
  8.8311578642153226E+00 a       465     0    20     1     9
  5.5625309360076969E+00 a       466     0    20     1    10
  4.0898036044991288E+00 a       467     0    20     1    11
 -1.4263669155910887E+00 a       468     0    20     1    12
 -5.0957299628326314E-01 a       469     0    20     1    13
  9.7133844134854446E+00 a       470     0    20     1    14
  9.2599192332219040E+00 a       471     0    20     1    15
  7.8851640333758661E+00 a       472     0    20     1    16
 -3.8282433975349877E+00 a       473     0    20     1    17
 -8.9027495136591419E+00 a       474     0    20     1    18
  4.5084312642975251E+00 a       475     0    20     1    19
 -4.2575954739646438E+00 a       476     0    20     1    20
 -1.0534070341809114E+01 a       477     0    20     1    21
  4.9306641991780307E+00 a       478     0    20     1    22
  1.5035719886720049E+00 a       479     0    20     1    23
  7.6388486791755517E-01 a       480     0    20     1    24
 -1.2566880994038571E-01 a       481     0    21     1     1
 -1.8125862747706762E+01 a       482     0    21     1     2
 -6.4567477576371406E+00 a       483     0    21     1     3
  1.6885781253117782E+00 a       484     0    21     1     4
  9.9962154808405259E+00 a       485     0    21     1     5
 -1.2462941234774292E+00 a       486     0    21     1     6
  8.9456021016871752E+00 a       487     0    21     1     7
  1.3739571617179823E+01 a       488     0    21     1     8
  3.8024567975922507E+00 a       489     0    21     1     9
 -7.9322429405091004E+00 a       490     0    21     1    10
 -3.0110094271671719E+00 a       491     0    21     1    11
 -1.2616521704761205E+01 a       492     0    21     1    12
  4.5726048521578988E-01 a       493     0    21     1    13
  1.2806241041512965E+00 a       494     0    21     1    14
  2.8035938901402373E+00 a       495     0    21     1    15
 -3.6804490129362866E+00 a       496     0    21     1    16
 -8.8184565250052742E+00 a       497     0    21     1    17
  1.2331983928468386E+01 a       498     0    21     1    18
  6.8687428718451145E+00 a       499     0    21     1    19
 -3.1071634708235489E+00 a       500     0    21     1    20
 -5.6764418002880168E-01 a       501     0    21     1    21
  2.7820187516664807E-01 a       502     0    21     1    22
 -1.5856950047512937E+00 a       503     0    21     1    23
  6.0960881728631859E+00 a       504     0    21     1    24
 -1.7542287126674789E+00 a       505     0    22     1     1
  3.0714320568641114E+00 a       506     0    22     1     2
  3.4229811352408506E+00 a       507     0    22     1     3
  2.3030430181112025E+00 a       508     0    22     1     4
  1.4343710391733866E+01 a       509     0    22     1     5
  1.6095978539480775E+01 a       510     0    22     1     6
  3.9798601199894938E+00 a       511     0    22     1     7
 -6.8701218654618916E+00 a       512     0    22     1     8
  1.9492342342424940E+00 a       513     0    22     1     9
 -3.1344026249207273E+00 a       514     0    22     1    10
  3.4977968589679915E+00 a       515     0    22     1    11
 -1.2790235760605713E+01 a       516     0    22     1    12
 -5.3712028172102473E+00 a       517     0    22     1    13
  8.8787309669957093E-01 a       518     0    22     1    14
  2.8396303306732618E+00 a       519     0    22     1    15
 -5.5993687410424444E+00 a       520     0    22     1    16
  3.5776688113603741E+00 a       521     0    22     1    17
 -2.9625385607985457E+00 a       522     0    22     1    18
 -8.7010259804230046E+00 a       523     0    22     1    19
  2.8699736178104738E+00 a       524     0    22     1    20
  6.1017691925544488E+00 a       525     0    22     1    21
  1.4919388103446224E+01 a       526     0    22     1    22
  3.9943121545493104E-01 a       527     0    22     1    23
 -5.7002947492112286E+00 a       528     0    22     1    24
 -1.9100812639562397E+00 a       529     0    23     1     1
  3.0553923357166872E+00 a       530     0    23     1     2
  2.0921507227354916E+00 a       531     0    23     1     3
 -3.5133661177067221E-01 a       532     0    23     1     4
 -4.5944880745472122E-01 a       533     0    23     1     5
 -1.5598352033256785E-01 a       534     0    23     1     6
  5.3958822090360414E-01 a       535     0    23     1     7
 -6.7807778535613465E+00 a       536     0    23     1     8
  5.0257192638129480E+00 a       537     0    23     1     9
 -7.0165280037078337E-02 a       538     0    23     1    10
  3.7469841989075849E+00 a       539     0    23     1    11
 -6.5487397339814812E+00 a       540     0    23     1    12
  5.3461509869727166E+00 a       541     0    23     1    13
  6.8342482362399410E+00 a       542     0    23     1    14
 -1.2118069980628343E+00 a       543     0    23     1    15
  3.5331407419322294E+00 a       544     0    23     1    16
  9.5152037105855358E-01 a       545     0    23     1    17
 -1.5209201837929340E+00 a       546     0    23     1    18
 -5.1611169427618959E+00 a       547     0    23     1    19
  2.5830321610040912E+00 a       548     0    23     1    20
 -8.7480310512189483E+00 a       549     0    23     1    21
 -7.0803076847052440E+00 a       550     0    23     1    22
 -1.0844641508785029E+01 a       551     0    23     1    23
  4.7880606918940094E+00 a       552     0    23     1    24
 -2.0426750028976715E+00 a       553     0    24     1     1
  9.9242565196308530E-01 a       554     0    24     1     2
  3.0056121571485845E+00 a       555     0    24     1     3
  5.6480828875191147E-01 a       556     0    24     1     4
 -1.5208345627605915E+00 a       557     0    24     1     5
 -1.2830620855159408E+01 a       558     0    24     1     6
 -1.3934079286252095E+00 a       559     0    24     1     7
 -5.5619446612636692E+00 a       560     0    24     1     8
  4.1267907214502690E+00 a       561     0    24     1     9
  7.3897153141852057E+00 a       562     0    24     1    10
  4.3340302845405381E+00 a       563     0    24     1    11
  1.0050528692917888E+01 a       564     0    24     1    12
 -4.2775027717973302E+00 a       565     0    24     1    13
  1.7368678200999674E+00 a       566     0    24     1    14
  1.4805314768208799E+01 a       567     0    24     1    15
 -1.1811021049199126E+00 a       568     0    24     1    16
  8.5006717955856548E+00 a       569     0    24     1    17
  8.3259396306967108E+00 a       570     0    24     1    18
  4.1453927530554289E+00 a       571     0    24     1    19
 -1.8897940482930508E+01 a       572     0    24     1    20
 -5.1719501911103496E+00 a       573     0    24     1    21
  8.7418945209858361E+00 a       574     0    24     1    22
 -2.7651577502062028E+00 a       575     0    24     1    23
 -7.2815236711194418E+00 a       576     0    24     1    24
 -6.7475331126854279E+00 a       577     0    25     1     1
 -6.3527472100892690E-01 a       578     0    25     1     2
 -6.8370863746420776E+00 a       579     0    25     1     3
 -6.3391033231054994E+00 a       580     0    25     1     4
  7.5239864463441386E-01 a       581     0    25     1     5
 -1.4516154977379767E-01 a       582     0    25     1     6
  3.6372661251532645E-01 a       583     0    25     1     7
 -5.9518542758876327E+00 a       584     0    25     1     8
  4.3340245371285233E+00 a       585     0    25     1     9
  1.0189916621206505E+01 a       586     0    25     1    10
  4.9516125801645741E+00 a       587     0    25     1    11
  3.9385229620869242E+00 a       588     0    25     1    12
 -3.9961035550742974E+00 a       589     0    25     1    13
  2.4850101504458051E+00 a       590     0    25     1    14
 -3.6373338475001318E+00 a       591     0    25     1    15
  9.1586495078548680E+00 a       592     0    25     1    16
 -4.5597307804861522E+00 a       593     0    25     1    17
  5.0562804847085463E+00 a       594     0    25     1    18
  7.8967462399964772E+00 a       595     0    25     1    19
  1.6241807176084166E-01 a       596     0    25     1    20
  7.8474485255335908E+00 a       597     0    25     1    21
 -8.1690082149633481E-01 a       598     0    25     1    22
  7.3382348969302873E+00 a       599     0    25     1    23
 -8.5135503257832887E+00 a       600     0    25     1    24
  5.6625011178935365E+00 a       601     0    26     1     1
  5.6057997267841646E+00 a       602     0    26     1     2
  9.6744209999080677E-02 a       603     0    26     1     3
 -5.9304511549980388E-01 a       604     0    26     1     4
  5.5446844630614995E+00 a       605     0    26     1     5
  2.9920302103768388E+00 a       606     0    26     1     6
  2.7071042442519015E+00 a       607     0    26     1     7
 -5.6586138219672302E+00 a       608     0    26     1     8
 -4.4787058095285976E+00 a       609     0    26     1     9
  6.5060078168162851E+00 a       610     0    26     1    10
  2.1393592695706913E+00 a       611     0    26     1    11
  2.7534758630191409E+00 a       612     0    26     1    12
 -3.6001985771914216E+00 a       613     0    26     1    13
  6.1246812450661539E+00 a       614     0    26     1    14
 -7.7059643249919247E+00 a       615     0    26     1    15
 -7.2055563182347324E+00 a       616     0    26     1    16
 -2.4910713663349577E+00 a       617     0    26     1    17
 -8.8810623486324136E-01 a       618     0    26     1    18
  8.6193202495832697E+00 a       619     0    26     1    19
  3.2249794421410551E+00 a       620     0    26     1    20
  3.5161580076176331E+00 a       621     0    26     1    21
 -1.7796010662229231E+00 a       622     0    26     1    22
  1.1605794624080739E+00 a       623     0    26     1    23
 -2.3645792812671180E+00 a       624     0    26     1    24
  1.2155159340502422E-01 a       625     0    27     1     1
  7.0488870465782609E+00 a       626     0    27     1     2
 -4.8726714508963720E-01 a       627     0    27     1     3
 -1.0167485727952508E+01 a       628     0    27     1     4
  1.0524047317959509E+01 a       629     0    27     1     5
 -5.6815817806418414E+00 a       630     0    27     1     6
  1.9338871987203212E+00 a       631     0    27     1     7
  1.9696829289735867E+00 a       632     0    27     1     8
  1.0920214178208051E+01 a       633     0    27     1     9
 -3.2919299745157811E+00 a       634     0    27     1    10
 -2.2362908558592189E+00 a       635     0    27     1    11
 -2.4829735803009294E+00 a       636     0    27     1    12
 -4.6173504802849319E+00 a       637     0    27     1    13
  8.7281100266204472E+00 a       638     0    27     1    14
  2.4504536799695686E+00 a       639     0    27     1    15
  7.2356191633107487E+00 a       640     0    27     1    16
  2.0808395313795880E+00 a       641     0    27     1    17
 -3.2239556173878272E+00 a       642     0    27     1    18
  1.0138850853915897E+00 a       643     0    27     1    19
  4.9179692536428554E+00 a       644     0    27     1    20
 -1.8694591931360152E+00 a       645     0    27     1    21
 -4.0888061087679206E-01 a       646     0    27     1    22
  5.7156890430825014E+00 a       647     0    27     1    23
  5.6755882718461974E+00 a       648     0    27     1    24
 -8.2721790012856040E+00 a       649     0    28     1     1
  5.8391859254319707E+00 a       650     0    28     1     2
 -5.9521260034939427E+00 a       651     0    28     1     3
  1.2633789361180594E+00 a       652     0    28     1     4
  5.8839974615966781E+00 a       653     0    28     1     5
 -5.8265332000872849E+00 a       654     0    28     1     6
 -2.7647855456236403E+00 a       655     0    28     1     7
 -4.9116491223171836E+00 a       656     0    28     1     8
  6.0710713350579093E+00 a       657     0    28     1     9
 -3.1610443036250699E+00 a       658     0    28     1    10
 -3.2217557277839060E+00 a       659     0    28     1    11
 -4.8915770739250375E+00 a       660     0    28     1    12
 -8.7558486270141955E+00 a       661     0    28     1    13
  8.4691951828879830E+00 a       662     0    28     1    14
  6.1288111531729257E+00 a       663     0    28     1    15
 -7.1758993692450135E-01 a       664     0    28     1    16
 -1.3280346369929497E+00 a       665     0    28     1    17
 -1.2555876701221564E+01 a       666     0    28     1    18
  5.1955041032967939E+00 a       667     0    28     1    19
  9.0133974441509377E+00 a       668     0    28     1    20
 -5.8791601244243685E-01 a       669     0    28     1    21
  5.2885626872808944E-01 a       670     0    28     1    22
 -8.7820352821371550E-01 a       671     0    28     1    23
  5.6935457183810882E+00 a       672     0    28     1    24
 -3.8610219062377347E+00 a       673     0    29     1     1
  1.5832885936733753E+01 a       674     0    29     1     2
 -6.8982420202427281E+00 a       675     0    29     1     3
  2.0533932069350000E+00 a       676     0    29     1     4
 -1.1427441330924879E+00 a       677     0    29     1     5
 -9.3247471141231237E+00 a       678     0    29     1     6
 -4.4043941894404032E-01 a       679     0    29     1     7
  2.0300462534207639E+00 a       680     0    29     1     8
  2.7744237959418276E+00 a       681     0    29     1     9
  7.1067840415301573E+00 a       682     0    29     1    10
 -1.8083297671351839E+00 a       683     0    29     1    11
  1.1855489139189730E+01 a       684     0    29     1    12
 -3.6584611879300839E+00 a       685     0    29     1    13
  3.4684205483086381E+00 a       686     0    29     1    14
  3.4863070241123317E+00 a       687     0    29     1    15
 -9.0739712886517587E+00 a       688     0    29     1    16
  7.1221863377280812E+00 a       689     0    29     1    17
  5.8519434311506426E+00 a       690     0    29     1    18
 -1.9397761715472417E+00 a       691     0    29     1    19
 -1.0247524775755585E+00 a       692     0    29     1    20
  6.0612305626574674E+00 a       693     0    29     1    21
 -2.4218477188060136E-01 a       694     0    29     1    22
  1.1417514999672854E+01 a       695     0    29     1    23
 -8.5715581039221931E+00 a       696     0    29     1    24
  8.9135621953009121E+00 a       697     0    30     1     1
 -5.6207074556431005E+00 a       698     0    30     1     2
 -3.0227138473032413E+00 a       699     0    30     1     3
  6.3438265333499846E+00 a       700     0    30     1     4
  3.0419881760076901E+00 a       701     0    30     1     5
 -3.8793495375543356E+00 a       702     0    30     1     6
 -2.8066817934393504E-02 a       703     0    30     1     7
  8.2457636529634524E+00 a       704     0    30     1     8
 -9.8227520315615680E-01 a       705     0    30     1     9
  1.0374221566159994E+01 a       706     0    30     1    10
 -7.0307614855666083E+00 a       707     0    30     1    11
  3.5515864834276036E+00 a       708     0    30     1    12
 -4.6534932351422444E+00 a       709     0    30     1    13
  5.7359355719547596E+00 a       710     0    30     1    14
  5.7432200461233593E+00 a       711     0    30     1    15
 -3.8354361446765100E+00 a       712     0    30     1    16
 -2.2690604497737010E+00 a       713     0    30     1    17
  2.0606540175531589E+00 a       714     0    30     1    18
  3.2935941364264849E+00 a       715     0    30     1    19
  3.4622316969881006E+00 a       716     0    30     1    20
 -1.0106974349659401E+00 a       717     0    30     1    21
 -7.2954046328932307E+00 a       718     0    30     1    22
 -1.7972317186791373E+00 a       719     0    30     1    23
 -7.2059770428140100E+00 a       720     0    30     1    24
  4.9152513760449565E+00 a       721     0    31     1     1
 -1.0137991689189757E+01 a       722     0    31     1     2
 -9.1065372318503925E+00 a       723     0    31     1     3
  2.4818956902494675E+00 a       724     0    31     1     4
  6.4862394222602395E+00 a       725     0    31     1     5
 -1.3469073155866873E+01 a       726     0    31     1     6
 -7.2040630670235639E-01 a       727     0    31     1     7
 -6.6923207192946963E+00 a       728     0    31     1     8
  5.8198213795093166E+00 a       729     0    31     1     9
  6.3333369179433863E+00 a       730     0    31     1    10
 -4.1018098069526294E+00 a       731     0    31     1    11
 -2.1423575834525810E+00 a       732     0    31     1    12
 -1.3305809187543256E+00 a       733     0    31     1    13
  8.4941777656429251E-01 a       734     0    31     1    14
 -3.0411856245482856E+00 a       735     0    31     1    15
 -4.1826991694878064E+00 a       736     0    31     1    16
  1.1379560693991035E+00 a       737     0    31     1    17
 -3.2065456835981226E-01 a       738     0    31     1    18
  3.4874192502541983E+00 a       739     0    31     1    19
 -3.4630457810618478E+00 a       740     0    31     1    20
  5.2666278579708026E-01 a       741     0    31     1    21
 -1.6918122002735108E+00 a       742     0    31     1    22
 -3.4519244467299126E+00 a       743     0    31     1    23
  8.3021308474176958E-01 a       744     0    31     1    24
  4.7952515395175732E+00 a       745     0    32     1     1
  1.2646486365270737E+00 a       746     0    32     1     2
 -6.1998504134397492E-01 a       747     0    32     1     3
 -1.0689675120952378E+01 a       748     0    32     1     4
 -6.7447319838251163E+00 a       749     0    32     1     5
  4.9924593662112082E+00 a       750     0    32     1     6
  5.5247708857128215E+00 a       751     0    32     1     7
  3.8818899460757755E-02 a       752     0    32     1     8
  2.0040100602972601E+00 a       753     0    32     1     9
 -4.5292951524383289E+00 a       754     0    32     1    10
 -4.8471692208530461E+00 a       755     0    32     1    11
  2.3335386298373377E+00 a       756     0    32     1    12
  2.6266263228128515E+00 a       757     0    32     1    13
  5.5333627137556984E+00 a       758     0    32     1    14
 -3.3159951090316362E+00 a       759     0    32     1    15
  4.5519710505615558E+00 a       760     0    32     1    16
  5.6816085445355267E+00 a       761     0    32     1    17
 -6.3486593484098919E-01 a       762     0    32     1    18
 -4.7834812452262421E+00 a       763     0    32     1    19
 -2.9599702646561727E+00 a       764     0    32     1    20
  1.2094700507496994E-01 a       765     0    32     1    21
 -4.1871913751556820E+00 a       766     0    32     1    22
  2.8179766166655575E+00 a       767     0    32     1    23
 -2.2877551377961654E+00 a       768     0    32     1    24
  3.3122663352094297E+00 a       769     0    33     1     1
  5.8373218465802958E+00 a       770     0    33     1     2
 -1.9541294679748524E+00 a       771     0    33     1     3
  2.8761108862357978E+00 a       772     0    33     1     4
 -4.3271542705073935E+00 a       773     0    33     1     5
 -6.4767328884998392E+00 a       774     0    33     1     6
  5.2647290073591844E+00 a       775     0    33     1     7
 -7.9730519369824053E+00 a       776     0    33     1     8
 -4.1402991534113349E+00 a       777     0    33     1     9
  9.4489121956184565E+00 a       778     0    33     1    10
 -2.7855366239016561E+00 a       779     0    33     1    11
  9.9383256220277438E+00 a       780     0    33     1    12
 -8.2333954283933963E-01 a       781     0    33     1    13
  8.0442196057229847E+00 a       782     0    33     1    14
  4.6736560985110263E+00 a       783     0    33     1    15
  6.1954553041308049E+00 a       784     0    33     1    16
  4.4584960721726210E+00 a       785     0    33     1    17
 -4.6499233852683099E-02 a       786     0    33     1    18
 -5.0669261847782652E+00 a       787     0    33     1    19
  7.8594843823177163E-01 a       788     0    33     1    20
 -3.6860043238089970E+00 a       789     0    33     1    21
  1.8716405805419112E-01 a       790     0    33     1    22
  5.5149807059964351E-01 a       791     0    33     1    23
 -5.3747178422368522E+00 a       792     0    33     1    24
  2.9234999470665355E+00 a       793     0    34     1     1
 -8.2358730609051065E+00 a       794     0    34     1     2
  8.0844516730215166E-01 a       795     0    34     1     3
  4.5702968457538899E+00 a       796     0    34     1     4
 -1.7583096606568533E+00 a       797     0    34     1     5
 -2.2191560169420494E+00 a       798     0    34     1     6
  4.3497803980752642E-01 a       799     0    34     1     7
  3.4971862549208828E+00 a       800     0    34     1     8
  2.4874128391154433E+00 a       801     0    34     1     9
 -3.8071880934018227E+00 a       802     0    34     1    10
  5.9268799274925810E+00 a       803     0    34     1    11
 -2.5205940116603700E+00 a       804     0    34     1    12
 -5.6753874164388289E+00 a       805     0    34     1    13
  3.6649560553004235E+00 a       806     0    34     1    14
 -3.4127718242938676E+00 a       807     0    34     1    15
 -4.4469239624060748E+00 a       808     0    34     1    16
  6.2731971345182913E-01 a       809     0    34     1    17
 -3.5154357939379803E+00 a       810     0    34     1    18
  3.2107380708742959E+00 a       811     0    34     1    19
  1.2371058846945284E+00 a       812     0    34     1    20
 -9.2106923344241931E+00 a       813     0    34     1    21
 -3.3181108025468014E+00 a       814     0    34     1    22
  3.2421079491973943E+00 a       815     0    34     1    23
  2.9125065377053305E+00 a       816     0    34     1    24
  3.9499556325615232E-01 a       817     0    35     1     1
 -3.3613577153663585E+00 a       818     0    35     1     2
 -4.7977472266230609E-01 a       819     0    35     1     3
 -1.1389834815172468E+00 a       820     0    35     1     4
  3.7157227425243633E-01 a       821     0    35     1     5
 -1.6205531819360055E+00 a       822     0    35     1     6
 -5.6343286065943179E+00 a       823     0    35     1     7
  5.2312939587768992E-01 a       824     0    35     1     8
 -5.7295225414314377E+00 a       825     0    35     1     9
  4.3025485081032491E+00 a       826     0    35     1    10
 -9.7735524066775046E+00 a       827     0    35     1    11
  7.0135026648625578E+00 a       828     0    35     1    12
 -5.1631825514165683E+00 a       829     0    35     1    13
  6.3961582974941349E+00 a       830     0    35     1    14
  1.3685483311712334E+00 a       831     0    35     1    15
 -1.2209470962639521E+00 a       832     0    35     1    16
  4.3303200910081445E+00 a       833     0    35     1    17
  7.0008261081413004E+00 a       834     0    35     1    18
 -2.0180366311649571E+00 a       835     0    35     1    19
 -9.6371034875947248E-01 a       836     0    35     1    20
  3.3052262844432736E+00 a       837     0    35     1    21
  1.6973912786606156E+00 a       838     0    35     1    22
  8.9322725774352065E+00 a       839     0    35     1    23
  3.6682797882131561E+00 a       840     0    35     1    24
 -1.7761580474342098E+00 a       841     0    36     1     1
 -6.8407225991802356E+00 a       842     0    36     1     2
  2.0815660121329747E+00 a       843     0    36     1     3
 -3.9759188022183074E+00 a       844     0    36     1     4
  3.4215730715996315E+00 a       845     0    36     1     5
  4.8404627952361050E+00 a       846     0    36     1     6
  8.7092394339483068E+00 a       847     0    36     1     7
  4.3372618630104665E+00 a       848     0    36     1     8
 -8.5695220869515898E-01 a       849     0    36     1     9
 -6.1018365939971932E+00 a       850     0    36     1    10
 -5.6432792350514998E+00 a       851     0    36     1    11
  1.7494924467729966E+00 a       852     0    36     1    12
  1.2334511026268411E+00 a       853     0    36     1    13
  2.3642234401702358E+00 a       854     0    36     1    14
  8.5397561250457954E-01 a       855     0    36     1    15
  1.6739036375192256E+00 a       856     0    36     1    16
  4.2490301172711947E-01 a       857     0    36     1    17
  1.9398237016279105E+00 a       858     0    36     1    18
 -5.8484724948487861E+00 a       859     0    36     1    19
  8.7594938337372437E+00 a       860     0    36     1    20
 -3.2435571256760150E+00 a       861     0    36     1    21
 -1.3208161208486638E+01 a       862     0    36     1    22
 -1.3539349453141769E+00 a       863     0    36     1    23
 -3.6937097252386675E+00 a       864     0    36     1    24
 -5.7710443612758260E+00 a       865     0    37     1     1
  1.0715430010136080E+00 a       866     0    37     1     2
  5.7070823860874365E+00 a       867     0    37     1     3
  3.5168360305439772E+00 a       868     0    37     1     4
  5.9319636077999123E+00 a       869     0    37     1     5
  1.7721691848611512E-01 a       870     0    37     1     6
 -4.6138072680521591E-01 a       871     0    37     1     7
  2.7947233431436698E+00 a       872     0    37     1     8
  1.6707392740876965E+00 a       873     0    37     1     9
  1.0383233370274152E+00 a       874     0    37     1    10
 -4.9790941982115733E+00 a       875     0    37     1    11
 -2.2900530222292481E+00 a       876     0    37     1    12
 -4.7806575051031102E+00 a       877     0    37     1    13
 -9.6926263262881318E-01 a       878     0    37     1    14
  4.8918475329460822E+00 a       879     0    37     1    15
  1.2439061464294709E-01 a       880     0    37     1    16
 -1.1320454654729404E+00 a       881     0    37     1    17
  1.2150735517397186E+01 a       882     0    37     1    18
  2.9678814230674737E+00 a       883     0    37     1    19
  8.2121615887817700E+00 a       884     0    37     1    20
 -2.8192748812401671E+00 a       885     0    37     1    21
 -8.0797556160822044E+00 a       886     0    37     1    22
 -4.9865580877385034E-03 a       887     0    37     1    23
  6.9114487745832953E-02 a       888     0    37     1    24
  3.3959660300955212E+00 a       889     0    38     1     1
 -3.0891215775307335E+00 a       890     0    38     1     2
  4.5925113770704131E+00 a       891     0    38     1     3
  2.1847886527374047E-01 a       892     0    38     1     4
  5.1910604446729831E+00 a       893     0    38     1     5
 -4.5447250683658291E+00 a       894     0    38     1     6
  1.7792359521921350E+00 a       895     0    38     1     7
  8.0968464169783849E-01 a       896     0    38     1     8
 -7.1299546741031143E+00 a       897     0    38     1     9
 -4.6320737583773042E+00 a       898     0    38     1    10
 -5.9982955078674749E+00 a       899     0    38     1    11
  7.5005086193630692E+00 a       900     0    38     1    12
  4.4008740292549149E+00 a       901     0    38     1    13
  3.0318398488987248E+00 a       902     0    38     1    14
 -1.9827811827898492E+00 a       903     0    38     1    15
  1.2656976700573059E+00 a       904     0    38     1    16
 -3.1951708091741179E-02 a       905     0    38     1    17
 -2.1916746653678443E+00 a       906     0    38     1    18
  2.4247155874198487E+00 a       907     0    38     1    19
 -5.2482029597145790E+00 a       908     0    38     1    20
 -2.0690078024723548E+00 a       909     0    38     1    21
 -2.4941414474060886E+00 a       910     0    38     1    22
  5.8459155772894036E+00 a       911     0    38     1    23
  6.5012641507703570E+00 a       912     0    38     1    24
 -4.0076098527026653E+00 a       913     0    39     1     1
  7.1821232775814208E+00 a       914     0    39     1     2
  3.7756317880232890E+00 a       915     0    39     1     3
 -2.1460853731644955E+00 a       916     0    39     1     4
 -7.7995124083211751E+00 a       917     0    39     1     5
 -2.6938413978009450E+00 a       918     0    39     1     6
 -4.8564687525048278E+00 a       919     0    39     1     7
 -9.8791687721088872E-02 a       920     0    39     1     8
  2.7688666364926022E+00 a       921     0    39     1     9
  1.3828195591130865E+00 a       922     0    39     1    10
  2.8322622634830434E+00 a       923     0    39     1    11
  7.8777239761656856E+00 a       924     0    39     1    12
  1.0253995663966435E+01 a       925     0    39     1    13
 -5.4548589960948413E-01 a       926     0    39     1    14
 -4.3648742210585256E+00 a       927     0    39     1    15
  2.1039863806026804E+00 a       928     0    39     1    16
  5.7848676087268105E+00 a       929     0    39     1    17
  4.4784445094080523E+00 a       930     0    39     1    18
 -1.1468080394925908E+01 a       931     0    39     1    19
  2.5855236838867621E+00 a       932     0    39     1    20
  2.1066730275721253E+00 a       933     0    39     1    21
 -8.8107860084142686E+00 a       934     0    39     1    22
  3.5228006656272344E+00 a       935     0    39     1    23
 -8.2345512154481799E+00 a       936     0    39     1    24
  1.5699176439666154E+00 a       937     0    40     1     1
  1.3564669108689695E+00 a       938     0    40     1     2
  1.5091673985101361E-01 a       939     0    40     1     3
 -9.8367007030590914E-01 a       940     0    40     1     4
  3.3926537640036902E+00 a       941     0    40     1     5
 -7.2915849228080285E+00 a       942     0    40     1     6
  2.4526011874057483E+00 a       943     0    40     1     7
  3.5794571160380473E+00 a       944     0    40     1     8
  7.3336479245233432E+00 a       945     0    40     1     9
  7.8491312940160824E+00 a       946     0    40     1    10
  2.6061671517431395E+00 a       947     0    40     1    11
  6.8114245811855003E+00 a       948     0    40     1    12
 -6.8873327716892874E+00 a       949     0    40     1    13
 -6.2913839492635883E+00 a       950     0    40     1    14
  1.9939863252147760E+00 a       951     0    40     1    15
  1.1256725009979679E+01 a       952     0    40     1    16
 -2.4389089201408393E-01 a       953     0    40     1    17
 -1.1627458602696883E+00 a       954     0    40     1    18
  1.0610436123453268E+00 a       955     0    40     1    19
  2.9673063950955574E+00 a       956     0    40     1    20
  3.2473095156908069E+00 a       957     0    40     1    21
  2.7806511781363543E+00 a       958     0    40     1    22
 -1.0605865726467525E+00 a       959     0    40     1    23
  4.2705630505416190E+00 a       960     0    40     1    24
  4.7068183741580931E+00 a       961     0    41     1     1
  1.1990512012248800E+00 a       962     0    41     1     2
  5.6783123037800927E+00 a       963     0    41     1     3
 -4.2547538038259622E+00 a       964     0    41     1     4
 -7.2093147928719343E+00 a       965     0    41     1     5
  2.8573224304235274E+00 a       966     0    41     1     6
  4.0512644291330631E+00 a       967     0    41     1     7
 -5.0829965500011669E+00 a       968     0    41     1     8
 -3.1567042570087942E+00 a       969     0    41     1     9
 -4.4720082089985063E+00 a       970     0    41     1    10
 -3.3805719778162202E+00 a       971     0    41     1    11
  5.3940660457840517E+00 a       972     0    41     1    12
  7.2185735582935724E+00 a       973     0    41     1    13
  8.6387656380882927E-01 a       974     0    41     1    14
 -2.1172960997345194E+00 a       975     0    41     1    15
  3.2822444896828662E+00 a       976     0    41     1    16
  1.4846321905737554E+00 a       977     0    41     1    17
  5.3241557804823847E+00 a       978     0    41     1    18
 -9.0491292278991708E-01 a       979     0    41     1    19
 -6.2142508114024668E+00 a       980     0    41     1    20
 -4.4450983635776833E+00 a       981     0    41     1    21
 -5.5945578170029409E+00 a       982     0    41     1    22
  2.6468297894847557E+00 a       983     0    41     1    23
 -5.4074811484097784E+00 a       984     0    41     1    24
  2.3163953663919203E+00 a       985     0    42     1     1
 -7.2537703985960418E+00 a       986     0    42     1     2
 -6.1614744358335019E+00 a       987     0    42     1     3
  7.5603882095190018E+00 a       988     0    42     1     4
 -5.4419609358401271E+00 a       989     0    42     1     5
 -2.0070909440496068E+00 a       990     0    42     1     6
  1.9608366180863817E+00 a       991     0    42     1     7
  4.9174491747073823E+00 a       992     0    42     1     8
  4.9751016174127827E+00 a       993     0    42     1     9
  3.9769741365588542E+00 a       994     0    42     1    10
 -5.9084156163188928E-01 a       995     0    42     1    11
 -5.0355795212434300E+00 a       996     0    42     1    12
  3.0249758778195668E+00 a       997     0    42     1    13
  7.6331416575477542E+00 a       998     0    42     1    14
 -4.1007498226193917E+00 a       999     0    42     1    15
  4.7246195085667679E+00 a      1000     0    42     1    16
 -2.3724287999913388E-01 a      1001     0    42     1    17
 -3.5454117237916436E+00 a      1002     0    42     1    18
 -3.1793107558821460E-01 a      1003     0    42     1    19
  7.8652666890243754E+00 a      1004     0    42     1    20
 -2.0561940499714293E+00 a      1005     0    42     1    21
 -3.5894227080586880E+00 a      1006     0    42     1    22
  5.3159224205564133E+00 a      1007     0    42     1    23
  8.6757669876157220E+00 a      1008     0    42     1    24
  4.7002583205677180E+00 a      1009     0    43     1     1
  4.0178398670512472E+00 a      1010     0    43     1     2
  1.9174215172794666E+00 a      1011     0    43     1     3
  6.2390454533731452E+00 a      1012     0    43     1     4
 -1.7283541316984796E+00 a      1013     0    43     1     5
 -1.9068444676474807E+00 a      1014     0    43     1     6
 -1.8431471252428382E+00 a      1015     0    43     1     7
  5.0175050941744859E+00 a      1016     0    43     1     8
 -3.7774790796676374E+00 a      1017     0    43     1     9
 -4.5583333793764602E+00 a      1018     0    43     1    10
 -7.1303660848711630E+00 a      1019     0    43     1    11
 -9.8114354901764556E-01 a      1020     0    43     1    12
  3.8391445788612062E+00 a      1021     0    43     1    13
 -2.6734681652591661E+00 a      1022     0    43     1    14
 -1.9939453802262086E+00 a      1023     0    43     1    15
 -3.5646694204050697E+00 a      1024     0    43     1    16
  3.2571737280719586E+00 a      1025     0    43     1    17
  2.7402833671422826E+00 a      1026     0    43     1    18
 -3.5301752860049240E+00 a      1027     0    43     1    19
 -3.6575272131145651E+00 a      1028     0    43     1    20
  4.9456941420668254E-01 a      1029     0    43     1    21
 -4.5187243573713500E+00 a      1030     0    43     1    22
 -2.2132489315361061E+00 a      1031     0    43     1    23
  3.9553167998564254E+00 a      1032     0    43     1    24
 -4.9835087514155232E+00 a      1033     0    44     1     1
 -4.0239266284247064E+00 a      1034     0    44     1     2
 -3.1147044637085268E+00 a      1035     0    44     1     3
 -2.0212664209627080E+00 a      1036     0    44     1     4
 -4.6644016733649405E+00 a      1037     0    44     1     5
  1.1310246792084032E-01 a      1038     0    44     1     6
 -1.0589898744880952E+00 a      1039     0    44     1     7
  6.8307718777082318E+00 a      1040     0    44     1     8
  3.3623216718477940E+00 a      1041     0    44     1     9
 -6.2063660398144442E+00 a      1042     0    44     1    10
 -3.5139972689040517E+00 a      1043     0    44     1    11
  2.3748186628579546E+00 a      1044     0    44     1    12
  1.0499931338382600E+01 a      1045     0    44     1    13
 -3.1879802715564249E+00 a      1046     0    44     1    14
  6.3311347685701325E+00 a      1047     0    44     1    15
  1.1769635942246099E+01 a      1048     0    44     1    16
  5.0322231479233599E+00 a      1049     0    44     1    17
 -3.4881303051143203E-01 a      1050     0    44     1    18
 -1.0267259064321939E+01 a      1051     0    44     1    19
 -6.9046779708554826E+00 a      1052     0    44     1    20
  6.6496149845120345E-01 a      1053     0    44     1    21
  3.9908673108807537E+00 a      1054     0    44     1    22
 -2.7639397335978089E+00 a      1055     0    44     1    23
 -1.6148298323206725E+00 a      1056     0    44     1    24
 -2.8729779971775415E+00 a      1057     0    45     1     1
 -3.9575368194677489E+00 a      1058     0    45     1     2
  6.6582224218219439E+00 a      1059     0    45     1     3
  3.9547053878226399E+00 a      1060     0    45     1     4
 -1.1015085464641437E+01 a      1061     0    45     1     5
  4.7197457724270784E+00 a      1062     0    45     1     6
 -3.7221125840304135E+00 a      1063     0    45     1     7
 -4.1535213733279059E+00 a      1064     0    45     1     8
 -7.9037276112356620E+00 a      1065     0    45     1     9
  5.8277690143702623E+00 a      1066     0    45     1    10
  1.3023206615436749E+00 a      1067     0    45     1    11
  6.9953656045253441E+00 a      1068     0    45     1    12
  1.4618333415135051E+01 a      1069     0    45     1    13
 -1.1521834986165011E+01 a      1070     0    45     1    14
 -7.2344334652770774E+00 a      1071     0    45     1    15
 -7.2986855305239597E+00 a      1072     0    45     1    16
  4.5703180906666052E-01 a      1073     0    45     1    17
  1.8575380546227158E+00 a      1074     0    45     1    18
 -4.3423376660220940E+00 a      1075     0    45     1    19
 -1.0053346404068133E+01 a      1076     0    45     1    20
  5.7952430230451801E+00 a      1077     0    45     1    21
  6.6218077753310700E-01 a      1078     0    45     1    22
 -2.3622159226086253E-01 a      1079     0    45     1    23
 -8.7485921160199709E+00 a      1080     0    45     1    24
  5.4764355169109917E+00 a      1081     0    46     1     1
 -2.6205824028244640E-01 a      1082     0    46     1     2
  5.7172846111404034E+00 a      1083     0    46     1     3
  1.1162585985470808E+00 a      1084     0    46     1     4
 -4.3569797031802358E+00 a      1085     0    46     1     5
 -7.2154090296121731E-01 a      1086     0    46     1     6
  1.2839666587442236E+00 a      1087     0    46     1     7
  4.7389584643986353E+00 a      1088     0    46     1     8
 -2.6775150704340112E+00 a      1089     0    46     1     9
  4.4594980579320440E+00 a      1090     0    46     1    10
 -4.7313721288504338E+00 a      1091     0    46     1    11
  6.3922220294167200E+00 a      1092     0    46     1    12
  9.0024356915180928E+00 a      1093     0    46     1    13
  2.3725615349225632E-01 a      1094     0    46     1    14
 -6.3756799832010955E+00 a      1095     0    46     1    15
  7.4911455465712917E+00 a      1096     0    46     1    16
  5.3234759851712772E+00 a      1097     0    46     1    17
  2.0146112532196696E+00 a      1098     0    46     1    18
 -3.2208504140642877E+00 a      1099     0    46     1    19
 -1.1423941437334681E+01 a      1100     0    46     1    20
  5.7993003622950603E+00 a      1101     0    46     1    21
 -2.2979862277132947E+00 a      1102     0    46     1    22
 -2.8946171060990182E+00 a      1103     0    46     1    23
 -3.6838580272145984E+00 a      1104     0    46     1    24
  2.0777970342749175E+00 a      1105     0    47     1     1
 -5.6663935934998007E+00 a      1106     0    47     1     2
  6.0815265653212975E+00 a      1107     0    47     1     3
 -1.4403397112436640E+00 a      1108     0    47     1     4
  5.1479302332442227E+00 a      1109     0    47     1     5
  3.4862134284821340E+00 a      1110     0    47     1     6
  4.3252738897212389E-01 a      1111     0    47     1     7
  1.4427003285801272E+00 a      1112     0    47     1     8
 -2.2313710743868267E+00 a      1113     0    47     1     9
 -6.0464573960917845E+00 a      1114     0    47     1    10
  4.3172436592872856E+00 a      1115     0    47     1    11
 -5.2212814906910907E+00 a      1116     0    47     1    12
 -7.3525710126111332E-01 a      1117     0    47     1    13
 -7.0559114284889777E+00 a      1118     0    47     1    14
 -3.3621256459151483E+00 a      1119     0    47     1    15
  3.3738875124821783E+00 a      1120     0    47     1    16
 -3.8436791450343502E+00 a      1121     0    47     1    17
 -6.2783307795460939E+00 a      1122     0    47     1    18
  3.9401419453485689E+00 a      1123     0    47     1    19
  1.1766541971180873E+00 a      1124     0    47     1    20
 -3.0251793006484466E+00 a      1125     0    47     1    21
  1.6671268155226857E+00 a      1126     0    47     1    22
 -6.5185516499616201E+00 a      1127     0    47     1    23
  8.0661745915549492E+00 a      1128     0    47     1    24
 -9.7188216748673817E+00 a      1129     0    48     1     1
  5.3217978157384920E+00 a      1130     0    48     1     2
  2.5660729739826738E+00 a      1131     0    48     1     3
 -6.3193423994312061E+00 a      1132     0    48     1     4
 -6.7351756966449248E+00 a      1133     0    48     1     5
  3.2412508259162665E+00 a      1134     0    48     1     6
  4.6162453510765458E+00 a      1135     0    48     1     7
 -8.9997310343983710E+00 a      1136     0    48     1     8
 -1.7689441743379080E+00 a      1137     0    48     1     9
 -4.0140413283431462E+00 a      1138     0    48     1    10
  5.8827724944441337E+00 a      1139     0    48     1    11
 -1.3188006094791815E+00 a      1140     0    48     1    12
  8.9061373533417232E+00 a      1141     0    48     1    13
 -8.3680260061901492E+00 a      1142     0    48     1    14
 -6.8301735242597106E+00 a      1143     0    48     1    15
 -3.9334748324860815E-02 a      1144     0    48     1    16
  4.1443445165512449E-01 a      1145     0    48     1    17
  1.3284509974747996E+00 a      1146     0    48     1    18
 -3.6768070455956012E+00 a      1147     0    48     1    19
 -3.2083982532844098E+00 a      1148     0    48     1    20
  1.5793614677017649E+00 a      1149     0    48     1    21
  8.6243171636271612E+00 a      1150     0    48     1    22
  3.9249907749227382E+00 a      1151     0    48     1    23
  6.8088001005195755E+00 a      1152     0    48     1    24
  9.0053719700282042E-01 a      1153     0    49     1     1
 -3.0515443753208880E+00 a      1154     0    49     1     2
 -5.9526957612009710E+00 a      1155     0    49     1     3
  8.5965374360632332E+00 a      1156     0    49     1     4
  1.5784697457482510E+01 a      1157     0    49     1     5
 -7.4813107826336216E+00 a      1158     0    49     1     6
 -4.1100112202800663E+00 a      1159     0    49     1     7
 -5.6693694500331260E+00 a      1160     0    49     1     8
  5.3769183839978894E+00 a      1161     0    49     1     9
  1.5644438096645082E+01 a      1162     0    49     1    10
 -4.2644293015709129E+00 a      1163     0    49     1    11
 -7.5393990764173200E+00 a      1164     0    49     1    12
 -6.3131886180982884E+00 a      1165     0    49     1    13
  8.0837336168453644E-01 a      1166     0    49     1    14
 -1.1303524510250862E+00 a      1167     0    49     1    15
 -9.5184206202084329E+00 a      1168     0    49     1    16
  1.0541161863230393E+01 a      1169     0    49     1    17
  2.1300095147904234E+00 a      1170     0    49     1    18
 -2.9850633309750623E+00 a      1171     0    49     1    19
 -1.5900273405789722E-01 a      1172     0    49     1    20
  1.5877435611951825E+00 a      1173     0    49     1    21
 -4.1032676666784640E-01 a      1174     0    49     1    22
 -2.8048091521294878E+00 a      1175     0    49     1    23
  7.0547491013680457E+00 a      1176     0    49     1    24
  7.4079010888616204E-01 a      1177     0    50     1     1
  2.5121075152584487E+00 a      1178     0    50     1     2
  2.1900306415579824E+00 a      1179     0    50     1     3
 -8.7906063801577634E+00 a      1180     0    50     1     4
  2.3587050660310620E+00 a      1181     0    50     1     5
  1.1647173643813808E+00 a      1182     0    50     1     6
 -1.1405982429253785E+00 a      1183     0    50     1     7
 -8.3976964446930289E+00 a      1184     0    50     1     8
  6.7141868084024123E+00 a      1185     0    50     1     9
 -3.2064266389711782E+00 a      1186     0    50     1    10
 -1.3424584546125353E+00 a      1187     0    50     1    11
 -6.6241071194636314E-01 a      1188     0    50     1    12
 -1.9572918800329351E+01 a      1189     0    50     1    13
  7.0171304233566660E+00 a      1190     0    50     1    14
  8.5804787653868619E-01 a      1191     0    50     1    15
 -6.6019213747085939E+00 a      1192     0    50     1    16
 -1.1204446108105062E+00 a      1193     0    50     1    17
  6.5993852651965108E+00 a      1194     0    50     1    18
  6.1493474622691713E-01 a      1195     0    50     1    19
 -3.4823649226683711E+00 a      1196     0    50     1    20
  5.9897263840525321E+00 a      1197     0    50     1    21
 -5.9712364906720996E+00 a      1198     0    50     1    22
  1.0919754033129431E+01 a      1199     0    50     1    23
  1.0506141714640835E+00 a      1200     0    50     1    24
 -2.1119883136962585E+00 a      1201     0    51     1     1
  6.4687402370658487E-01 a      1202     0    51     1     2
  1.6901383034036890E+00 a      1203     0    51     1     3
  1.0318509399861345E-01 a      1204     0    51     1     4
  7.4260880655094290E+00 a      1205     0    51     1     5
 -1.0140328974874425E+01 a      1206     0    51     1     6
  1.0965918275892651E+01 a      1207     0    51     1     7
  2.0072408891706495E+00 a      1208     0    51     1     8
 -1.1649991631574670E+00 a      1209     0    51     1     9
  7.9873546568635483E+00 a      1210     0    51     1    10
 -2.0320073401180356E+00 a      1211     0    51     1    11
 -3.4844900896574735E+00 a      1212     0    51     1    12
 -7.4769341897761770E+00 a      1213     0    51     1    13
 -1.8662066669171362E-01 a      1214     0    51     1    14
 -3.8768577062229617E+00 a      1215     0    51     1    15
  3.9581702080986934E+00 a      1216     0    51     1    16
  1.0005452864882347E+00 a      1217     0    51     1    17
  1.5599510944090185E+00 a      1218     0    51     1    18
  6.7419667885903394E+00 a      1219     0    51     1    19
  7.0323917038771127E+00 a      1220     0    51     1    20
 -8.1201966623089550E-01 a      1221     0    51     1    21
 -6.1003045058617467E-01 a      1222     0    51     1    22
  1.1810447695040452E+01 a      1223     0    51     1    23
 -6.3911560975602810E-01 a      1224     0    51     1    24
  8.9254537558457319E+00 a      1225     0    52     1     1
 -6.9385446614184829E+00 a      1226     0    52     1     2
  3.7920970568057073E+00 a      1227     0    52     1     3
  6.8368437788941128E+00 a      1228     0    52     1     4
 -7.7099867002628997E-02 a      1229     0    52     1     5
  3.1871685198415660E+00 a      1230     0    52     1     6
 -1.5331746016292147E+00 a      1231     0    52     1     7
  4.5400807684178996E+00 a      1232     0    52     1     8
  2.8798462678075181E+00 a      1233     0    52     1     9
  2.6249490773043731E+00 a      1234     0    52     1    10
 -6.8588008006836176E+00 a      1235     0    52     1    11
 -2.0135285203837037E+00 a      1236     0    52     1    12
 -3.1023191094227465E+00 a      1237     0    52     1    13
  1.6848884148711232E+01 a      1238     0    52     1    14
  6.2770165283603312E+00 a      1239     0    52     1    15
  8.2308130680633269E+00 a      1240     0    52     1    16
  1.3587774260014070E+01 a      1241     0    52     1    17
 -1.3679162763470545E+00 a      1242     0    52     1    18
 -1.2563753583767593E+01 a      1243     0    52     1    19
 -4.8363742615223613E+00 a      1244     0    52     1    20
 -6.0237108817609979E+00 a      1245     0    52     1    21
  5.8643860890011785E+00 a      1246     0    52     1    22
  5.6062500734750902E+00 a      1247     0    52     1    23
 -8.4342068688746785E-01 a      1248     0    52     1    24
 -3.8781102674406971E+00 a      1249     0    53     1     1
 -6.1284270462183761E+00 a      1250     0    53     1     2
 -2.7417831336739446E-01 a      1251     0    53     1     3
 -4.3462671825972974E+00 a      1252     0    53     1     4
 -6.8407223275561613E-01 a      1253     0    53     1     5
 -5.8045932560308264E+00 a      1254     0    53     1     6
  4.1160646860354194E-01 a      1255     0    53     1     7
  4.9560039126734479E+00 a      1256     0    53     1     8
  3.7120581555732972E+00 a      1257     0    53     1     9
  9.1084450075948951E+00 a      1258     0    53     1    10
 -4.2779618312464009E+00 a      1259     0    53     1    11
  1.9008976946554068E-01 a      1260     0    53     1    12
 -2.1911714406571889E+01 a      1261     0    53     1    13
  7.2267690952970431E+00 a      1262     0    53     1    14
  2.3784285156163465E+00 a      1263     0    53     1    15
 -6.9125901534886323E+00 a      1264     0    53     1    16
 -3.4210570332560686E-01 a      1265     0    53     1    17
  8.4083566756577532E+00 a      1266     0    53     1    18
  1.0026166822685660E+01 a      1267     0    53     1    19
 -6.9629589922053263E+00 a      1268     0    53     1    20
 -4.3196875566535793E+00 a      1269     0    53     1    21
  8.6266048125329640E+00 a      1270     0    53     1    22
  1.8133191605573234E+01 a      1271     0    53     1    23
  2.1977062857336143E+00 a      1272     0    53     1    24
 -4.2091698081552416E+00 a      1273     0    54     1     1
  3.1110888404887764E+00 a      1274     0    54     1     2
 -8.5848203432512604E-01 a      1275     0    54     1     3
 -4.1129757402627876E+00 a      1276     0    54     1     4
  1.2528514057789549E+01 a      1277     0    54     1     5
  2.9031271118203339E+00 a      1278     0    54     1     6
  2.0196248789986484E+00 a      1279     0    54     1     7
  1.3508587002225767E+01 a      1280     0    54     1     8
  4.2664211413043454E+00 a      1281     0    54     1     9
  2.4224831770356098E-01 a      1282     0    54     1    10
 -3.1353370459976611E+00 a      1283     0    54     1    11
  8.7312479063624320E+00 a      1284     0    54     1    12
 -8.0160769390698849E+00 a      1285     0    54     1    13
  2.1283124927397417E+00 a      1286     0    54     1    14
  7.1360329181932007E+00 a      1287     0    54     1    15
  9.1336344559406424E+00 a      1288     0    54     1    16
 -4.0101893483063442E+00 a      1289     0    54     1    17
  7.0359345665506572E+00 a      1290     0    54     1    18
  3.4669771720987491E-01 a      1291     0    54     1    19
 -4.0860109523936385E+00 a      1292     0    54     1    20
 -3.3476503408084533E+00 a      1293     0    54     1    21
 -5.5510618650463019E+00 a      1294     0    54     1    22
 -6.1000754160779946E-01 a      1295     0    54     1    23
  8.3580845035998230E+00 a      1296     0    54     1    24
  5.6164373380015131E-01 a      1297     0    55     1     1
 -7.5588157870982107E+00 a      1298     0    55     1     2
  1.8235280318331013E+00 a      1299     0    55     1     3
  1.1164214221963331E+01 a      1300     0    55     1     4
  6.9821851191329349E+00 a      1301     0    55     1     5
  4.4558653129377550E+00 a      1302     0    55     1     6
 -4.8760636476359637E-01 a      1303     0    55     1     7
  6.4512784773618392E+00 a      1304     0    55     1     8
  1.9292955848599012E+00 a      1305     0    55     1     9
  3.2770904386281989E+00 a      1306     0    55     1    10
  2.9326894088673807E+00 a      1307     0    55     1    11
 -4.4542656677624920E-01 a      1308     0    55     1    12
  1.0536287746094219E+00 a      1309     0    55     1    13
 -1.2284731236930313E+00 a      1310     0    55     1    14
  4.8717102750436538E+00 a      1311     0    55     1    15
 -1.0027735243895675E+01 a      1312     0    55     1    16
  6.2636165783618756E+00 a      1313     0    55     1    17
  7.9611153281475149E+00 a      1314     0    55     1    18
 -2.0876784803038775E+00 a      1315     0    55     1    19
  6.2339600654481044E+00 a      1316     0    55     1    20
 -4.5045906533547636E-01 a      1317     0    55     1    21
 -3.3490734680465413E+00 a      1318     0    55     1    22
 -2.5794403214975610E+00 a      1319     0    55     1    23
 -3.6758747979840702E+00 a      1320     0    55     1    24
 -1.4980035433414780E+00 a      1321     0    56     1     1
 -1.0716877989297908E+00 a      1322     0    56     1     2
  5.3801701586817732E+00 a      1323     0    56     1     3
 -1.1352468313918306E+01 a      1324     0    56     1     4
  1.3511799821393300E+01 a      1325     0    56     1     5
  5.1157808773189259E+00 a      1326     0    56     1     6
  4.5877909524822842E+00 a      1327     0    56     1     7
 -6.9568665916771204E+00 a      1328     0    56     1     8
 -1.1225297532693340E+01 a      1329     0    56     1     9
 -3.0410231496003273E+00 a      1330     0    56     1    10
  2.9688982701121741E-01 a      1331     0    56     1    11
 -4.4735420233308627E+00 a      1332     0    56     1    12
 -1.2091167402811967E+01 a      1333     0    56     1    13
 -1.2940586087358573E+01 a      1334     0    56     1    14
 -2.7972038630513762E+00 a      1335     0    56     1    15
 -1.3384822513517646E+01 a      1336     0    56     1    16
  1.0321344135161323E+00 a      1337     0    56     1    17
  3.0138955784302430E+00 a      1338     0    56     1    18
  5.6712027726898375E+00 a      1339     0    56     1    19
  6.7001946790797708E+00 a      1340     0    56     1    20
  7.3140031238684422E+00 a      1341     0    56     1    21
 -1.5881763725724845E+00 a      1342     0    56     1    22
  4.9964221838790035E+00 a      1343     0    56     1    23
  3.8553356435938197E+00 a      1344     0    56     1    24
 -3.7114683235898309E+00 a      1345     0    57     1     1
  1.3463834458839667E+01 a      1346     0    57     1     2
  1.1034323104307044E+01 a      1347     0    57     1     3
 -1.6103650324205518E+00 a      1348     0    57     1     4
  1.5759267242950903E+00 a      1349     0    57     1     5
  3.6920060572188669E-02 a      1350     0    57     1     6
 -8.4519405797477773E+00 a      1351     0    57     1     7
 -6.2786093219721657E+00 a      1352     0    57     1     8
 -2.8628716626346158E+00 a      1353     0    57     1     9
  4.2950723003497941E+00 a      1354     0    57     1    10
  4.7858873660447712E+00 a      1355     0    57     1    11
  3.5442599892184856E+00 a      1356     0    57     1    12
 -1.0500266379484636E+01 a      1357     0    57     1    13
 -4.8198488674323006E+00 a      1358     0    57     1    14
 -1.8526850134065345E+00 a      1359     0    57     1    15
  2.6315392042601369E+00 a      1360     0    57     1    16
  3.0668514011972854E+00 a      1361     0    57     1    17
 -5.2908978559292432E+00 a      1362     0    57     1    18
  8.7716878755689731E-01 a      1363     0    57     1    19
  6.0848898781318779E+00 a      1364     0    57     1    20
  6.4189037297597584E-01 a      1365     0    57     1    21
 -6.5594640991320485E+00 a      1366     0    57     1    22
 -9.7093970537688112E-01 a      1367     0    57     1    23
 -3.4726940005630857E+00 a      1368     0    57     1    24
  2.3709782944481699E+00 a      1369     0    58     1     1
  5.9194252748865139E+00 a      1370     0    58     1     2
 -1.6015595106880902E+00 a      1371     0    58     1     3
 -3.2066160109118425E+00 a      1372     0    58     1     4
 -1.6712151654140570E+01 a      1373     0    58     1     5
 -1.7364098505530031E+01 a      1374     0    58     1     6
 -9.0058200388975840E-01 a      1375     0    58     1     7
  3.3975972645763046E+00 a      1376     0    58     1     8
  5.4567598141059177E+00 a      1377     0    58     1     9
  1.1771997922572481E+01 a      1378     0    58     1    10
 -6.7546691136892996E+00 a      1379     0    58     1    11
  2.1015099738547057E+01 a      1380     0    58     1    12
  1.5449229980362565E+01 a      1381     0    58     1    13
 -1.8920262515417636E+00 a      1382     0    58     1    14
  2.0190079415410397E-01 a      1383     0    58     1    15
  1.5589520284522044E+01 a      1384     0    58     1    16
 -2.6203580282362076E+00 a      1385     0    58     1    17
  3.4485361927499949E+00 a      1386     0    58     1    18
 -2.5830268113729469E+00 a      1387     0    58     1    19
 -5.5636212775934029E+00 a      1388     0    58     1    20
 -2.0754537916211251E+00 a      1389     0    58     1    21
 -6.7652580666629829E+00 a      1390     0    58     1    22
 -5.2945885207916887E-01 a      1391     0    58     1    23
  5.5579365743137314E+00 a      1392     0    58     1    24
  2.6862817523568685E+00 a      1393     0    59     1     1
  1.1984269252142685E+00 a      1394     0    59     1     2
 -5.0518449741813773E+00 a      1395     0    59     1     3
 -1.0350664737942397E+01 a      1396     0    59     1     4
  4.8876899009550447E+00 a      1397     0    59     1     5
  7.5488113929715333E+00 a      1398     0    59     1     6
  6.4999757623965522E+00 a      1399     0    59     1     7
  4.2687349590867649E+00 a      1400     0    59     1     8
  1.6055718494370423E+00 a      1401     0    59     1     9
 -2.3626756036744316E+00 a      1402     0    59     1    10
  5.0970198648437668E+00 a      1403     0    59     1    11
 -2.3813901477287347E+00 a      1404     0    59     1    12
 -1.2601494204005432E+01 a      1405     0    59     1    13
 -8.8786872755877422E+00 a      1406     0    59     1    14
  4.2312270424750764E+00 a      1407     0    59     1    15
 -6.3120901420761566E+00 a      1408     0    59     1    16
 -3.7614880680948781E+00 a      1409     0    59     1    17
  8.5186421648022193E-01 a      1410     0    59     1    18
  9.1769616090007027E+00 a      1411     0    59     1    19
 -4.6917059665981222E+00 a      1412     0    59     1    20
  3.7251696888059298E+00 a      1413     0    59     1    21
  1.5389229554295078E-01 a      1414     0    59     1    22
  1.3266085926800702E+01 a      1415     0    59     1    23
 -1.4608482775291632E+01 a      1416     0    59     1    24
  3.6118997605411218E+00 a      1417     0    60     1     1
  5.8443799356845068E+00 a      1418     0    60     1     2
 -3.7224826984320596E+00 a      1419     0    60     1     3
  3.1713627633405759E+00 a      1420     0    60     1     4
  3.0919098876127231E+00 a      1421     0    60     1     5
  8.7089864445323357E+00 a      1422     0    60     1     6
 -7.5926165091777387E-01 a      1423     0    60     1     7
  5.1637321157904692E+00 a      1424     0    60     1     8
 -6.4681730174933953E+00 a      1425     0    60     1     9
  6.8410526749602119E-01 a      1426     0    60     1    10
 -8.8749167620787244E+00 a      1427     0    60     1    11
 -1.0854922624790534E+01 a      1428     0    60     1    12
  1.7081666279410259E+00 a      1429     0    60     1    13
 -5.0080993710893873E-01 a      1430     0    60     1    14
 -1.6663212380863854E+01 a      1431     0    60     1    15
  2.3190107210405193E+00 a      1432     0    60     1    16
 -6.6106836619552425E+00 a      1433     0    60     1    17
 -1.0589733576125031E+01 a      1434     0    60     1    18
  1.0108515432869560E+00 a      1435     0    60     1    19
  1.0522550127668834E+01 a      1436     0    60     1    20
  4.2238006535554158E+00 a      1437     0    60     1    21
 -3.3891541548759387E+00 a      1438     0    60     1    22
  3.9247211060057534E+00 a      1439     0    60     1    23
  1.3254487281843863E+01 a      1440     0    60     1    24
  3.1992914214185713E+00 a      1441     0    61     1     1
 -1.8143451853477732E+00 a      1442     0    61     1     2
  3.9146113528684570E+00 a      1443     0    61     1     3
  3.7530175968783492E+00 a      1444     0    61     1     4
 -1.6491346455394522E+00 a      1445     0    61     1     5
 -1.0128375071796478E+00 a      1446     0    61     1     6
  1.1582562283836759E-01 a      1447     0    61     1     7
  1.6183701321761252E+00 a      1448     0    61     1     8
 -2.8007729703001476E+00 a      1449     0    61     1     9
 -8.6430562565370046E+00 a      1450     0    61     1    10
 -2.4271462079958841E+00 a      1451     0    61     1    11
 -7.0810922514332351E+00 a      1452     0    61     1    12
  2.2707719539266420E+00 a      1453     0    61     1    13
  2.9479637226077304E-01 a      1454     0    61     1    14
  5.3055135463856447E+00 a      1455     0    61     1    15
 -1.0788898519970134E+01 a      1456     0    61     1    16
  4.8942898620785584E+00 a      1457     0    61     1    17
 -7.9594197725075553E+00 a      1458     0    61     1    18
 -5.5432888917560481E+00 a      1459     0    61     1    19
  2.2143683481916696E-01 a      1460     0    61     1    20
 -9.6404469285445327E+00 a      1461     0    61     1    21
  6.9612544127222913E+00 a      1462     0    61     1    22
 -7.7358423661637854E+00 a      1463     0    61     1    23
  8.8997884757812535E+00 a      1464     0    61     1    24
 -7.3852071670281250E+00 a      1465     0    62     1     1
 -5.2159318745991872E+00 a      1466     0    62     1     2
 -1.1305666054691672E+00 a      1467     0    62     1     3
  3.9894518478367273E+00 a      1468     0    62     1     4
 -2.6842321072176745E+00 a      1469     0    62     1     5
 -2.6684551033360062E+00 a      1470     0    62     1     6
 -4.7245212673962502E+00 a      1471     0    62     1     7
  2.1349982003167827E+00 a      1472     0    62     1     8
  9.4480545699428724E+00 a      1473     0    62     1     9
 -6.6566248178795551E+00 a      1474     0    62     1    10
  7.1760938922854245E-01 a      1475     0    62     1    11
 -1.1162187507945019E+01 a      1476     0    62     1    12
 -8.4973209724817487E+00 a      1477     0    62     1    13
 -9.5757403522135842E+00 a      1478     0    62     1    14
  5.2013929614474295E+00 a      1479     0    62     1    15
 -2.2390465884731996E+00 a      1480     0    62     1    16
 -3.6151631899383836E+00 a      1481     0    62     1    17
  5.2241888225302375E+00 a      1482     0    62     1    18
  5.7206471960755767E-01 a      1483     0    62     1    19
  5.1749229664231136E+00 a      1484     0    62     1    20
 -3.6133804735177288E+00 a      1485     0    62     1    21
  2.2371529156413588E+00 a      1486     0    62     1    22
  1.1700175930236558E+00 a      1487     0    62     1    23
  6.2264556148296704E+00 a      1488     0    62     1    24
  1.4821128003014321E+00 a      1489     0    63     1     1
 -8.6917367212490184E+00 a      1490     0    63     1     2
 -3.8094322362974435E+00 a      1491     0    63     1     3
  1.4703576637859150E+01 a      1492     0    63     1     4
  1.9639562848848666E+00 a      1493     0    63     1     5
  7.5690872798655944E+00 a      1494     0    63     1     6
 -2.1568173154637273E+00 a      1495     0    63     1     7
  3.3510908197731601E+00 a      1496     0    63     1     8
 -8.4280072964812849E+00 a      1497     0    63     1     9
  5.1207926656092706E+00 a      1498     0    63     1    10
  2.8658219500276818E+00 a      1499     0    63     1    11
 -4.5710863746941479E+00 a      1500     0    63     1    12
 -1.6191057970255731E+01 a      1501     0    63     1    13
 -2.6666942290507460E+00 a      1502     0    63     1    14
  8.0236679181118351E+00 a      1503     0    63     1    15
 -2.4025760044421829E+00 a      1504     0    63     1    16
 -7.6392844434891130E+00 a      1505     0    63     1    17
  8.5165313369464908E+00 a      1506     0    63     1    18
  5.4840163377699724E+00 a      1507     0    63     1    19
  7.4556301375320198E+00 a      1508     0    63     1    20
 -4.2680136807695496E-01 a      1509     0    63     1    21
  6.2186127462489447E+00 a      1510     0    63     1    22
 -1.0503105983205343E+01 a      1511     0    63     1    23
 -3.2492105240988849E+00 a      1512     0    63     1    24
  4.7788718880723184E+00 a      1513     0    64     1     1
 -7.1761033285988791E+00 a      1514     0    64     1     2
  3.0555444781123908E+00 a      1515     0    64     1     3
  2.8567152799478754E+00 a      1516     0    64     1     4
  4.2007867178458680E+00 a      1517     0    64     1     5
  5.9866912769566669E+00 a      1518     0    64     1     6
  4.3890015881378295E+00 a      1519     0    64     1     7
  2.3804588147903649E+00 a      1520     0    64     1     8
 -4.3315766693573572E+00 a      1521     0    64     1     9
  3.0359480441947535E+00 a      1522     0    64     1    10
  8.0941687151321879E+00 a      1523     0    64     1    11
 -4.0531639242813142E+00 a      1524     0    64     1    12
 -3.8134737707096762E+00 a      1525     0    64     1    13
 -1.3152883059688488E+01 a      1526     0    64     1    14
 -8.6530412094407758E+00 a      1527     0    64     1    15
 -5.8714066976146402E+00 a      1528     0    64     1    16
 -6.1638728233608200E+00 a      1529     0    64     1    17
  1.6884233745869427E+01 a      1530     0    64     1    18
  4.0348841298522800E+00 a      1531     0    64     1    19
 -5.5835173380126513E+00 a      1532     0    64     1    20
 -1.4267843041220218E-01 a      1533     0    64     1    21
  4.2166266734837041E+00 a      1534     0    64     1    22
  9.8001391537262772E-01 a      1535     0    64     1    23
 -4.6698439816071744E+00 a      1536     0    64     1    24
  3.5540592129158655E+00 a      1537     0    65     1     1
 -2.0918005628100385E+01 a      1538     0    65     1     2
  8.6251704518608818E+00 a      1539     0    65     1     3
  4.0371736180689579E+00 a      1540     0    65     1     4
 -2.4920993203246491E+00 a      1541     0    65     1     5
  1.2551694094201579E+01 a      1542     0    65     1     6
  3.2317415083597145E-01 a      1543     0    65     1     7
 -1.2731797275752537E+00 a      1544     0    65     1     8
 -2.0447447959241232E+00 a      1545     0    65     1     9
 -6.2901929131274690E+00 a      1546     0    65     1    10
  8.1183921792733071E-01 a      1547     0    65     1    11
 -1.4666179639653395E+01 a      1548     0    65     1    12
  7.0365580009565853E+00 a      1549     0    65     1    13
  1.8621919131473332E+00 a      1550     0    65     1    14
 -1.8589435735828788E+00 a      1551     0    65     1    15
  9.8757135716693263E+00 a      1552     0    65     1    16
 -7.8096292488336960E+00 a      1553     0    65     1    17
 -9.6224169448907961E+00 a      1554     0    65     1    18
 -4.0077140882075639E+00 a      1555     0    65     1    19
 -5.6149190111187230E-01 a      1556     0    65     1    20
 -5.5644561548067957E+00 a      1557     0    65     1    21
 -5.2654422407825224E-02 a      1558     0    65     1    22
 -1.7628292075737779E+01 a      1559     0    65     1    23
  8.8918081818395880E+00 a      1560     0    65     1    24
 -2.7040153894050851E+00 a      1561     0    66     1     1
  6.5216983835863651E+00 a      1562     0    66     1     2
 -5.2942363407500048E-01 a      1563     0    66     1     3
 -3.9569630641422711E+00 a      1564     0    66     1     4
  7.0740562243973990E+00 a      1565     0    66     1     5
  3.7879854264821633E+00 a      1566     0    66     1     6
 -4.3565843277211069E+00 a      1567     0    66     1     7
 -1.9694049383913039E+00 a      1568     0    66     1     8
  2.7010217744966025E-01 a      1569     0    66     1     9
 -8.3530835906392298E+00 a      1570     0    66     1    10
  3.4611084535376446E+00 a      1571     0    66     1    11
 -5.0339463856080604E+00 a      1572     0    66     1    12
 -5.6233363955188969E+00 a      1573     0    66     1    13
  1.4366426003793009E+00 a      1574     0    66     1    14
 -3.5829495738097172E+00 a      1575     0    66     1    15
  7.8421667032273179E+00 a      1576     0    66     1    16
  3.4760523637819647E+00 a      1577     0    66     1    17
 -1.9111328879387917E+00 a      1578     0    66     1    18
 -1.7885546497329265E+00 a      1579     0    66     1    19
 -8.7214162308170334E-02 a      1580     0    66     1    20
  3.3039418477943419E+00 a      1581     0    66     1    21
  9.9864860752336817E+00 a      1582     0    66     1    22
  3.7814080894913742E+00 a      1583     0    66     1    23
  3.7471299961664775E+00 a      1584     0    66     1    24
 -9.9967477180402060E+00 a      1585     0    67     1     1
  1.9543721786427277E+01 a      1586     0    67     1     2
  5.1209563026184792E+00 a      1587     0    67     1     3
 -8.2068012865348869E+00 a      1588     0    67     1     4
 -2.6923814078252950E+00 a      1589     0    67     1     5
 -5.8786415945391401E-01 a      1590     0    67     1     6
 -7.6290425919615656E-02 a      1591     0    67     1     7
  3.0907212906774593E+00 a      1592     0    67     1     8
 -2.0346467711098444E+00 a      1593     0    67     1     9
  4.3245792013784294E+00 a      1594     0    67     1    10
  1.1480219732977851E+01 a      1595     0    67     1    11
  1.7518841325347938E+00 a      1596     0    67     1    12
 -2.8153974402245026E+00 a      1597     0    67     1    13
 -1.1815011625067346E+01 a      1598     0    67     1    14
 -4.8804723205626708E+00 a      1599     0    67     1    15
  8.0143295235367429E+00 a      1600     0    67     1    16
 -6.2652762170314960E+00 a      1601     0    67     1    17
 -4.7934086043157320E+00 a      1602     0    67     1    18
 -5.0911870826754513E-01 a      1603     0    67     1    19
  3.2063170596027071E+00 a      1604     0    67     1    20
  6.7392705243022890E+00 a      1605     0    67     1    21
 -4.0679431903318655E+00 a      1606     0    67     1    22
  1.5633755916022749E+00 a      1607     0    67     1    23
  1.2224902201869583E+01 a      1608     0    67     1    24
 -1.3838236369342130E+00 a      1609     0    68     1     1
 -1.4488085722667101E+00 a      1610     0    68     1     2
  3.8388099559609850E+00 a      1611     0    68     1     3
  1.9892222645413298E+01 a      1612     0    68     1     4
  2.9855068261364308E+00 a      1613     0    68     1     5
 -5.1434032683110313E+00 a      1614     0    68     1     6
 -7.7709039631982204E+00 a      1615     0    68     1     7
 -9.6248816273524671E+00 a      1616     0    68     1     8
 -1.8160818246999404E+00 a      1617     0    68     1     9
 -6.2151147470476271E+00 a      1618     0    68     1    10
  5.6472756887507654E+00 a      1619     0    68     1    11
  1.2962181369288364E+00 a      1620     0    68     1    12
  8.3389996806951530E+00 a      1621     0    68     1    13
  1.3255926228567543E+00 a      1622     0    68     1    14
  3.3623019607312861E+00 a      1623     0    68     1    15
