################################################################################
# Neural network connection values (weights and biases).
################################################################################
# Col  Name       Description
################################################################################
# 1    connection Neural network connection value.
# 2    t          Connection type (a = weight, b = bias).
# 3    index      Index enumerating weights.
# 4    l_s        Starting point layer (end point layer for biases).
# 5    n_s        Starting point neuron in starting layer (end point neuron for biases).
# 6    l_e        End point layer.
# 7    n_e        End point neuron in end layer.
################################################################################
#                      1 2         3     4     5     6     7
#             connection t     index   l_s   n_s   l_e   n_e
############################################################
  1.4833298614092736E+00 a         1     0     1     1     1
  7.0866222946862678E-01 a         2     0     1     1     2
  9.9386544550339231E+00 a         3     0     1     1     3
  1.0630193095819598E+00 a         4     0     1     1     4
  1.1153898549744609E+01 a         5     0     1     1     5
  7.7248834643084887E+00 a         6     0     1     1     6
  2.2198576854943877E+00 a         7     0     1     1     7
  3.3601005361356382E+00 a         8     0     1     1     8
  8.9950015641141523E-01 a         9     0     1     1     9
 -3.0828402111805744E+00 a        10     0     1     1    10
 -3.7869013270490806E+00 a        11     0     1     1    11
  4.4020722798572329E+00 a        12     0     1     1    12
  2.8714235529473315E+00 a        13     0     1     1    13
  4.3025658512825116E+00 a        14     0     1     1    14
 -2.5920722838714410E+00 a        15     0     1     1    15
 -5.9884181300734989E+00 a        16     0     1     1    16
 -6.6375022455080990E-01 a        17     0     1     1    17
 -9.7993370581895467E-01 a        18     0     1     1    18
 -1.3948745422985476E+00 a        19     0     1     1    19
  3.9679888051833778E+00 a        20     0     1     1    20
 -1.0487247662913092E-01 a        21     0     1     1    21
 -9.0679445318507934E+00 a        22     0     1     1    22
 -8.7193419917471058E+00 a        23     0     1     1    23
  9.4572568600603741E+00 a        24     0     1     1    24
 -3.2545035456854952E+00 a        25     0     2     1     1
  8.8298198850928440E+00 a        26     0     2     1     2
  1.4444817589264565E+01 a        27     0     2     1     3
 -7.9517172601954123E+00 a        28     0     2     1     4
  9.6849874330971080E+00 a        29     0     2     1     5
  7.4563940841262726E+00 a        30     0     2     1     6
  9.6786491056323332E-01 a        31     0     2     1     7
  1.0289788638718441E+01 a        32     0     2     1     8
 -1.6505327781353650E+01 a        33     0     2     1     9
 -1.5363033314727215E+00 a        34     0     2     1    10
  1.8134362647008648E+00 a        35     0     2     1    11
 -3.9883910754524474E+00 a        36     0     2     1    12
 -1.0612177190012652E+01 a        37     0     2     1    13
  1.1959775674495910E+01 a        38     0     2     1    14
  1.4405758283834171E+01 a        39     0     2     1    15
 -4.4223033129298308E+00 a        40     0     2     1    16
 -7.0887991951789662E+00 a        41     0     2     1    17
 -2.0421872093611821E+01 a        42     0     2     1    18
 -2.5975534963972458E-01 a        43     0     2     1    19
  4.8912537644937926E+00 a        44     0     2     1    20
  2.4270785398747967E+00 a        45     0     2     1    21
  4.3190018932995917E+00 a        46     0     2     1    22
  1.1246884787339857E+00 a        47     0     2     1    23
  1.0987565175608648E+01 a        48     0     2     1    24
 -5.0382756853134403E+00 a        49     0     3     1     1
 -1.1237340651549721E+00 a        50     0     3     1     2
 -3.0393781487603944E+00 a        51     0     3     1     3
 -2.0717283240249103E+00 a        52     0     3     1     4
 -9.1257880698547460E+00 a        53     0     3     1     5
 -8.7182126211828415E+00 a        54     0     3     1     6
 -4.4402657330275241E+00 a        55     0     3     1     7
 -8.9580660075414933E+00 a        56     0     3     1     8
 -3.6176768662110064E+00 a        57     0     3     1     9
 -3.0247141981297827E+00 a        58     0     3     1    10
  4.5756886592624522E+00 a        59     0     3     1    11
 -2.7685140191575046E+00 a        60     0     3     1    12
 -2.1765429978715125E+00 a        61     0     3     1    13
 -7.0290491139061659E+00 a        62     0     3     1    14
  1.4897355717878449E-01 a        63     0     3     1    15
  3.8022167911247600E+00 a        64     0     3     1    16
 -1.4513883808726564E+00 a        65     0     3     1    17
 -1.8278324216531561E+00 a        66     0     3     1    18
  1.4585195668655460E+00 a        67     0     3     1    19
 -2.8926788330382065E+00 a        68     0     3     1    20
 -2.0038400896300192E+00 a        69     0     3     1    21
  8.5782668854862880E+00 a        70     0     3     1    22
  6.0729810208664547E+00 a        71     0     3     1    23
 -6.4728501743191087E+00 a        72     0     3     1    24
 -3.0795138843010252E+00 a        73     0     4     1     1
 -1.1680107393054891E+01 a        74     0     4     1     2
 -7.1653444588808082E+00 a        75     0     4     1     3
  1.0947217415557089E+01 a        76     0     4     1     4
 -1.1533407153159484E+01 a        77     0     4     1     5
 -4.2731696804757513E-01 a        78     0     4     1     6
  3.2061080127870398E+00 a        79     0     4     1     7
 -1.4414032760198417E+01 a        80     0     4     1     8
  1.2460863568998230E+01 a        81     0     4     1     9
 -4.2761301792008819E+00 a        82     0     4     1    10
 -1.4656290869787374E+00 a        83     0     4     1    11
 -3.5732350426694244E+00 a        84     0     4     1    12
  1.3414654191905562E+01 a        85     0     4     1    13
 -5.5255467573263060E+00 a        86     0     4     1    14
 -7.5271909689338274E+00 a        87     0     4     1    15
  2.9245775330514734E+00 a        88     0     4     1    16
  6.6964758575605750E+00 a        89     0     4     1    17
  7.3399709739652064E+00 a        90     0     4     1    18
  2.3369512042284997E-02 a        91     0     4     1    19
 -9.9635195659568012E+00 a        92     0     4     1    20
 -7.2664997335695247E+00 a        93     0     4     1    21
  4.6066883699894126E+00 a        94     0     4     1    22
  1.9521009454826779E-01 a        95     0     4     1    23
 -6.1912124550107528E+00 a        96     0     4     1    24
 -8.4201211562985478E-01 a        97     0     5     1     1
 -2.6304087650615621E-01 a        98     0     5     1     2
 -7.4544554372735687E+00 a        99     0     5     1     3
  5.7415716990775714E+00 a       100     0     5     1     4
 -1.2330934819993299E+01 a       101     0     5     1     5
 -9.4885760836057695E+00 a       102     0     5     1     6
 -5.4201922648716083E+00 a       103     0     5     1     7
 -1.2474032870269693E+00 a       104     0     5     1     8
 -1.0433581191467500E+00 a       105     0     5     1     9
  1.1490092374455028E+00 a       106     0     5     1    10
  2.0461045986616635E+00 a       107     0     5     1    11
 -6.7949724635764630E+00 a       108     0     5     1    12
 -7.6083279567053026E+00 a       109     0     5     1    13
 -4.5519809186304219E+00 a       110     0     5     1    14
  5.2378299889492403E+00 a       111     0     5     1    15
  6.1390866698960336E+00 a       112     0     5     1    16
 -6.1808456810704049E-01 a       113     0     5     1    17
  5.7640577215857269E-01 a       114     0     5     1    18
  2.4311399315471451E+00 a       115     0     5     1    19
 -7.4202249187454705E-01 a       116     0     5     1    20
 -1.7447240424032682E+00 a       117     0     5     1    21
  8.1773693891750039E+00 a       118     0     5     1    22
  3.5449709919122614E+00 a       119     0     5     1    23
 -1.2811092571374809E+01 a       120     0     5     1    24
 -6.3861842005597662E+00 a       121     0     6     1     1
 -6.7003205866172681E+00 a       122     0     6     1     2
 -1.6829969563548911E+01 a       123     0     6     1     3
  4.3141988255104975E+00 a       124     0     6     1     4
 -3.9110371310224030E+00 a       125     0     6     1     5
 -6.5698261028860143E+00 a       126     0     6     1     6
 -1.0402101620290041E+00 a       127     0     6     1     7
 -2.7400778232183596E+00 a       128     0     6     1     8
  8.9337538303426935E+00 a       129     0     6     1     9
  6.9546588125062145E+00 a       130     0     6     1    10
 -1.6808152729656374E+00 a       131     0     6     1    11
 -1.1057476091391574E+00 a       132     0     6     1    12
  4.1207971970762172E+00 a       133     0     6     1    13
 -7.1601256902655193E+00 a       134     0     6     1    14
 -1.4614198067122588E+01 a       135     0     6     1    15
  7.5250797148575117E+00 a       136     0     6     1    16
  9.1529108392502252E+00 a       137     0     6     1    17
  1.7018604887651914E+01 a       138     0     6     1    18
  1.0432640867930085E+00 a       139     0     6     1    19
  6.6254141126602595E-01 a       140     0     6     1    20
  3.0450797248686540E-01 a       141     0     6     1    21
 -8.0219507502499496E+00 a       142     0     6     1    22
 -1.2370582201797549E+00 a       143     0     6     1    23
 -9.4256873725095680E+00 a       144     0     6     1    24
  9.5905484943480932E+00 a       145     0     7     1     1
 -1.2042812855971752E+00 a       146     0     7     1     2
 -2.3848359251438778E+00 a       147     0     7     1     3
  2.8961239040049103E+00 a       148     0     7     1     4
  1.0503151602197528E+01 a       149     0     7     1     5
  1.1331980057397113E+01 a       150     0     7     1     6
  1.1558226412537151E+01 a       151     0     7     1     7
  1.4327468342381236E+01 a       152     0     7     1     8
  6.9898271623934871E+00 a       153     0     7     1     9
  1.5479970854526879E+01 a       154     0     7     1    10
 -8.9779117613244743E+00 a       155     0     7     1    11
  1.0589734811718088E+01 a       156     0     7     1    12
 -4.4438773718318219E+00 a       157     0     7     1    13
  1.5045668421297286E+01 a       158     0     7     1    14
  9.4457721898371929E+00 a       159     0     7     1    15
  2.9648837035388786E+00 a       160     0     7     1    16
  3.0540666671297516E+00 a       161     0     7     1    17
  1.0899914622494828E+01 a       162     0     7     1    18
 -2.9516195601086879E+00 a       163     0     7     1    19
  6.6726703329678863E+00 a       164     0     7     1    20
 -9.1805787862309851E-01 a       165     0     7     1    21
 -7.4661015785019771E+00 a       166     0     7     1    22
 -9.8089280361337927E+00 a       167     0     7     1    23
  8.8616558640559848E+00 a       168     0     7     1    24
  1.3670516527458942E+01 a       169     0     8     1     1
  9.4422225741175918E+00 a       170     0     8     1     2
  8.7168079830437328E+00 a       171     0     8     1     3
 -1.1609852713672350E+01 a       172     0     8     1     4
  7.4286982524150202E+00 a       173     0     8     1     5
  8.7693306761096732E+00 a       174     0     8     1     6
  2.5619656035171285E+00 a       175     0     8     1     7
  1.6617088253709557E+01 a       176     0     8     1     8
 -1.2930491639693352E+01 a       177     0     8     1     9
  1.6979265635375014E+00 a       178     0     8     1    10
  3.6963655008847968E-01 a       179     0     8     1    11
  1.9171214692203375E+01 a       180     0     8     1    12
 -1.6828476862903511E+01 a       181     0     8     1    13
  1.0418010975785630E+00 a       182     0     8     1    14
  1.9390569507223535E+01 a       183     0     8     1    15
 -1.2190655741110174E+01 a       184     0     8     1    16
 -8.5077284113092322E+00 a       185     0     8     1    17
 -3.8909455327146185E+00 a       186     0     8     1    18
 -2.8675930276385349E+00 a       187     0     8     1    19
  8.5824388046653812E+00 a       188     0     8     1    20
  1.3078559901758739E+01 a       189     0     8     1    21
 -1.0534378530450725E+01 a       190     0     8     1    22
 -9.3189408095814521E+00 a       191     0     8     1    23
  8.5343498530516797E+00 a       192     0     8     1    24
 -1.4858485013327123E+00 a       193     0     9     1     1
  1.1711863525921724E+00 a       194     0     9     1     2
 -2.9584374852940920E-01 a       195     0     9     1     3
 -6.9358691534275083E+00 a       196     0     9     1     4
 -1.7461604320521624E+00 a       197     0     9     1     5
  1.1981772809011744E+00 a       198     0     9     1     6
 -6.1788298479027066E+00 a       199     0     9     1     7
 -9.1760772178960721E+00 a       200     0     9     1     8
 -1.0528300991003057E+00 a       201     0     9     1     9
 -1.0779016980807038E+01 a       202     0     9     1    10
  4.1534795602809025E+00 a       203     0     9     1    11
 -9.0442447575298583E+00 a       204     0     9     1    12
  1.5159232247445459E+01 a       205     0     9     1    13
 -1.3553932517747343E+01 a       206     0     9     1    14
 -9.9559347610205347E+00 a       207     0     9     1    15
 -6.4122727913551181E+00 a       208     0     9     1    16
 -4.1159388437062816E+00 a       209     0     9     1    17
 -1.2377219424694083E+01 a       210     0     9     1    18
  6.0863738012937940E+00 a       211     0     9     1    19
 -2.7955863798347016E+00 a       212     0     9     1    20
 -1.7720912801874866E+00 a       213     0     9     1    21
  3.4108265775197748E+00 a       214     0     9     1    22
  1.7362265888051461E+01 a       215     0     9     1    23
  3.6172086366641367E+00 a       216     0     9     1    24
 -4.3828922277283651E+00 a       217     0    10     1     1
 -2.8157253624984047E+00 a       218     0    10     1     2
  4.3040811634159324E+00 a       219     0    10     1     3
  7.2359542663048506E+00 a       220     0    10     1     4
 -4.7349246401774794E+00 a       221     0    10     1     5
 -1.4640009279239818E+01 a       222     0    10     1     6
 -6.0027723347559832E+00 a       223     0    10     1     7
 -1.3010746589244345E+01 a       224     0    10     1     8
  6.4458296089583538E+00 a       225     0    10     1     9
 -8.6524491174018117E+00 a       226     0    10     1    10
 -3.3689486644119038E-01 a       227     0    10     1    11
 -1.3594864768175729E+01 a       228     0    10     1    12
  1.3936686883015369E+01 a       229     0    10     1    13
  2.1270407224062446E+00 a       230     0    10     1    14
 -1.0818791821355322E+01 a       231     0    10     1    15
  9.1566286700748805E+00 a       232     0    10     1    16
 -2.1109564391562570E+00 a       233     0    10     1    17
 -2.1965885288422680E+00 a       234     0    10     1    18
  8.4085114679941775E-01 a       235     0    10     1    19
 -4.6143998617654844E+00 a       236     0    10     1    20
 -1.1101566833729537E+01 a       237     0    10     1    21
  1.5240698770389718E+01 a       238     0    10     1    22
  1.2641671541288943E+01 a       239     0    10     1    23
 -3.0357271902742715E+00 a       240     0    10     1    24
 -3.9151550359979228E+00 a       241     0    11     1     1
  1.5902101352249072E+00 a       242     0    11     1     2
  4.8979068746633576E+00 a       243     0    11     1     3
  2.6878785669052152E+00 a       244     0    11     1     4
  1.5711998634592725E+00 a       245     0    11     1     5
 -6.7469293554357357E-01 a       246     0    11     1     6
  5.8652454906860312E+00 a       247     0    11     1     7
  3.9575102968324170E+00 a       248     0    11     1     8
  2.5042799384152309E-01 a       249     0    11     1     9
 -8.7013367062847080E-01 a       250     0    11     1    10
  1.2635266904784553E-01 a       251     0    11     1    11
  6.4476794729438813E+00 a       252     0    11     1    12
 -8.4568572246415741E+00 a       253     0    11     1    13
  3.9906555910118775E+00 a       254     0    11     1    14
  3.0410677261429577E+00 a       255     0    11     1    15
  3.0795588232477755E-01 a       256     0    11     1    16
  2.3251095113151852E+00 a       257     0    11     1    17
 -1.1293113395239915E+00 a       258     0    11     1    18
 -2.5584446294224064E+00 a       259     0    11     1    19
 -4.3382008184669587E+00 a       260     0    11     1    20
  2.4494863267100566E+00 a       261     0    11     1    21
 -1.3601268850954440E+00 a       262     0    11     1    22
 -9.4189479226094281E+00 a       263     0    11     1    23
 -2.0873841178217827E+00 a       264     0    11     1    24
 -1.0605794978258847E+00 a       265     0    12     1     1
 -1.6252342573892680E+00 a       266     0    12     1     2
 -1.5658708913321817E+00 a       267     0    12     1     3
 -2.2499979350829691E-01 a       268     0    12     1     4
  3.7772185575053450E+00 a       269     0    12     1     5
  6.6534719766676993E+00 a       270     0    12     1     6
  3.0965075135543234E+00 a       271     0    12     1     7
  3.6594906221289065E+00 a       272     0    12     1     8
  1.6254251430793225E+00 a       273     0    12     1     9
  2.5475025431320888E+00 a       274     0    12     1    10
  1.7885580745236396E+00 a       275     0    12     1    11
  5.8199139550578822E+00 a       276     0    12     1    12
 -5.5487335134983899E+00 a       277     0    12     1    13
  8.5251569848556552E-01 a       278     0    12     1    14
  3.2125483887799122E+00 a       279     0    12     1    15
 -4.2974614746699782E+00 a       280     0    12     1    16
  4.1256649646924330E+00 a       281     0    12     1    17
  1.9098876385494197E+00 a       282     0    12     1    18
  2.3466795116935751E-01 a       283     0    12     1    19
  8.7428465631820351E-01 a       284     0    12     1    20
  2.8930980939995652E+00 a       285     0    12     1    21
 -4.9636350070126980E+00 a       286     0    12     1    22
 -6.0962595922446479E+00 a       287     0    12     1    23
  1.3587304965739075E+00 a       288     0    12     1    24
 -9.3284709870962015E+00 a       289     0    13     1     1
  6.9393379129394086E+00 a       290     0    13     1     2
  1.2297207512909929E+00 a       291     0    13     1     3
  2.8387987816536939E+00 a       292     0    13     1     4
 -5.0495274456149994E+00 a       293     0    13     1     5
 -5.8941841291249810E+00 a       294     0    13     1     6
  6.8197858781779711E-02 a       295     0    13     1     7
  2.4873319923369053E+00 a       296     0    13     1     8
 -4.1125247225696882E+00 a       297     0    13     1     9
 -6.6854558053966118E+00 a       298     0    13     1    10
  4.0949300448166346E+00 a       299     0    13     1    11
  4.8864065139408783E+00 a       300     0    13     1    12
 -2.7204929985320199E+00 a       301     0    13     1    13
 -2.0651929748213491E+00 a       302     0    13     1    14
 -3.7502197724060289E+00 a       303     0    13     1    15
  1.8005264055514292E+01 a       304     0    13     1    16
 -2.5437216386409114E+00 a       305     0    13     1    17
  9.5610704772999178E+00 a       306     0    13     1    18
  1.4510270416501143E+00 a       307     0    13     1    19
 -1.2636374271548213E+01 a       308     0    13     1    20
  2.0881590442240778E+00 a       309     0    13     1    21
 -5.1024672752899800E+00 a       310     0    13     1    22
  1.2952332582911005E+01 a       311     0    13     1    23
  5.7118621638980986E+00 a       312     0    13     1    24
  3.5582409634737879E+00 a       313     0    14     1     1
 -1.4199133837169835E+01 a       314     0    14     1     2
 -3.3859664386462547E+00 a       315     0    14     1     3
 -3.4089882386882935E+00 a       316     0    14     1     4
 -2.6109440699259969E+00 a       317     0    14     1     5
 -6.6489961799025794E+00 a       318     0    14     1     6
  6.3029790823425751E+00 a       319     0    14     1     7
 -2.7792951931591237E+00 a       320     0    14     1     8
  4.3619863389241381E-01 a       321     0    14     1     9
 -1.0397037004632125E+01 a       322     0    14     1    10
  7.7501035819490538E-01 a       323     0    14     1    11
 -5.6185844105446936E+00 a       324     0    14     1    12
  2.8526743632169085E+00 a       325     0    14     1    13
  1.3215768367612143E-01 a       326     0    14     1    14
 -1.2125001712679628E+00 a       327     0    14     1    15
 -5.1434427151542623E+00 a       328     0    14     1    16
  8.7132569070244958E+00 a       329     0    14     1    17
  4.3994137828390051E-01 a       330     0    14     1    18
  9.1947897836031096E+00 a       331     0    14     1    19
  2.0720376258965771E+00 a       332     0    14     1    20
 -8.2140022739813343E+00 a       333     0    14     1    21
 -1.2239050254205521E+01 a       334     0    14     1    22
  7.5939514374699557E-01 a       335     0    14     1    23
 -6.2754463047891196E-01 a       336     0    14     1    24
  1.1902567744122068E+01 a       337     0    15     1     1
 -1.0410618946023183E+01 a       338     0    15     1     2
 -2.6243725466906485E+00 a       339     0    15     1     3
  7.1975821296589046E+00 a       340     0    15     1     4
  4.5949688187110098E+00 a       341     0    15     1     5
 -4.0565080181332780E+00 a       342     0    15     1     6
  2.7195916707935917E+00 a       343     0    15     1     7
 -6.3387094038913157E+00 a       344     0    15     1     8
  1.6165759818052031E+01 a       345     0    15     1     9
  5.5036118796018636E+00 a       346     0    15     1    10
 -4.1212942241110566E+00 a       347     0    15     1    11
  1.0992882165308552E+01 a       348     0    15     1    12
  2.1375007446518244E+00 a       349     0    15     1    13
  1.2849422206082968E+00 a       350     0    15     1    14
 -5.7526070410197088E+00 a       351     0    15     1    15
 -2.5715747988697055E+00 a       352     0    15     1    16
 -7.2229217525688103E+00 a       353     0    15     1    17
  5.6399114060640239E+00 a       354     0    15     1    18
 -2.5419718326489327E+00 a       355     0    15     1    19
 -2.2709280829654248E+00 a       356     0    15     1    20
  1.0327100347505850E+01 a       357     0    15     1    21
 -8.4323789589214595E+00 a       358     0    15     1    22
 -6.1902004276059728E+00 a       359     0    15     1    23
  4.9202112331249843E+00 a       360     0    15     1    24
 -3.2887866922245061E+00 a       361     0    16     1     1
 -1.3318196554688435E+00 a       362     0    16     1     2
  1.2935712932503030E+01 a       363     0    16     1     3
 -1.1869813582464463E+01 a       364     0    16     1     4
  1.4642732609515125E+01 a       365     0    16     1     5
 -1.1671515166565525E+00 a       366     0    16     1     6
  1.0731022554232558E+01 a       367     0    16     1     7
 -1.9636842481205203E+01 a       368     0    16     1     8
  7.7835967918710907E+00 a       369     0    16     1     9
  8.9443379359869368E+00 a       370     0    16     1    10
  1.5510571894762101E+01 a       371     0    16     1    11
 -7.1733659732581661E+00 a       372     0    16     1    12
 -3.7262683401052272E+00 a       373     0    16     1    13
 -7.2458661202121375E+00 a       374     0    16     1    14
  6.1959248973582426E+00 a       375     0    16     1    15
 -1.0019767051085391E+00 a       376     0    16     1    16
  6.1616563605842387E+00 a       377     0    16     1    17
 -1.9078609811302054E+00 a       378     0    16     1    18
 -3.4359132257149367E+00 a       379     0    16     1    19
 -5.9202229047944828E+00 a       380     0    16     1    20
  5.1312098827595098E-01 a       381     0    16     1    21
  1.8588168250272914E+00 a       382     0    16     1    22
 -9.2861225083282726E+00 a       383     0    16     1    23
  4.5681841972282058E+00 a       384     0    16     1    24
  7.2271297759050430E+00 a       385     0    17     1     1
 -5.5144511866455082E+00 a       386     0    17     1     2
 -1.2198239854286572E+00 a       387     0    17     1     3
 -3.8431348625970791E+00 a       388     0    17     1     4
  3.9047188630952223E+00 a       389     0    17     1     5
  2.5344500094605427E-01 a       390     0    17     1     6
 -8.7346277758934434E+00 a       391     0    17     1     7
  5.1764306494084185E+00 a       392     0    17     1     8
 -1.7652417782492641E+01 a       393     0    17     1     9
 -1.4243633815021635E+00 a       394     0    17     1    10
  7.8681841816809115E+00 a       395     0    17     1    11
  2.5920133253077000E+00 a       396     0    17     1    12
  5.4063286739364480E-01 a       397     0    17     1    13
 -7.3724975731800244E+00 a       398     0    17     1    14
 -7.0564920485206875E+00 a       399     0    17     1    15
  3.5918014929044770E+00 a       400     0    17     1    16
 -1.1584868952629717E+01 a       401     0    17     1    17
 -1.1009080506494608E+00 a       402     0    17     1    18
 -2.2577948060543820E+00 a       403     0    17     1    19
  3.5314064171759885E+00 a       404     0    17     1    20
  6.0620223018764792E+00 a       405     0    17     1    21
  1.4551109407707280E+01 a       406     0    17     1    22
  5.8284622132363202E+00 a       407     0    17     1    23
 -5.6463681283913769E-01 a       408     0    17     1    24
  2.7100192369612484E+00 a       409     0    18     1     1
 -6.5804184749003687E+00 a       410     0    18     1     2
 -5.4476886355317999E+00 a       411     0    18     1     3
  4.6691755967289419E+00 a       412     0    18     1     4
  5.8531490127212207E+00 a       413     0    18     1     5
  4.8253747520406955E+00 a       414     0    18     1     6
 -5.2868338358949840E-01 a       415     0    18     1     7
 -8.8143137354189811E+00 a       416     0    18     1     8
  3.0443169939093067E+00 a       417     0    18     1     9
 -2.0444684127244297E+01 a       418     0    18     1    10
  8.9169274236127727E+00 a       419     0    18     1    11
  5.4404347662461392E+00 a       420     0    18     1    12
 -5.5933178497153131E+00 a       421     0    18     1    13
 -9.1563777347961004E+00 a       422     0    18     1    14
  8.6313252458582674E+00 a       423     0    18     1    15
  1.1577454111682050E+01 a       424     0    18     1    16
 -5.8903084792260065E+00 a       425     0    18     1    17
  2.8581956466025433E+00 a       426     0    18     1    18
  1.1167879722684513E+00 a       427     0    18     1    19
  1.6999015578462807E+01 a       428     0    18     1    20
  8.1016156907078134E+00 a       429     0    18     1    21
 -3.1929880096079093E+00 a       430     0    18     1    22
  8.6387752412884322E-01 a       431     0    18     1    23
 -9.2807058350703677E+00 a       432     0    18     1    24
 -5.4069509080327922E+00 a       433     0    19     1     1
 -1.0196787083475416E+01 a       434     0    19     1     2
  1.8900745500162091E+00 a       435     0    19     1     3
 -5.0068745380925339E+00 a       436     0    19     1     4
 -1.3257003770626472E+01 a       437     0    19     1     5
  4.5641732561079777E+00 a       438     0    19     1     6
  3.6810396039633488E+00 a       439     0    19     1     7
 -1.5657416903862731E+00 a       440     0    19     1     8
 -2.4413405824243299E+00 a       441     0    19     1     9
  8.6062437507090745E+00 a       442     0    19     1    10
  1.1091130579526732E+01 a       443     0    19     1    11
 -7.9925735287026471E+00 a       444     0    19     1    12
  7.7500623842464933E-01 a       445     0    19     1    13
 -9.6971139353534035E+00 a       446     0    19     1    14
  3.2079523463340145E+00 a       447     0    19     1    15
 -6.1208790327629030E+00 a       448     0    19     1    16
 -1.0105769763927775E+01 a       449     0    19     1    17
 -6.0548419708817054E+00 a       450     0    19     1    18
  1.2514248102274850E+00 a       451     0    19     1    19
 -1.2888047606586584E+01 a       452     0    19     1    20
 -1.3799477474215338E+00 a       453     0    19     1    21
 -2.5591731031411320E+00 a       454     0    19     1    22
  1.2539425617015789E+01 a       455     0    19     1    23
  6.7974140693645939E+00 a       456     0    19     1    24
  2.8201635852148210E+00 a       457     0    20     1     1
  6.3113372268707879E+00 a       458     0    20     1     2
 -3.2215181875263386E+00 a       459     0    20     1     3
  6.3967510058765131E-01 a       460     0    20     1     4
  6.3144402565859679E+00 a       461     0    20     1     5
 -2.9929150683056949E+00 a       462     0    20     1     6
 -3.3673434341267439E+00 a       463     0    20     1     7
 -4.6584257521365098E+00 a       464     0    20     1     8
  8.4226087410438311E+00 a       465     0    20     1     9
  7.1840388387615626E+00 a       466     0    20     1    10
  7.0294342054900594E-01 a       467     0    20     1    11
 -3.0597705978716854E+00 a       468     0    20     1    12
  8.7181025872092892E+00 a       469     0    20     1    13
 -1.7513495250884454E+00 a       470     0    20     1    14
 -9.3804628548990099E+00 a       471     0    20     1    15
 -2.6488103775828606E+00 a       472     0    20     1    16
  9.8169042899845382E-01 a       473     0    20     1    17
  1.4372941006861106E+00 a       474     0    20     1    18
  1.3187007306912315E+01 a       475     0    20     1    19
  3.6425918740317718E+00 a       476     0    20     1    20
  1.0228215182912098E+01 a       477     0    20     1    21
  5.2374486513838097E+00 a       478     0    20     1    22
  2.6744014156654998E+00 a       479     0    20     1    23
  1.8245063789071811E+00 a       480     0    20     1    24
  7.8119800873554288E+00 a       481     0    21     1     1
  1.5051258228117945E+01 a       482     0    21     1     2
  6.6091938326350803E+00 a       483     0    21     1     3
  8.0964617531599838E+00 a       484     0    21     1     4
  1.9078050588728659E+00 a       485     0    21     1     5
  4.8133359091814620E+00 a       486     0    21     1     6
 -5.4036199880713296E+00 a       487     0    21     1     7
  2.5313729293075151E+00 a       488     0    21     1     8
  3.6541314457247989E+00 a       489     0    21     1     9
 -4.9307734113356011E-01 a       490     0    21     1    10
  1.0463241370656895E+01 a       491     0    21     1    11
 -5.2448831615390521E+00 a       492     0    21     1    12
 -6.2989740383894333E-01 a       493     0    21     1    13
 -2.2935004496478442E+00 a       494     0    21     1    14
  7.2923424519678610E+00 a       495     0    21     1    15
  4.3639095600425675E+00 a       496     0    21     1    16
  6.5498085626998481E-01 a       497     0    21     1    17
  7.9697915949803741E+00 a       498     0    21     1    18
 -6.4507305338550172E+00 a       499     0    21     1    19
  1.4133419236294140E+00 a       500     0    21     1    20
  4.6563806347397128E+00 a       501     0    21     1    21
  1.5174451386005361E+00 a       502     0    21     1    22
 -4.7734888932747239E+00 a       503     0    21     1    23
 -2.6030514420465622E+00 a       504     0    21     1    24
  3.8754160040253325E+00 a       505     0    22     1     1
  8.1944169010039025E-01 a       506     0    22     1     2
 -1.0757624700825492E+01 a       507     0    22     1     3
 -6.3183077043986353E+00 a       508     0    22     1     4
 -1.3199896137460296E+01 a       509     0    22     1     5
  1.1492918295540145E+01 a       510     0    22     1     6
 -1.6312495476726548E-03 a       511     0    22     1     7
  1.1198103835281499E+01 a       512     0    22     1     8
 -7.2481670099258766E+00 a       513     0    22     1     9
 -9.4852831072945332E+00 a       514     0    22     1    10
  4.7229045757438000E+00 a       515     0    22     1    11
  1.1361248706016921E+01 a       516     0    22     1    12
 -3.8674028220605452E+00 a       517     0    22     1    13
  1.2964346403021201E+01 a       518     0    22     1    14
  8.2343901452391641E+00 a       519     0    22     1    15
  8.2187183769198118E+00 a       520     0    22     1    16
  2.5722758646322877E+01 a       521     0    22     1    17
  7.4381049158626333E-01 a       522     0    22     1    18
 -3.5106682921774803E+00 a       523     0    22     1    19
  7.3217567337976792E+00 a       524     0    22     1    20
 -1.2191027147539291E+01 a       525     0    22     1    21
  1.2593437553457182E+01 a       526     0    22     1    22
  1.1904024006300759E+01 a       527     0    22     1    23
 -7.1446510776526075E+00 a       528     0    22     1    24
 -3.6849371894418934E+00 a       529     0    23     1     1
 -1.5892794207355139E+00 a       530     0    23     1     2
 -3.6469179856732059E+00 a       531     0    23     1     3
  2.1018969003066381E+00 a       532     0    23     1     4
 -3.6629890473297748E+00 a       533     0    23     1     5
 -2.8550810507670104E+00 a       534     0    23     1     6
  3.2574487254244655E+00 a       535     0    23     1     7
 -1.5531034562771913E+00 a       536     0    23     1     8
  9.1900857979002240E+00 a       537     0    23     1     9
  9.7796681999190305E-01 a       538     0    23     1    10
 -2.0017058058431427E+00 a       539     0    23     1    11
  5.0947930129466261E+00 a       540     0    23     1    12
  6.1971980364336945E+00 a       541     0    23     1    13
 -8.7745266778819317E+00 a       542     0    23     1    14
  9.4282407004460708E-02 a       543     0    23     1    15
  3.6721272363090740E-01 a       544     0    23     1    16
  1.2905842088803311E+01 a       545     0    23     1    17
 -5.2928396907728796E+00 a       546     0    23     1    18
  3.7745088389801612E-01 a       547     0    23     1    19
  7.9074387729565210E+00 a       548     0    23     1    20
  6.3302760067116601E+00 a       549     0    23     1    21
 -1.0125866757326289E+01 a       550     0    23     1    22
 -7.5998502629864468E+00 a       551     0    23     1    23
 -8.8928464992223777E+00 a       552     0    23     1    24
 -1.0418186172110431E+01 a       553     0    24     1     1
 -7.1817563306246344E+00 a       554     0    24     1     2
  6.4930704470255654E+00 a       555     0    24     1     3
 -6.5494490020529179E+00 a       556     0    24     1     4
 -3.8591333924160792E-01 a       557     0    24     1     5
 -1.3886953358933658E+01 a       558     0    24     1     6
  1.0240803209506382E+00 a       559     0    24     1     7
 -9.0140406459191862E+00 a       560     0    24     1     8
  1.9646041962369758E+00 a       561     0    24     1     9
 -5.6051891682685458E-03 a       562     0    24     1    10
  7.5531093155923001E-01 a       563     0    24     1    11
 -9.1250960453578389E-01 a       564     0    24     1    12
 -5.5920482222054302E+00 a       565     0    24     1    13
  7.4501823387925175E+00 a       566     0    24     1    14
 -1.6113112978915394E+00 a       567     0    24     1    15
 -2.6076444750694745E+00 a       568     0    24     1    16
  2.6960050240213107E+00 a       569     0    24     1    17
  3.9672930203148112E-02 a       570     0    24     1    18
 -7.5389666576417307E+00 a       571     0    24     1    19
 -8.4711941993283815E-02 a       572     0    24     1    20
  2.8651607693648908E+00 a       573     0    24     1    21
  4.6692912400815345E+00 a       574     0    24     1    22
 -1.6527606588693529E+00 a       575     0    24     1    23
  3.0646097210381082E+00 a       576     0    24     1    24
  3.3298002584545374E+00 a       577     0    25     1     1
  5.3108570458212512E-01 a       578     0    25     1     2
 -8.4022967231263799E+00 a       579     0    25     1     3
 -4.6858007570848264E+00 a       580     0    25     1     4
  1.8879036464952119E+00 a       581     0    25     1     5
 -1.0679582570029713E+00 a       582     0    25     1     6
 -8.2621717758131974E-01 a       583     0    25     1     7
  1.0054127217730407E+01 a       584     0    25     1     8
  8.3884683559285893E+00 a       585     0    25     1     9
  1.2885900978597858E-01 a       586     0    25     1    10
 -5.7436315644069476E+00 a       587     0    25     1    11
 -5.7430930276509811E+00 a       588     0    25     1    12
  5.0367884481981724E+00 a       589     0    25     1    13
 -1.7085321738329635E+00 a       590     0    25     1    14
 -4.8844840601928698E+00 a       591     0    25     1    15
  1.5371254984651570E+00 a       592     0    25     1    16
 -2.7681838819448394E+00 a       593     0    25     1    17
  2.3425209804730254E+00 a       594     0    25     1    18
 -2.6075459235955649E+00 a       595     0    25     1    19
  5.7037617642814640E+00 a       596     0    25     1    20
  5.0777348415150336E-01 a       597     0    25     1    21
 -3.3267613762817523E+00 a       598     0    25     1    22
  8.1255549745163655E+00 a       599     0    25     1    23
 -5.5244458052487744E+00 a       600     0    25     1    24
 -7.5028854228478836E-01 a       601     0    26     1     1
  2.5350455247883379E+00 a       602     0    26     1     2
 -2.0719463368075162E+00 a       603     0    26     1     3
  3.1259974783607820E+00 a       604     0    26     1     4
  3.7934676548713480E+00 a       605     0    26     1     5
 -5.7633513983430373E-01 a       606     0    26     1     6
 -1.1689355460056519E+00 a       607     0    26     1     7
  5.0260468402209524E+00 a       608     0    26     1     8
 -4.2909201934319707E+00 a       609     0    26     1     9
 -3.9479274944195528E+00 a       610     0    26     1    10
 -7.3190345341579643E+00 a       611     0    26     1    11
 -4.0351353285013492E-01 a       612     0    26     1    12
 -4.0460166450444657E+00 a       613     0    26     1    13
 -6.1021747940637094E-01 a       614     0    26     1    14
  6.5122352657894242E-03 a       615     0    26     1    15
 -1.2977273514616383E+00 a       616     0    26     1    16
  1.6625213410395215E+01 a       617     0    26     1    17
  2.2969119558940858E+00 a       618     0    26     1    18
 -6.2494270757115098E+00 a       619     0    26     1    19
 -3.8779286162391613E+00 a       620     0    26     1    20
 -6.4159736001396306E+00 a       621     0    26     1    21
 -7.0120866283748802E+00 a       622     0    26     1    22
 -7.0878575421173577E+00 a       623     0    26     1    23
  9.8603180747587658E+00 a       624     0    26     1    24
  2.3923068275884207E-01 a       625     0    27     1     1
 -6.6745050428840658E-01 a       626     0    27     1     2
 -6.9034208199287486E+00 a       627     0    27     1     3
  3.2313836023786364E+00 a       628     0    27     1     4
 -9.3878282301670968E+00 a       629     0    27     1     5
  5.1551588893964451E-01 a       630     0    27     1     6
  2.1139008624556337E+00 a       631     0    27     1     7
 -5.8397463955607725E+00 a       632     0    27     1     8
  5.4049322629036105E+00 a       633     0    27     1     9
  4.8215723403781059E+00 a       634     0    27     1    10
  3.5286056114323072E+00 a       635     0    27     1    11
  5.7775135258817540E+00 a       636     0    27     1    12
 -1.2175492423919279E+00 a       637     0    27     1    13
 -1.8570307222992251E+00 a       638     0    27     1    14
 -7.0476120667353372E+00 a       639     0    27     1    15
 -1.0905138164467856E+00 a       640     0    27     1    16
  4.9417563601668695E+00 a       641     0    27     1    17
 -2.3677666522992125E+00 a       642     0    27     1    18
 -2.2001063327814916E+00 a       643     0    27     1    19
  5.6402097918496565E+00 a       644     0    27     1    20
  1.0161556332717154E+01 a       645     0    27     1    21
  7.0207357045789198E+00 a       646     0    27     1    22
  8.8240022128109636E+00 a       647     0    27     1    23
  6.1296633433139043E+00 a       648     0    27     1    24
  3.4710320199046971E+00 a       649     0    28     1     1
 -1.0357252650890183E+01 a       650     0    28     1     2
 -1.1526889905357329E+00 a       651     0    28     1     3
  1.1443381443630255E+01 a       652     0    28     1     4
 -1.1992593158182350E+00 a       653     0    28     1     5
 -1.1829546920593281E+00 a       654     0    28     1     6
  3.9968503423795156E+00 a       655     0    28     1     7
  1.3225294510290218E+00 a       656     0    28     1     8
  9.6534191932881193E+00 a       657     0    28     1     9
 -2.1350118945484549E+00 a       658     0    28     1    10
 -1.4212957401680865E-01 a       659     0    28     1    11
  1.2032311284629577E+01 a       660     0    28     1    12
  4.5239502422062703E+00 a       661     0    28     1    13
  5.7753417146619412E+00 a       662     0    28     1    14
  7.5951214339115296E+00 a       663     0    28     1    15
 -7.8758614738435595E-01 a       664     0    28     1    16
 -1.2603517077700181E+01 a       665     0    28     1    17
  7.6935216237769621E+00 a       666     0    28     1    18
 -1.4587380118706891E+01 a       667     0    28     1    19
 -3.8810636041665627E+00 a       668     0    28     1    20
  1.4957782302577398E+01 a       669     0    28     1    21
  8.3377740104903371E+00 a       670     0    28     1    22
 -1.2490970985266275E+01 a       671     0    28     1    23
  6.1060763060531098E+00 a       672     0    28     1    24
  4.3351733070759515E+00 a       673     0    29     1     1
 -2.3825951450445033E+00 a       674     0    29     1     2
 -1.6080409113515188E+00 a       675     0    29     1     3
 -7.5235167570947947E+00 a       676     0    29     1     4
  1.2002834105766522E+00 a       677     0    29     1     5
 -3.0162648616564511E+00 a       678     0    29     1     6
  1.8578026984506886E+00 a       679     0    29     1     7
 -4.3304958596663301E+00 a       680     0    29     1     8
 -1.0473703364407305E+00 a       681     0    29     1     9
  6.1715501347640931E+00 a       682     0    29     1    10
  1.7829350720182158E+00 a       683     0    29     1    11
  4.0597468293567580E+00 a       684     0    29     1    12
  5.3403738284126998E+00 a       685     0    29     1    13
  3.5087011410655200E+00 a       686     0    29     1    14
 -2.6465265334403347E+00 a       687     0    29     1    15
  4.2109331127101939E+00 a       688     0    29     1    16
  6.7908354378065940E+00 a       689     0    29     1    17
  1.8303112758207747E+00 a       690     0    29     1    18
  3.7032805579877852E+00 a       691     0    29     1    19
 -6.0014440284563264E+00 a       692     0    29     1    20
 -6.5196384991769376E+00 a       693     0    29     1    21
 -1.8339444704602761E+00 a       694     0    29     1    22
 -1.2030028170156870E+00 a       695     0    29     1    23
 -1.5198366581093823E+00 a       696     0    29     1    24
 -3.5332113518640633E+00 a       697     0    30     1     1
  3.0117574733602872E+00 a       698     0    30     1     2
  1.8102722786724781E+00 a       699     0    30     1     3
  5.1379976540383003E+00 a       700     0    30     1     4
  1.3047091509946307E+00 a       701     0    30     1     5
  1.3795114461487143E+00 a       702     0    30     1     6
  2.9791460042909765E+00 a       703     0    30     1     7
 -2.0337990335352596E-01 a       704     0    30     1     8
 -8.9866832547025091E+00 a       705     0    30     1     9
 -1.1431878145330410E+00 a       706     0    30     1    10
 -4.1889282436956137E+00 a       707     0    30     1    11
  4.5901090396994260E+00 a       708     0    30     1    12
 -9.7273681252129975E+00 a       709     0    30     1    13
 -4.3743268268344480E+00 a       710     0    30     1    14
  1.4311894561734457E+01 a       711     0    30     1    15
 -1.4613287080580946E+00 a       712     0    30     1    16
  8.8187618738766975E+00 a       713     0    30     1    17
  5.1195696520935474E+00 a       714     0    30     1    18
 -5.1365652452603490E+00 a       715     0    30     1    19
 -4.5428484096021187E+00 a       716     0    30     1    20
 -2.6145450183192995E+00 a       717     0    30     1    21
  6.2789420964993470E+00 a       718     0    30     1    22
  2.2699864926969093E+00 a       719     0    30     1    23
  2.9925843009314121E+00 a       720     0    30     1    24
  2.9220983912710158E-01 a       721     0    31     1     1
  6.8475099762861404E+00 a       722     0    31     1     2
 -3.5203781053305039E-01 a       723     0    31     1     3
  9.9960165173237687E+00 a       724     0    31     1     4
 -1.4309213249682977E+00 a       725     0    31     1     5
 -1.5690603332861488E+00 a       726     0    31     1     6
 -2.0076105488386515E+00 a       727     0    31     1     7
  6.6755134131974403E+00 a       728     0    31     1     8
 -7.9775845563841550E+00 a       729     0    31     1     9
 -7.1004254796233344E+00 a       730     0    31     1    10
 -9.0177685246287620E+00 a       731     0    31     1    11
  8.8016258634014903E+00 a       732     0    31     1    12
  6.1995462147707814E+00 a       733     0    31     1    13
  4.4092081856578318E+00 a       734     0    31     1    14
 -7.0351430799077006E+00 a       735     0    31     1    15
  1.2385401243999603E+01 a       736     0    31     1    16
  5.4687554741659117E+00 a       737     0    31     1    17
  5.4342227934260396E+00 a       738     0    31     1    18
  1.0428897709438332E+00 a       739     0    31     1    19
  1.2757909639843004E-01 a       740     0    31     1    20
  8.6228332294917565E-01 a       741     0    31     1    21
  1.8621788840134823E-02 a       742     0    31     1    22
 -2.4587016298667866E-01 a       743     0    31     1    23
 -1.8290760833208699E+00 a       744     0    31     1    24
 -1.2999654554821422E+01 a       745     0    32     1     1
  7.4909521673305990E-01 a       746     0    32     1     2
  1.5673743164485852E+00 a       747     0    32     1     3
  2.7977014219725382E+00 a       748     0    32     1     4
 -4.5405063715540530E+00 a       749     0    32     1     5
 -3.5198791178517941E+00 a       750     0    32     1     6
  2.7629740945156724E+00 a       751     0    32     1     7
  6.0966831988356462E+00 a       752     0    32     1     8
  8.4471682118738141E+00 a       753     0    32     1     9
  3.9790904097290136E+00 a       754     0    32     1    10
 -4.0626285826658348E+00 a       755     0    32     1    11
  2.6785639998232704E+00 a       756     0    32     1    12
 -3.2287560849463821E+00 a       757     0    32     1    13
  2.9122765890075661E+00 a       758     0    32     1    14
  4.9261860332831615E+00 a       759     0    32     1    15
 -5.7285679007029140E+00 a       760     0    32     1    16
  5.3108036739321252E+00 a       761     0    32     1    17
 -7.5970104023960772E-01 a       762     0    32     1    18
 -6.2497632288013980E+00 a       763     0    32     1    19
 -2.8140457805317647E+00 a       764     0    32     1    20
 -3.9884805923756708E+00 a       765     0    32     1    21
 -7.8141746338598619E+00 a       766     0    32     1    22
 -4.7394133217324148E+00 a       767     0    32     1    23
 -3.7556867510383135E-01 a       768     0    32     1    24
  1.4634969211388620E-02 a       769     0    33     1     1
 -3.2816897683990920E+00 a       770     0    33     1     2
 -2.6191573625341222E+00 a       771     0    33     1     3
 -3.9304467499736089E+00 a       772     0    33     1     4
 -3.0326011608975008E+00 a       773     0    33     1     5
 -4.1727709378562450E+00 a       774     0    33     1     6
 -3.8919010432930529E-01 a       775     0    33     1     7
  3.6398903657966746E+00 a       776     0    33     1     8
 -7.7480761843014188E+00 a       777     0    33     1     9
  1.0965010327527263E+01 a       778     0    33     1    10
 -9.2405249979502617E+00 a       779     0    33     1    11
 -4.5526650983718913E+00 a       780     0    33     1    12
 -1.6147304127275048E+00 a       781     0    33     1    13
  1.8644155724603184E+00 a       782     0    33     1    14
 -8.9580571848906185E+00 a       783     0    33     1    15
 -5.1048276936486188E+00 a       784     0    33     1    16
 -1.5974162747640749E-01 a       785     0    33     1    17
 -3.7265906182900359E+00 a       786     0    33     1    18
  5.6331205833969120E+00 a       787     0    33     1    19
 -1.6240807492037619E+00 a       788     0    33     1    20
  1.1023642865956418E+00 a       789     0    33     1    21
 -5.4257596234565133E+00 a       790     0    33     1    22
  2.8614646364731335E+00 a       791     0    33     1    23
  2.0504924330419763E+00 a       792     0    33     1    24
 -4.9597656748491454E+00 a       793     0    34     1     1
  1.6859140749814490E+00 a       794     0    34     1     2
  1.1046494261435415E+01 a       795     0    34     1     3
  5.3987333143066936E+00 a       796     0    34     1     4
  1.8687589567689734E+01 a       797     0    34     1     5
 -2.1802553481975755E+00 a       798     0    34     1     6
  5.2806700385383056E+00 a       799     0    34     1     7
 -6.7519070335857814E+00 a       800     0    34     1     8
  1.2382229577064674E+01 a       801     0    34     1     9
  3.3284593071725532E+00 a       802     0    34     1    10
  6.1674094133285806E-01 a       803     0    34     1    11
 -7.2155667098091785E+00 a       804     0    34     1    12
 -7.2096735512944155E-01 a       805     0    34     1    13
 -6.4266461884297001E+00 a       806     0    34     1    14
 -3.4896172875562272E+00 a       807     0    34     1    15
 -1.1308063060031158E+01 a       808     0    34     1    16
 -9.2059668358405169E+00 a       809     0    34     1    17
 -5.2511149620856861E+00 a       810     0    34     1    18
 -1.2601315498730330E+00 a       811     0    34     1    19
 -2.4563201637345182E+00 a       812     0    34     1    20
  6.2473007052722052E+00 a       813     0    34     1    21
 -1.1593801498631737E+00 a       814     0    34     1    22
 -1.4148248825284432E+01 a       815     0    34     1    23
  4.3966226818502852E-01 a       816     0    34     1    24
  1.4565526434320686E+00 a       817     0    35     1     1
  1.3470788442079124E+01 a       818     0    35     1     2
  3.2015002532557952E+00 a       819     0    35     1     3
  1.6221151888756729E+00 a       820     0    35     1     4
  3.0467506048973236E-01 a       821     0    35     1     5
  4.2340552984299622E+00 a       822     0    35     1     6
 -2.9472595318193093E+00 a       823     0    35     1     7
  7.3679429781326675E+00 a       824     0    35     1     8
  6.3425290897725728E-01 a       825     0    35     1     9
  2.4681488835540105E-01 a       826     0    35     1    10
 -1.3812850569862571E+00 a       827     0    35     1    11
  2.8324795397833378E+00 a       828     0    35     1    12
  9.3149708541624854E-01 a       829     0    35     1    13
  3.2728682029842600E+00 a       830     0    35     1    14
  2.8384401421885248E+00 a       831     0    35     1    15
  5.4454326054720037E-01 a       832     0    35     1    16
 -9.3820360279547366E+00 a       833     0    35     1    17
 -7.0143816841870787E+00 a       834     0    35     1    18
 -9.1479587844390498E+00 a       835     0    35     1    19
 -8.0302856187356362E+00 a       836     0    35     1    20
  4.7828041089675253E+00 a       837     0    35     1    21
  6.4261378865038994E+00 a       838     0    35     1    22
 -9.6352881804253154E-01 a       839     0    35     1    23
  5.4420044353938417E+00 a       840     0    35     1    24
 -3.5071771288313003E+00 a       841     0    36     1     1
  8.5343898743060329E+00 a       842     0    36     1     2
  2.2544598990115889E+00 a       843     0    36     1     3
  8.2211974200311755E-01 a       844     0    36     1     4
 -6.9598148901072543E+00 a       845     0    36     1     5
  5.4842130394344393E+00 a       846     0    36     1     6
  3.9393861590898860E-01 a       847     0    36     1     7
  9.8189353579258754E+00 a       848     0    36     1     8
 -9.3924915979269592E+00 a       849     0    36     1     9
 -7.2822537173536006E-01 a       850     0    36     1    10
 -7.5739811964436763E+00 a       851     0    36     1    11
  6.3423039546870541E+00 a       852     0    36     1    12
  4.6928666670195200E+00 a       853     0    36     1    13
 -1.1132624996084663E+00 a       854     0    36     1    14
  8.7342289127857564E-01 a       855     0    36     1    15
  6.5132799677490825E+00 a       856     0    36     1    16
  3.9768090276067453E-02 a       857     0    36     1    17
  1.2763345141028362E+00 a       858     0    36     1    18
  9.0675762449045827E+00 a       859     0    36     1    19
 -3.7308938369915934E+00 a       860     0    36     1    20
 -4.5674494288008267E+00 a       861     0    36     1    21
  2.5408062896871746E+00 a       862     0    36     1    22
 -4.7199801639990993E+00 a       863     0    36     1    23
 -5.1549410581576351E+00 a       864     0    36     1    24
  7.1871451889938720E-01 a       865     0    37     1     1
  1.9878629114471540E+00 a       866     0    37     1     2
 -2.5842557252480862E+00 a       867     0    37     1     3
  3.0725684557543094E+00 a       868     0    37     1     4
  5.3552965766519351E+00 a       869     0    37     1     5
  6.6047729315424570E+00 a       870     0    37     1     6
 -5.2934767916407326E+00 a       871     0    37     1     7
 -9.0139880615253798E-01 a       872     0    37     1     8
 -9.3286997450798670E-01 a       873     0    37     1     9
 -2.5688517911540889E+00 a       874     0    37     1    10
 -8.0585361533709687E-01 a       875     0    37     1    11
 -5.2024956131079056E+00 a       876     0    37     1    12
  7.7847079308891232E+00 a       877     0    37     1    13
  5.8854077745524842E+00 a       878     0    37     1    14
  4.0325391513867137E+00 a       879     0    37     1    15
 -8.2912168816527139E+00 a       880     0    37     1    16
  5.1074890149469727E+00 a       881     0    37     1    17
 -7.0875325563644349E+00 a       882     0    37     1    18
  1.4235756611063075E+00 a       883     0    37     1    19
  2.1393865174089668E+00 a       884     0    37     1    20
  4.0470535014069515E+00 a       885     0    37     1    21
 -1.2021742254648854E-01 a       886     0    37     1    22
 -2.0976613553436865E+00 a       887     0    37     1    23
  5.3504354863114167E-01 a       888     0    37     1    24
  2.0673868969452265E+00 a       889     0    38     1     1
  9.7328803724320174E+00 a       890     0    38     1     2
  3.3270984432153932E+00 a       891     0    38     1     3
 -4.5447350782220628E+00 a       892     0    38     1     4
 -6.8817530675331273E+00 a       893     0    38     1     5
  8.8245384675187155E-01 a       894     0    38     1     6
  2.3201723404421566E+00 a       895     0    38     1     7
 -1.1602083817865132E+00 a       896     0    38     1     8
 -5.2717582253006219E+00 a       897     0    38     1     9
  5.6181474603391530E+00 a       898     0    38     1    10
 -4.0716451327482766E+00 a       899     0    38     1    11
  1.6210866253923161E+01 a       900     0    38     1    12
 -3.7970799464291904E-01 a       901     0    38     1    13
  6.1901035124924215E+00 a       902     0    38     1    14
  5.4967591808467349E+00 a       903     0    38     1    15
  5.9812052433845970E+00 a       904     0    38     1    16
 -8.0444243927324823E+00 a       905     0    38     1    17
 -4.9242294720631516E+00 a       906     0    38     1    18
 -9.2263554609573060E+00 a       907     0    38     1    19
 -1.1406286360052633E+00 a       908     0    38     1    20
 -3.9587020172968499E+00 a       909     0    38     1    21
 -1.3847607394269137E+00 a       910     0    38     1    22
  3.5115244732511703E+00 a       911     0    38     1    23
 -5.1841858916747938E+00 a       912     0    38     1    24
 -1.1158258074981813E+00 a       913     0    39     1     1
 -5.5231590238336334E+00 a       914     0    39     1     2
  1.0430176781219460E+00 a       915     0    39     1     3
 -5.0898671173875352E+00 a       916     0    39     1     4
 -6.3558963340039174E+00 a       917     0    39     1     5
  2.9901760171377103E+00 a       918     0    39     1     6
  1.1181882610577036E+00 a       919     0    39     1     7
  8.0213087449358311E-01 a       920     0    39     1     8
 -5.6789185658395667E+00 a       921     0    39     1     9
 -4.1033209197585769E+00 a       922     0    39     1    10
 -3.2659251987751849E+00 a       923     0    39     1    11
  1.0590376411929347E+01 a       924     0    39     1    12
  1.4241210129293963E-02 a       925     0    39     1    13
  4.0926521251783150E+00 a       926     0    39     1    14
  4.2938982488912609E+00 a       927     0    39     1    15
  2.6909081491094300E+00 a       928     0    39     1    16
  4.6285338814947030E-01 a       929     0    39     1    17
 -1.5091579621319380E+00 a       930     0    39     1    18
  4.3563287964018549E-01 a       931     0    39     1    19
 -4.4967858915828911E+00 a       932     0    39     1    20
 -1.1101090931315026E+01 a       933     0    39     1    21
  9.8484986547334543E+00 a       934     0    39     1    22
  8.3614402206072391E+00 a       935     0    39     1    23
 -4.6049736347171999E+00 a       936     0    39     1    24
 -3.0974066064203720E+00 a       937     0    40     1     1
  5.0229670524957157E+00 a       938     0    40     1     2
 -5.7878146515082847E+00 a       939     0    40     1     3
  8.4189838731800268E+00 a       940     0    40     1     4
 -4.0328193006143476E+00 a       941     0    40     1     5
  6.1861393242424469E+00 a       942     0    40     1     6
 -5.6340553543695142E+00 a       943     0    40     1     7
  1.8666943397631112E+01 a       944     0    40     1     8
  4.7921286095342479E+00 a       945     0    40     1     9
 -8.0657368578152877E-01 a       946     0    40     1    10
 -6.5762821267845188E+00 a       947     0    40     1    11
 -3.5335531830238311E+00 a       948     0    40     1    12
 -1.5844250892790708E+00 a       949     0    40     1    13
  1.5853185958361216E+00 a       950     0    40     1    14
  1.5297194964803333E+00 a       951     0    40     1    15
 -2.0895622386281163E+00 a       952     0    40     1    16
  1.0094779486971710E-01 a       953     0    40     1    17
 -2.4238968920643038E+00 a       954     0    40     1    18
 -9.8527480796977018E-01 a       955     0    40     1    19
  2.2727900132380099E+00 a       956     0    40     1    20
  3.7029235463719328E+00 a       957     0    40     1    21
 -2.5999040703201839E+00 a       958     0    40     1    22
  7.6095959276212310E-01 a       959     0    40     1    23
 -7.6324807273212614E-01 a       960     0    40     1    24
 -3.8312659244806886E+00 a       961     0    41     1     1
  2.1520325590583460E+00 a       962     0    41     1     2
  5.5264463339520002E+00 a       963     0    41     1     3
 -3.5007140822458549E+00 a       964     0    41     1     4
 -3.6641812056835904E-01 a       965     0    41     1     5
 -1.3771161987099745E+00 a       966     0    41     1     6
  3.0641556786124049E+00 a       967     0    41     1     7
 -2.0917082767831214E+00 a       968     0    41     1     8
  8.5619268722635873E+00 a       969     0    41     1     9
 -9.3309162892444963E-01 a       970     0    41     1    10
 -3.7060294721219962E+00 a       971     0    41     1    11
  2.1716741063007778E+00 a       972     0    41     1    12
  1.6266848453818674E+00 a       973     0    41     1    13
  1.1723975042649750E+01 a       974     0    41     1    14
 -3.8572295358438874E-01 a       975     0    41     1    15
  3.4103150785223280E-01 a       976     0    41     1    16
 -6.3699818835012412E-01 a       977     0    41     1    17
 -6.6283760171080219E-01 a       978     0    41     1    18
  4.3688116219500248E+00 a       979     0    41     1    19
 -6.9958634057359124E+00 a       980     0    41     1    20
 -3.5173427818007670E+00 a       981     0    41     1    21
 -4.6828843866619092E+00 a       982     0    41     1    22
  2.4709850584452271E+00 a       983     0    41     1    23
  4.2547389391633743E+00 a       984     0    41     1    24
 -1.1554193445127363E+00 a       985     0    42     1     1
  9.2001039640177762E+00 a       986     0    42     1     2
  5.4830078014597410E+00 a       987     0    42     1     3
  4.3058092793049578E+00 a       988     0    42     1     4
  6.4008882690066893E-01 a       989     0    42     1     5
  1.9245726328780531E+01 a       990     0    42     1     6
 -2.3103922126844108E+00 a       991     0    42     1     7
  1.6832796306167776E+01 a       992     0    42     1     8
  3.7745565512203019E+00 a       993     0    42     1     9
  2.5548053125023968E+00 a       994     0    42     1    10
 -5.1534741938560424E-01 a       995     0    42     1    11
 -3.7188866499095465E+00 a       996     0    42     1    12
 -1.3192956761484498E+00 a       997     0    42     1    13
 -1.5522135224948557E+00 a       998     0    42     1    14
  1.9817971675540098E+00 a       999     0    42     1    15
 -6.5969672293691195E+00 a      1000     0    42     1    16
 -2.9131716049261036E+00 a      1001     0    42     1    17
 -8.8615674848675230E-01 a      1002     0    42     1    18
  3.0000394451197687E+00 a      1003     0    42     1    19
 -3.6140203262554320E+00 a      1004     0    42     1    20
  9.8600461384321270E-01 a      1005     0    42     1    21
 -8.8859009588584819E+00 a      1006     0    42     1    22
  1.4043145565164137E+00 a      1007     0    42     1    23
  2.8216643536371775E+00 a      1008     0    42     1    24
  3.1409157294636074E+00 a      1009     0    43     1     1
 -1.7962697987650240E+00 a      1010     0    43     1     2
  7.1309533898116317E+00 a      1011     0    43     1     3
 -2.7071059441473183E-01 a      1012     0    43     1     4
 -3.0799724540709681E+00 a      1013     0    43     1     5
  4.0931418394752145E-01 a      1014     0    43     1     6
  1.2311718240903486E+00 a      1015     0    43     1     7
 -8.8947941864271804E+00 a      1016     0    43     1     8
 -2.4491909101109108E+00 a      1017     0    43     1     9
  1.3959810408865374E+00 a      1018     0    43     1    10
 -2.6844056156505776E+00 a      1019     0    43     1    11
  2.8375153081078515E+00 a      1020     0    43     1    12
 -4.1839563281839407E+00 a      1021     0    43     1    13
  4.2068323364140070E-01 a      1022     0    43     1    14
  5.8177375523798736E-01 a      1023     0    43     1    15
 -1.5707951656592576E+00 a      1024     0    43     1    16
 -4.3222900778381499E+00 a      1025     0    43     1    17
  4.1753872497600337E+00 a      1026     0    43     1    18
  4.9339068794690428E+00 a      1027     0    43     1    19
 -7.3191147662961233E+00 a      1028     0    43     1    20
 -1.2084233680283087E+00 a      1029     0    43     1    21
 -4.9996008951263615E+00 a      1030     0    43     1    22
 -2.5094452401607117E+00 a      1031     0    43     1    23
  3.2835904757599805E+00 a      1032     0    43     1    24
 -7.6121799812463822E-02 a      1033     0    44     1     1
 -2.4783721352818153E+00 a      1034     0    44     1     2
  3.3557842085130059E+00 a      1035     0    44     1     3
 -5.6497992935442092E+00 a      1036     0    44     1     4
 -4.9201861467681764E+00 a      1037     0    44     1     5
  2.5221228603060979E+00 a      1038     0    44     1     6
  1.7136671344224561E+00 a      1039     0    44     1     7
 -7.2594256494693008E+00 a      1040     0    44     1     8
  5.7946169946488775E+00 a      1041     0    44     1     9
  5.5173929814337850E+00 a      1042     0    44     1    10
  3.9001661466195348E+00 a      1043     0    44     1    11
  1.4733055421559345E+00 a      1044     0    44     1    12
  4.5769319351775826E+00 a      1045     0    44     1    13
  1.4783242304290762E+00 a      1046     0    44     1    14
  6.3416653340954321E+00 a      1047     0    44     1    15
  1.6004541217885475E+00 a      1048     0    44     1    16
 -1.8285602791312979E+01 a      1049     0    44     1    17
  2.7836466362233936E+00 a      1050     0    44     1    18
  4.8957111924413290E+00 a      1051     0    44     1    19
  3.0918697528217960E+00 a      1052     0    44     1    20
  5.6287025213655166E+00 a      1053     0    44     1    21
  6.6486447077122603E+00 a      1054     0    44     1    22
  9.5188035951680021E+00 a      1055     0    44     1    23
 -9.5013661149854354E+00 a      1056     0    44     1    24
  1.0332355882473681E+00 a      1057     0    45     1     1
  3.5750360913615138E+00 a      1058     0    45     1     2
  8.3537385203563446E+00 a      1059     0    45     1     3
 -2.1888188634306909E+00 a      1060     0    45     1     4
  8.1883852674008804E+00 a      1061     0    45     1     5
  3.1414412873383650E+00 a      1062     0    45     1     6
 -6.3361679127127797E+00 a      1063     0    45     1     7
  6.1924058798457624E+00 a      1064     0    45     1     8
 -8.1568609307617592E+00 a      1065     0    45     1     9
  1.3095653274643755E+00 a      1066     0    45     1    10
 -6.7224514210912600E+00 a      1067     0    45     1    11
 -9.2134190316551123E+00 a      1068     0    45     1    12
  1.6307877239617721E+00 a      1069     0    45     1    13
  1.9196703546416745E+00 a      1070     0    45     1    14
  2.1776267845204607E+00 a      1071     0    45     1    15
 -7.1222367591690172E-01 a      1072     0    45     1    16
 -6.9050163112398550E+00 a      1073     0    45     1    17
  1.9325094819645683E+00 a      1074     0    45     1    18
  4.3959640529802417E+00 a      1075     0    45     1    19
 -3.6402370841938660E+00 a      1076     0    45     1    20
 -8.2718601571376151E+00 a      1077     0    45     1    21
 -1.1360675171431303E+01 a      1078     0    45     1    22
 -9.8164213120864794E+00 a      1079     0    45     1    23
 -6.1000805548167261E+00 a      1080     0    45     1    24
 -3.7497511858198265E+00 a      1081     0    46     1     1
  2.9247969530318976E+00 a      1082     0    46     1     2
 -2.3959862414090414E+00 a      1083     0    46     1     3
  4.6030888460541117E+00 a      1084     0    46     1     4
  1.0852542141847163E+01 a      1085     0    46     1     5
  1.6514481908741621E-01 a      1086     0    46     1     6
 -1.0334693106965965E+01 a      1087     0    46     1     7
  6.4424610640672775E+00 a      1088     0    46     1     8
 -2.5705609181231792E+00 a      1089     0    46     1     9
  6.1705393546570235E+00 a      1090     0    46     1    10
  2.4857298231965639E+00 a      1091     0    46     1    11
 -1.4625647907974608E+01 a      1092     0    46     1    12
 -6.9187182813369379E+00 a      1093     0    46     1    13
 -3.0151859349469392E+00 a      1094     0    46     1    14
 -2.0987754491341701E+00 a      1095     0    46     1    15
  5.2170042683217579E+00 a      1096     0    46     1    16
  2.2988679495463842E+00 a      1097     0    46     1    17
  3.3338777386267306E+00 a      1098     0    46     1    18
  5.9183920141179520E+00 a      1099     0    46     1    19
  9.7561849379419474E+00 a      1100     0    46     1    20
  1.3211126553942991E+00 a      1101     0    46     1    21
 -5.3550424766732814E+00 a      1102     0    46     1    22
 -3.9243332650747940E+00 a      1103     0    46     1    23
  4.7045233260575259E+00 a      1104     0    46     1    24
 -5.6037072685293206E+00 a      1105     0    47     1     1
  7.8218767438275076E+00 a      1106     0    47     1     2
 -1.2027266061562740E+00 a      1107     0    47     1     3
  5.0524028722597265E+00 a      1108     0    47     1     4
 -3.2848822174222425E+00 a      1109     0    47     1     5
  3.6372078984679908E+00 a      1110     0    47     1     6
 -5.0116909650016361E-01 a      1111     0    47     1     7
  1.0571988173492750E+01 a      1112     0    47     1     8
  5.6592612512571465E+00 a      1113     0    47     1     9
 -8.8355284942830075E+00 a      1114     0    47     1    10
  2.3830796176063620E+00 a      1115     0    47     1    11
 -8.5965489197516440E+00 a      1116     0    47     1    12
 -4.5776970573711200E+00 a      1117     0    47     1    13
 -2.3738110080791213E+00 a      1118     0    47     1    14
 -3.6830163972899017E+00 a      1119     0    47     1    15
 -1.0302007935018979E+01 a      1120     0    47     1    16
 -3.3017834205914141E+00 a      1121     0    47     1    17
 -1.0595652926010892E+00 a      1122     0    47     1    18
 -5.8638070772777970E+00 a      1123     0    47     1    19
  6.4093079446701893E+00 a      1124     0    47     1    20
  8.6763245046385631E+00 a      1125     0    47     1    21
 -5.6597935449376227E+00 a      1126     0    47     1    22
 -5.1358292984556586E-01 a      1127     0    47     1    23
 -2.4166742914053150E+00 a      1128     0    47     1    24
 -1.9549487745604321E+00 a      1129     0    48     1     1
  1.3676336146679782E+00 a      1130     0    48     1     2
 -1.6192236831465576E+00 a      1131     0    48     1     3
 -8.6392181867412865E-01 a      1132     0    48     1     4
  2.7673444687558164E+00 a      1133     0    48     1     5
 -2.5624182122521479E+00 a      1134     0    48     1     6
 -2.8278190814850195E+00 a      1135     0    48     1     7
  2.4617249196302540E+00 a      1136     0    48     1     8
  4.8494810325101518E+00 a      1137     0    48     1     9
  8.5976741252960243E-01 a      1138     0    48     1    10
  2.1530194903501396E+00 a      1139     0    48     1    11
 -2.5122346431797724E+00 a      1140     0    48     1    12
  8.6421205794576021E+00 a      1141     0    48     1    13
  1.7733473689056822E+00 a      1142     0    48     1    14
 -1.1436990066835286E+01 a      1143     0    48     1    15
  4.5209634750301850E+00 a      1144     0    48     1    16
 -2.8175047221985494E+00 a      1145     0    48     1    17
  4.5029423267474528E-01 a      1146     0    48     1    18
 -1.0686457177406727E+00 a      1147     0    48     1    19
  7.7805507350276333E+00 a      1148     0    48     1    20
  2.0952665812283292E-01 a      1149     0    48     1    21
 -2.3498622547876336E+00 a      1150     0    48     1    22
  1.6678828544438640E+00 a      1151     0    48     1    23
 -2.2437929739208790E-01 a      1152     0    48     1    24
  1.0904278883693333E+01 a      1153     0    49     1     1
 -1.8623200754729152E+00 a      1154     0    49     1     2
 -1.1423424036224015E+00 a      1155     0    49     1     3
  2.4123485068826369E+00 a      1156     0    49     1     4
 -6.4996602085303303E+00 a      1157     0    49     1     5
  1.0166809114285715E+00 a      1158     0    49     1     6
  6.5284106899416827E-01 a      1159     0    49     1     7
  7.2418382681550719E+00 a      1160     0    49     1     8
 -1.3459996240087817E+01 a      1161     0    49     1     9
 -1.2191284028984617E+00 a      1162     0    49     1    10
 -1.1948618628733463E+01 a      1163     0    49     1    11
  9.2410729483451650E+00 a      1164     0    49     1    12
  5.0703435069204241E+00 a      1165     0    49     1    13
  2.3617441321145085E+00 a      1166     0    49     1    14
 -5.7066832104112324E+00 a      1167     0    49     1    15
  5.7742338502059383E+00 a      1168     0    49     1    16
  9.3989235385859846E+00 a      1169     0    49     1    17
 -1.2520939313090745E-01 a      1170     0    49     1    18
  6.4255791776797344E-01 a      1171     0    49     1    19
  8.5559390180012898E+00 a      1172     0    49     1    20
 -2.9372636666327905E+00 a      1173     0    49     1    21
  4.8284624990821765E+00 a      1174     0    49     1    22
 -5.7763941832302192E+00 a      1175     0    49     1    23
 -3.1584480120976570E+00 a      1176     0    49     1    24
 -1.0842557708170894E+01 a      1177     0    50     1     1
 -1.0782508540896676E+00 a      1178     0    50     1     2
  2.1673281933975357E+00 a      1179     0    50     1     3
  3.5502782235465022E+00 a      1180     0    50     1     4
  2.8948821615744200E+00 a      1181     0    50     1     5
  1.9605368279190696E+00 a      1182     0    50     1     6
 -3.3471435462564108E+00 a      1183     0    50     1     7
  3.4427456596695833E+00 a      1184     0    50     1     8
  8.7804512006614388E+00 a      1185     0    50     1     9
  7.0898891218319244E+00 a      1186     0    50     1    10
  7.4769508198213142E-01 a      1187     0    50     1    11
 -8.1369808334364322E+00 a      1188     0    50     1    12
 -8.0259502302881192E+00 a      1189     0    50     1    13
 -4.0270167745908587E+00 a      1190     0    50     1    14
 -1.5234419703897721E+00 a      1191     0    50     1    15
 -4.6255553003887089E+00 a      1192     0    50     1    16
 -6.5635910037613521E-01 a      1193     0    50     1    17
  1.4897183983795975E+01 a      1194     0    50     1    18
  1.2426310126563342E+00 a      1195     0    50     1    19
 -1.0751522904632154E+00 a      1196     0    50     1    20
 -3.0564503858654910E+00 a      1197     0    50     1    21
  6.2466987638688902E+00 a      1198     0    50     1    22
 -4.1235272497721116E+00 a      1199     0    50     1    23
  5.0560138914121850E+00 a      1200     0    50     1    24
 -3.6727987704125424E+00 a      1201     0    51     1     1
  3.0505846904604565E+00 a      1202     0    51     1     2
 -5.9095698345325118E+00 a      1203     0    51     1     3
 -6.6907259551579612E+00 a      1204     0    51     1     4
 -2.1405155528929050E+00 a      1205     0    51     1     5
 -5.3401396087187933E+00 a      1206     0    51     1     6
 -4.3462764434418020E+00 a      1207     0    51     1     7
 -1.9182193228240429E+00 a      1208     0    51     1     8
 -1.2023276271867953E+01 a      1209     0    51     1     9
  5.4161229744775437E+00 a      1210     0    51     1    10
 -2.2393488708597129E+00 a      1211     0    51     1    11
 -2.5691376510365050E+01 a      1212     0    51     1    12
 -4.4528080727274251E+00 a      1213     0    51     1    13
 -2.5064918106036931E+00 a      1214     0    51     1    14
 -3.4712886987407039E+00 a      1215     0    51     1    15
 -1.0830430583795016E+01 a      1216     0    51     1    16
  3.0786933848046094E+00 a      1217     0    51     1    17
 -1.0688031355767421E+01 a      1218     0    51     1    18
  1.7173343337260190E+00 a      1219     0    51     1    19
  8.2909877244017132E+00 a      1220     0    51     1    20
 -3.2120349874273275E+00 a      1221     0    51     1    21
 -1.6163500844109322E+00 a      1222     0    51     1    22
  6.0511624187591249E+00 a      1223     0    51     1    23
  4.0899306258564820E+00 a      1224     0    51     1    24
 -2.6804507409448353E-01 a      1225     0    52     1     1
 -3.8403202693857357E+00 a      1226     0    52     1     2
  6.1762383196180402E+00 a      1227     0    52     1     3
  5.7389356820070070E+00 a      1228     0    52     1     4
  1.2011976520971338E+01 a      1229     0    52     1     5
 -7.8291457373948550E+00 a      1230     0    52     1     6
 -9.4051509364961994E-01 a      1231     0    52     1     7
 -7.2108387471301265E+00 a      1232     0    52     1     8
  9.1615464450570769E+00 a      1233     0    52     1     9
 -8.4991708747048644E+00 a      1234     0    52     1    10
 -1.0422048877024695E+01 a      1235     0    52     1    11
  4.3443464869480382E+00 a      1236     0    52     1    12
 -8.4606597542414252E-01 a      1237     0    52     1    13
  1.0448811004369236E+00 a      1238     0    52     1    14
 -7.2553702907796360E+00 a      1239     0    52     1    15
 -1.3954529183344579E+01 a      1240     0    52     1    16
 -1.1768882541868354E+01 a      1241     0    52     1    17
 -4.3406627472991524E+00 a      1242     0    52     1    18
  2.3820174611162050E+00 a      1243     0    52     1    19
  5.4739145116720300E-01 a      1244     0    52     1    20
  7.3136865670095774E-01 a      1245     0    52     1    21
  2.7163221399756416E+00 a      1246     0    52     1    22
 -9.8861943145191802E+00 a      1247     0    52     1    23
 -2.9232088964251921E+00 a      1248     0    52     1    24
  7.8688377156723703E+00 a      1249     0    53     1     1
  1.2229154977631584E+01 a      1250     0    53     1     2
  2.2354106542554075E+00 a      1251     0    53     1     3
  3.3549631534126538E+00 a      1252     0    53     1     4
 -1.6025092941270880E-01 a      1253     0    53     1     5
  5.4491157082883825E+00 a      1254     0    53     1     6
  1.3063130747700349E+00 a      1255     0    53     1     7
 -8.6578021476603944E+00 a      1256     0    53     1     8
  2.6391109954084548E+00 a      1257     0    53     1     9
 -2.1622223641904563E+00 a      1258     0    53     1    10
 -9.5761613678211299E-01 a      1259     0    53     1    11
 -2.7349403545789608E+00 a      1260     0    53     1    12
  7.8519152856171270E-01 a      1261     0    53     1    13
  3.6705556894845075E+00 a      1262     0    53     1    14
  2.4531064832555614E+00 a      1263     0    53     1    15
  5.6529694203960110E+00 a      1264     0    53     1    16
  3.9617881483337394E+00 a      1265     0    53     1    17
  8.8563592009007419E-01 a      1266     0    53     1    18
 -1.8004580144989994E+00 a      1267     0    53     1    19
 -3.9080054158289426E+00 a      1268     0    53     1    20
 -6.3865483921197006E+00 a      1269     0    53     1    21
  4.3526768572900227E+00 a      1270     0    53     1    22
 -3.4458594130380935E+00 a      1271     0    53     1    23
 -2.1842641358823460E+00 a      1272     0    53     1    24
 -5.0845428086193154E+00 a      1273     0    54     1     1
  8.0516426918133952E+00 a      1274     0    54     1     2
 -1.3271765061976659E+00 a      1275     0    54     1     3
 -5.4850576887480473E+00 a      1276     0    54     1     4
 -4.8449638716306467E+00 a      1277     0    54     1     5
 -1.2882382555626071E+01 a      1278     0    54     1     6
 -4.9867301117327822E-01 a      1279     0    54     1     7
  1.8295975631067165E+00 a      1280     0    54     1     8
 -9.1415015933636585E+00 a      1281     0    54     1     9
  9.5999729507032914E+00 a      1282     0    54     1    10
 -5.6855280632202261E+00 a      1283     0    54     1    11
 -2.1317009136656280E+00 a      1284     0    54     1    12
  1.0996833884362950E+01 a      1285     0    54     1    13
  3.3779406211934506E+00 a      1286     0    54     1    14
 -5.8944936478272050E+00 a      1287     0    54     1    15
 -1.8933358589354090E+00 a      1288     0    54     1    16
  6.7546210040382109E+00 a      1289     0    54     1    17
  1.2546595206530697E-01 a      1290     0    54     1    18
 -9.1621546210955784E-01 a      1291     0    54     1    19
 -5.6228319059639942E+00 a      1292     0    54     1    20
 -1.5457888727639430E+01 a      1293     0    54     1    21
  1.2752585168059497E+01 a      1294     0    54     1    22
 -8.4727681360312488E+00 a      1295     0    54     1    23
  4.2973996945933477E+00 a      1296     0    54     1    24
  1.9202105811993619E-01 a      1297     0    55     1     1
  6.3692247479081479E+00 a      1298     0    55     1     2
 -6.3858443435125842E+00 a      1299     0    55     1     3
  7.0979641905996815E-01 a      1300     0    55     1     4
  1.2146095419400677E+01 a      1301     0    55     1     5
  5.1704176144498186E+00 a      1302     0    55     1     6
 -2.9572270402786112E+00 a      1303     0    55     1     7
 -4.4044350023374159E+00 a      1304     0    55     1     8
  3.9926251622960507E+00 a      1305     0    55     1     9
 -4.9019231700085877E+00 a      1306     0    55     1    10
 -4.0295239002252909E+00 a      1307     0    55     1    11
 -1.7003148554472240E+00 a      1308     0    55     1    12
  6.1749141722549439E+00 a      1309     0    55     1    13
  1.0660862319710089E+01 a      1310     0    55     1    14
  4.1939385573186705E+00 a      1311     0    55     1    15
 -1.1524560100725427E+01 a      1312     0    55     1    16
  8.2389550923552086E+00 a      1313     0    55     1    17
 -4.5408188385831698E+00 a      1314     0    55     1    18
 -4.3491963510399287E+00 a      1315     0    55     1    19
  1.0853048322450208E+01 a      1316     0    55     1    20
  8.6716242311230118E+00 a      1317     0    55     1    21
  1.5706363344286354E+00 a      1318     0    55     1    22
 -5.8663338299382568E+00 a      1319     0    55     1    23
 -1.3812853449684011E+00 a      1320     0    55     1    24
  1.0724225497495702E+01 a      1321     0    56     1     1
 -2.8168535142557189E+00 a      1322     0    56     1     2
 -1.7135392834066785E+00 a      1323     0    56     1     3
  2.0468174583969394E+00 a      1324     0    56     1     4
  6.7039662735263441E+00 a      1325     0    56     1     5
  7.5418556217460857E+00 a      1326     0    56     1     6
  1.6075923965441694E+00 a      1327     0    56     1     7
  4.0003455704094399E+00 a      1328     0    56     1     8
 -1.8441924951149833E+01 a      1329     0    56     1     9
 -7.7354741568712049E+00 a      1330     0    56     1    10
  7.4213912581541823E+00 a      1331     0    56     1    11
 -9.9654675398967143E+00 a      1332     0    56     1    12
 -1.1482620110319310E+01 a      1333     0    56     1    13
 -5.2901391413253664E+00 a      1334     0    56     1    14
  5.5380256531390906E+00 a      1335     0    56     1    15
  2.3365785317464427E+00 a      1336     0    56     1    16
 -7.9309329823133607E+00 a      1337     0    56     1    17
  5.8188518228630146E+00 a      1338     0    56     1    18
 -3.8235846615213864E+00 a      1339     0    56     1    19
  4.7459747892863708E+00 a      1340     0    56     1    20
 -6.6528230346410142E+00 a      1341     0    56     1    21
 -2.8267317713948441E+00 a      1342     0    56     1    22
 -1.4681749168068077E+00 a      1343     0    56     1    23
  1.3486941465513431E+00 a      1344     0    56     1    24
 -8.5471725188523546E+00 a      1345     0    57     1     1
 -1.4963929529043083E+01 a      1346     0    57     1     2
 -8.9834824779512346E+00 a      1347     0    57     1     3
 -6.4875163272880565E+00 a      1348     0    57     1     4
  2.9763440598265092E+00 a      1349     0    57     1     5
 -6.7811112812691032E+00 a      1350     0    57     1     6
  4.1304786545629231E+00 a      1351     0    57     1     7
  4.3423735872773506E+00 a      1352     0    57     1     8
 -9.3690407583979916E+00 a      1353     0    57     1     9
 -9.9493937804341996E+00 a      1354     0    57     1    10
 -3.6242063534975637E+00 a      1355     0    57     1    11
 -8.9129838612271806E-01 a      1356     0    57     1    12
  5.8910483533841540E-01 a      1357     0    57     1    13
 -1.2815073462905198E+00 a      1358     0    57     1    14
 -3.9930033097752156E+00 a      1359     0    57     1    15
 -5.0940172637333203E-01 a      1360     0    57     1    16
  2.5491013019273008E+00 a      1361     0    57     1    17
 -5.4197353773591948E+00 a      1362     0    57     1    18
  1.4783489304294009E+00 a      1363     0    57     1    19
  6.0126686056337721E+00 a      1364     0    57     1    20
 -5.4688960508258555E+00 a      1365     0    57     1    21
  3.1084288664133943E+00 a      1366     0    57     1    22
  9.3840734222890809E+00 a      1367     0    57     1    23
  2.6599442216231073E+00 a      1368     0    57     1    24
 -1.1060483422149616E+00 a      1369     0    58     1     1
 -7.3987751325348832E+00 a      1370     0    58     1     2
 -1.2087457431848974E+00 a      1371     0    58     1     3
 -2.8141587447108990E-01 a      1372     0    58     1     4
 -6.2159607222539783E+00 a      1373     0    58     1     5
 -7.4318743723907881E+00 a      1374     0    58     1     6
  2.6407385370197218E+00 a      1375     0    58     1     7
  3.2858286275273363E+00 a      1376     0    58     1     8
  7.1427633480591890E+00 a      1377     0    58     1     9
  8.0811830438889718E+00 a      1378     0    58     1    10
 -9.0059181291177381E+00 a      1379     0    58     1    11
  2.2370447355567764E+00 a      1380     0    58     1    12
  6.6007871846334423E+00 a      1381     0    58     1    13
 -6.1184839479007707E+00 a      1382     0    58     1    14
 -3.3373142206075550E+00 a      1383     0    58     1    15
  3.8043478411505176E+00 a      1384     0    58     1    16
 -1.4197029653820460E+01 a      1385     0    58     1    17
  4.0457377347065568E+00 a      1386     0    58     1    18
 -7.1092599623048196E+00 a      1387     0    58     1    19
 -1.9966991980139683E+00 a      1388     0    58     1    20
  8.0998923522925370E+00 a      1389     0    58     1    21
 -1.2867508908974287E+01 a      1390     0    58     1    22
 -3.0676282535469599E+00 a      1391     0    58     1    23
  8.6727019558961942E+00 a      1392     0    58     1    24
  3.8387472495029390E-01 a      1393     0    59     1     1
 -7.3765277879069142E+00 a      1394     0    59     1     2
  5.2062421743146770E+00 a      1395     0    59     1     3
 -4.0972799586651265E-01 a      1396     0    59     1     4
  8.3601486708026709E+00 a      1397     0    59     1     5
  2.0617102188780407E+00 a      1398     0    59     1     6
 -2.4244762174056134E+00 a      1399     0    59     1     7
 -7.6157530956807067E+00 a      1400     0    59     1     8
 -7.4652413746294943E+00 a      1401     0    59     1     9
 -4.7679036278191544E+00 a      1402     0    59     1    10
  9.4604315797195166E+00 a      1403     0    59     1    11
 -1.7515055302232756E+01 a      1404     0    59     1    12
 -3.0532107057133766E+00 a      1405     0    59     1    13
  9.0590971307258314E+00 a      1406     0    59     1    14
 -7.8024704189482277E+00 a      1407     0    59     1    15
  1.1068343970727876E-01 a      1408     0    59     1    16
 -3.0775999506392298E+00 a      1409     0    59     1    17
  9.9428354704480348E+00 a      1410     0    59     1    18
  9.6532503515922006E+00 a      1411     0    59     1    19
 -2.2746935655303653E+00 a      1412     0    59     1    20
 -9.4588397942378872E+00 a      1413     0    59     1    21
  3.1052781229764062E+00 a      1414     0    59     1    22
  9.4061036968588745E+00 a      1415     0    59     1    23
  8.7889068894713471E+00 a      1416     0    59     1    24
  1.5123240443923075E+01 a      1417     0    60     1     1
  7.3906733536655844E-01 a      1418     0    60     1     2
 -8.5456238387578836E+00 a      1419     0    60     1     3
 -8.4002705876159989E-03 a      1420     0    60     1     4
 -1.3029572144427952E+00 a      1421     0    60     1     5
 -7.4561071133065591E+00 a      1422     0    60     1     6
  7.6029821408922249E-01 a      1423     0    60     1     7
 -5.8679566245672108E+00 a      1424     0    60     1     8
  1.6725662469405511E+00 a      1425     0    60     1     9
 -1.1139790967807973E-02 a      1426     0    60     1    10
  1.6407826175864662E+00 a      1427     0    60     1    11
 -4.1911696143614448E+00 a      1428     0    60     1    12
  5.0764079078362299E+00 a      1429     0    60     1    13
 -9.7792894627502402E-02 a      1430     0    60     1    14
 -1.9219201567094248E+00 a      1431     0    60     1    15
  3.4236034660307966E+00 a      1432     0    60     1    16
  1.7399071779018829E-01 a      1433     0    60     1    17
  1.2609397559659297E+00 a      1434     0    60     1    18
  4.2197446839908332E+00 a      1435     0    60     1    19
 -3.1794664670099624E+00 a      1436     0    60     1    20
 -1.5333156946773270E+01 a      1437     0    60     1    21
  7.2807947300377265E+00 a      1438     0    60     1    22
  8.7573708732705402E+00 a      1439     0    60     1    23
 -1.3434832185945516E+00 a      1440     0    60     1    24
 -2.0541836447328183E+00 a      1441     0    61     1     1
 -2.4767041929648217E+00 a      1442     0    61     1     2
  3.5794970637607011E+00 a      1443     0    61     1     3
  3.2143049946315738E+00 a      1444     0    61     1     4
  1.0461001110563859E+00 a      1445     0    61     1     5
 -5.9601615917816535E-02 a      1446     0    61     1     6
 -3.1848275497965997E+00 a      1447     0    61     1     7
 -1.2336532785512974E+01 a      1448     0    61     1     8
 -8.3072325508343425E+00 a      1449     0    61     1     9
  1.4286359221557845E+00 a      1450     0    61     1    10
  8.3133483485310098E+00 a      1451     0    61     1    11
  4.4881193730420526E+00 a      1452     0    61     1    12
 -1.5876777484290305E+00 a      1453     0    61     1    13
 -1.3063837354784906E+00 a      1454     0    61     1    14
  1.2417913324484910E+00 a      1455     0    61     1    15
 -3.1362065526285940E+00 a      1456     0    61     1    16
  1.0121931526390775E+01 a      1457     0    61     1    17
 -8.3037666461439741E-01 a      1458     0    61     1    18
 -2.9876189567713283E+00 a      1459     0    61     1    19
 -4.8826183691335645E+00 a      1460     0    61     1    20
 -1.8603744061124963E+00 a      1461     0    61     1    21
 -1.1965880576872430E+00 a      1462     0    61     1    22
 -1.0741187202761068E+01 a      1463     0    61     1    23
  8.6943242369614531E+00 a      1464     0    61     1    24
  2.4167471460663159E+00 a      1465     0    62     1     1
 -3.9438186429288082E+00 a      1466     0    62     1     2
 -2.3215219989838953E+00 a      1467     0    62     1     3
  1.0606823114300923E+00 a      1468     0    62     1     4
 -6.9865348192937538E-01 a      1469     0    62     1     5
 -1.1365058621833328E+00 a      1470     0    62     1     6
 -6.1443667003075819E-01 a      1471     0    62     1     7
  1.2802082285964178E+00 a      1472     0    62     1     8
  3.4058565451677190E+00 a      1473     0    62     1     9
  2.6707686741522081E+00 a      1474     0    62     1    10
  6.1427106201033936E+00 a      1475     0    62     1    11
 -6.9550500603594045E+00 a      1476     0    62     1    12
  8.3670272704214366E-01 a      1477     0    62     1    13
 -5.5988662268478278E+00 a      1478     0    62     1    14
 -8.1688783725969945E+00 a      1479     0    62     1    15
 -9.7657597252592299E-01 a      1480     0    62     1    16
 -1.0041339886826650E+01 a      1481     0    62     1    17
 -5.9935441416588944E+00 a      1482     0    62     1    18
  1.6933637917932964E+00 a      1483     0    62     1    19
  3.9744213503410450E+00 a      1484     0    62     1    20
  2.4332117220630369E+00 a      1485     0    62     1    21
  1.1266163877366173E+00 a      1486     0    62     1    22
  2.2522324280443904E+00 a      1487     0    62     1    23
 -8.5672265891861610E+00 a      1488     0    62     1    24
  2.8433812315274742E-01 a      1489     0    63     1     1
 -1.9903227401070760E+00 a      1490     0    63     1     2
  1.9779853383027539E+00 a      1491     0    63     1     3
 -5.5576820554079553E+00 a      1492     0    63     1     4
  7.3370069084658436E+00 a      1493     0    63     1     5
 -6.4142105134437886E+00 a      1494     0    63     1     6
  2.7406555738552973E+00 a      1495     0    63     1     7
  8.7330602441067606E-01 a      1496     0    63     1     8
  1.0902885956297186E+00 a      1497     0    63     1     9
 -9.5395063942233627E+00 a      1498     0    63     1    10
 -3.2636291516600959E+00 a      1499     0    63     1    11
  9.4565185712135591E-01 a      1500     0    63     1    12
  9.3259214741678498E-01 a      1501     0    63     1    13
  2.9649107110129944E+00 a      1502     0    63     1    14
  1.2293172195123560E+01 a      1503     0    63     1    15
  2.4950103737124901E-01 a      1504     0    63     1    16
 -3.0647130827869709E+00 a      1505     0    63     1    17
  2.4321003553508427E+00 a      1506     0    63     1    18
 -1.4557712761955237E+00 a      1507     0    63     1    19
 -8.5216813238315829E+00 a      1508     0    63     1    20
 -8.8036346034010222E+00 a      1509     0    63     1    21
 -1.7837057832326233E+00 a      1510     0    63     1    22
 -3.2282014621426995E+00 a      1511     0    63     1    23
 -1.7997155837439178E+00 a      1512     0    63     1    24
  3.2597899880198020E+00 a      1513     0    64     1     1
 -2.6985094739069803E-02 a      1514     0    64     1     2
  3.1388506195350865E+00 a      1515     0    64     1     3
 -8.6972861057612700E+00 a      1516     0    64     1     4
 -4.9976554897653935E+00 a      1517     0    64     1     5
  3.6537623970676671E+00 a      1518     0    64     1     6
  3.4311285598953800E+00 a      1519     0    64     1     7
 -8.6240429717432416E+00 a      1520     0    64     1     8
 -3.4719912429769662E+00 a      1521     0    64     1     9
 -6.1147702292482808E+00 a      1522     0    64     1    10
 -4.0148241962495792E+00 a      1523     0    64     1    11
  1.2679495058737293E+00 a      1524     0    64     1    12
 -5.7295729219562901E+00 a      1525     0    64     1    13
 -1.8217658373245731E+00 a      1526     0    64     1    14
 -1.1833432106265491E+00 a      1527     0    64     1    15
  2.8819220918939426E+00 a      1528     0    64     1    16
  5.8493467998451392E+00 a      1529     0    64     1    17
 -5.2245569638286604E-01 a      1530     0    64     1    18
  1.1339200283728013E+01 a      1531     0    64     1    19
  1.6200246259018802E+00 a      1532     0    64     1    20
 -2.3128599880784559E+01 a      1533     0    64     1    21
 -2.8139177738564460E+00 a      1534     0    64     1    22
  1.4084932536149335E+00 a      1535     0    64     1    23
 -9.5444578556057147E-01 a      1536     0    64     1    24
 -4.4209311491976502E-02 a      1537     0    65     1     1
 -1.2880585398277999E+01 a      1538     0    65     1     2
  5.1498117898835227E+00 a      1539     0    65     1     3
  4.1657214783074181E+00 a      1540     0    65     1     4
  5.2624288397315979E+00 a      1541     0    65     1     5
  8.3502691601233880E-01 a      1542     0    65     1     6
 -1.2874342004516082E+00 a      1543     0    65     1     7
 -8.8160737355503649E+00 a      1544     0    65     1     8
 -6.4326573726361165E+00 a      1545     0    65     1     9
  3.2190679311137425E+00 a      1546     0    65     1    10
 -1.0671270110840272E+01 a      1547     0    65     1    11
  3.6994884412984979E+00 a      1548     0    65     1    12
 -5.9278331865888028E+00 a      1549     0    65     1    13
 -5.0027709582518858E+00 a      1550     0    65     1    14
  7.1903368220084634E+00 a      1551     0    65     1    15
  3.9668527734914805E+00 a      1552     0    65     1    16
 -5.4222797132748779E+00 a      1553     0    65     1    17
  1.3688045763011867E+00 a      1554     0    65     1    18
  7.1569052093721486E-01 a      1555     0    65     1    19
  1.3069111324525431E-01 a      1556     0    65     1    20
 -1.3943912581565245E+00 a      1557     0    65     1    21
  1.3693741719367042E+01 a      1558     0    65     1    22
  4.9386016929882448E+00 a      1559     0    65     1    23
  8.4635376259098987E+00 a      1560     0    65     1    24
  1.3391499652618542E+01 a      1561     0    66     1     1
 -5.4738289018658222E+00 a      1562     0    66     1     2
 -4.0412768419468337E-01 a      1563     0    66     1     3
 -4.0954290498759862E+00 a      1564     0    66     1     4
 -8.0730807832577174E+00 a      1565     0    66     1     5
  8.3081082484849700E-01 a      1566     0    66     1     6
 -2.4381662132480901E+00 a      1567     0    66     1     7
 -3.0727691651467635E+00 a      1568     0    66     1     8
  7.0518894332880677E+00 a      1569     0    66     1     9
  4.7704878584609389E-01 a      1570     0    66     1    10
  6.3521236457710435E+00 a      1571     0    66     1    11
 -2.7811445041943288E+00 a      1572     0    66     1    12
  3.9167201096543875E+00 a      1573     0    66     1    13
  5.1288493428873068E+00 a      1574     0    66     1    14
 -8.3696463143730941E+00 a      1575     0    66     1    15
 -2.4535395083330576E+00 a      1576     0    66     1    16
 -1.1593428055042475E+01 a      1577     0    66     1    17
 -6.6982860595610720E+00 a      1578     0    66     1    18
  1.3165186135144383E+01 a      1579     0    66     1    19
 -1.5440575020160732E+00 a      1580     0    66     1    20
  3.2248478163608860E+00 a      1581     0    66     1    21
 -6.6020905617652330E+00 a      1582     0    66     1    22
 -5.7857755413346661E+00 a      1583     0    66     1    23
 -2.1383015067351283E+00 a      1584     0    66     1    24
  1.0937954403844508E+01 a      1585     0    67     1     1
 -6.5963070979960126E+00 a      1586     0    67     1     2
  4.0660247435644203E-01 a      1587     0    67     1     3
 -1.2607464787677452E+01 a      1588     0    67     1     4
 -1.2283243910595010E+01 a      1589     0    67     1     5
  2.2639022625369245E+00 a      1590     0    67     1     6
 -6.8709233151319715E-01 a      1591     0    67     1     7
  1.4280768299702332E+01 a      1592     0    67     1     8
 -1.3814204042956005E+01 a      1593     0    67     1     9
  1.1350935421395986E+01 a      1594     0    67     1    10
  4.8048719819571000E+00 a      1595     0    67     1    11
 -1.4951776345130439E+01 a      1596     0    67     1    12
 -1.3659254467262086E+01 a      1597     0    67     1    13
 -1.1438349839301610E+01 a      1598     0    67     1    14
  2.4418543530558172E+00 a      1599     0    67     1    15
  8.5144049236640562E-01 a      1600     0    67     1    16
 -3.2006619234002218E+00 a      1601     0    67     1    17
 -6.5832033802757719E+00 a      1602     0    67     1    18
  7.4060750715648860E+00 a      1603     0    67     1    19
  4.2960297794335194E+00 a      1604     0    67     1    20
 -3.7038628481016422E+00 a      1605     0    67     1    21
  8.5551138522240877E-01 a      1606     0    67     1    22
  3.3310067637607861E+00 a      1607     0    67     1    23
  1.6117469289118445E+00 a      1608     0    67     1    24
 -2.6103117320633286E-02 a      1609     0    68     1     1
 -3.1304146351292701E+00 a      1610     0    68     1     2
  5.6081750902713754E+00 a      1611     0    68     1     3
 -9.9306915500923125E+00 a      1612     0    68     1     4
 -3.4158293184736714E+00 a      1613     0    68     1     5
  5.1125540352616268E+00 a      1614     0    68     1     6
 -6.5532545860594587E+00 a      1615     0    68     1     7
 -8.9178258836976865E-01 a      1616     0    68     1     8
  3.6531134338337194E+00 a      1617     0    68     1     9
  2.2091968121838534E+00 a      1618     0    68     1    10
 -4.5037249277195723E-01 a      1619     0    68     1    11
  4.2253570378224135E+00 a      1620     0    68     1    12
  5.6301345574060218E+00 a      1621     0    68     1    13
 -7.7174094668877091E-01 a      1622     0    68     1    14
 -3.8610986917486994E+00 a      1623     0    68     1    15
